tree
version=v4
num_class=1
num_tree_per_iteration=1
label_index=0
max_feature_idx=22
objective=regression
feature_names=Product_Brand_freq City_freq Amount Total_Amount lag_1 lag_2 lag_3 lag_7 lag_14 lag_21 roll_mean_7 roll_std_7 roll_mean_14 roll_std_14 roll_mean_30 roll_std_30 cat_roll_30 country_roll_30 product_freq product_target_enc Product_Category_le Country_le products_grouped_le
feature_infos=[0.022509163479657399:0.099816332858926105] [0.0027907864293039999:0.0716977681659524] [10.27003335:496.6026162] [37.542306799999999:4414.0998228874996] [1:518] [1:518] [1:518] [1:518] [1:518] [1:518] [2.2857142857142856:518] [0:127.21635115031413] [3.5:494.71428571428572] [0:123.49213615573932] [4.6799999999999997:465.16666666666669] [0:112.48531960410118] [4.6799999999999997:465.16666666666669] [4.7333333333333334:465.16666666666669] [0.013592775346801899:0.14821711200074481] [166.37006772302621:226.62883360075944] [0:5] [0:5] [0:50]
tree_sizes=4841 4940 4937 4919 4934 4896 4910 4926 4907 4920 4900 4913 4878 4880 4906 4925 4935 4913 4878 4881 4889 4895 4883 4951 4949 4885 4905 4907 4882 4922 4924 4911 4896 4944 4919 4974 4918 4931 4952 4951 4943 4890 4939 4940 4932 4922 4988 4956 4977 4945 4987 4963 4975 4968 4945 4929 4947 4948 4938 4979 4947 4957 4946 4944 4935 4967 4943 4970 4974 4908 5007 4956 4993 4974 4897 4952 4997 4924

Tree=0
num_leaves=56
num_cat=0
split_feature=4 4 4 4 4 4 4 4 4 4 4 4 4 4 4 4 18 18 4 4 4 8 4 1 4 4 4 4 18 16 4 4 20 3 4 21 18 0 14 3 14 14 16 18 3 18 14 14 16 18 3 16 18 18 4
split_gain=2.01125e+08 3.80616e+07 3.6258e+07 6.29633e+06 5.44176e+06 5.22731e+06 3.81799e+06 1.93253e+06 967602 847260 730448 613215 554736 503032 474349 445621 279290 164233 145245 142668 137398 100162 98429.6 80033.2 64078.5 58010.3 55877.7 55646.4 54688.7 195610 54471 47120.3 45644.6 44818 43503.8 37455.5 102330 37824.7 32387.9 29025.4 24886.6 24624.2 23269.8 85442.5 26957 22638.6 85077.9 26905.4 21112.6 45833 37204.2 27567.5 26689.1 21071.1 19824.6
threshold=226.50000000000003 327.50000000000006 155.50000000000003 116.50000000000001 188.50000000000003 274.50000000000006 394.50000000000006 55.500000000000007 134.50000000000003 251.50000000000003 210.50000000000003 169.50000000000003 95.500000000000014 357.50000000000006 301.50000000000006 439.50000000000006 0.084358998231077162 0.084358998231077162 198.50000000000003 146.50000000000003 239.50000000000003 74.500000000000014 180.50000000000003 0.012453532763759203 125.50000000000001 163.50000000000003 284.50000000000006 219.50000000000003 0.084358998231077162 208.28333333333339 107.50000000000001 259.50000000000006 1.0000000180025095e-35 1241.4347335975351 83.500000000000014 2.5000000000000004 0.084358998231077162 0.057851931028546355 153.05000000000004 1264.2519949409123 160.25000000000003 153.58333333333334 205.75000000000003 0.084358998231077162 1390.1731155478217 0.084358998231077162 168.55000000000004 198.21666666666667 188.51666666666668 0.084358998231077162 1278.5321653486433 158.35000000000005 0.084358998231077162 0.084358998231077162 203.50000000000003
decision_type=2 2 2 2 2 2 2 2 2 2 2 2 2 2 2 2 2 2 2 2 2 2 2 2 2 2 2 2 2 2 2 2 2 2 2 2 2 2 2 2 2 2 2 2 2 2 2 2 2 2 2 2 2 2 2
left_child=2 5 3 7 11 9 13 21 24 20 18 25 16 -3 26 -8 34 30 35 38 -2 -1 48 -19 53 40 -7 42 54 33 -14 -11 -18 -30 -9 36 -6 -38 -10 -34 -4 -21 43 -12 -45 -24 -47 -48 49 -13 -51 -52 -50 -5 -20
right_child=1 6 4 8 10 14 15 12 19 31 27 22 17 -15 -16 -17 32 23 28 41 -22 -23 45 -25 -26 -27 -28 -29 29 -31 -32 -33 39 -35 -36 -37 37 -39 -40 -41 -42 -43 -44 44 -46 46 47 -49 52 50 51 -53 -54 -55 -56
leaf_value=175.74906119136938 192.5823832273577 200.86388841307064 186.83177903018685 184.3061091415203 189.55829368130517 195.99596928086598 206.07781515840207 181.02464860425243 185.58868994325343 194.27228714069759 191.16194986285089 188.23791384076421 182.93146472533104 203.45754289724039 198.67400248957915 209.70914968672352 182.39691358617637 184.20366840508055 190.20379651869752 186.24645625009603 193.5528042871793 180.57939698877041 188.9653827433776 186.40943213900954 185.01697434433495 187.62161502557436 197.13951680754144 191.85237167119757 186.6805369383259 191.82652605103357 183.65234629036487 195.09225768147368 183.23890092871841 188.92905154840781 182.08743562893767 189.84467559791895 188.83398219141102 186.49108511099584 186.11489213250044 185.1087252106004 187.33230921895682 186.72411440927976 191.49545982107912 187.7515669048415 190.09231921041726 186.84934130646022 188.74747544129852 190.69013507927147 188.38844895528143 186.21992767488905 187.0644854102149 188.62915881509656 189.68483432220722 185.12867874589298 190.65001608828024
leaf_weight=229 2055 1089 1535 2196 953 750 889 832 2695 969 764 2153 2002 1117 1359 487 141 681 951 1806 1644 73 1875 140 3044 1839 1112 1373 67 135 1878 1733 122 192 1182 1384 76 88 1397 242 1249 1500 745 54 51 134 128 55 762 121 126 147 102 433 1676
leaf_count=229 2055 1089 1535 2196 953 750 889 832 2695 969 764 2153 2002 1117 1359 487 141 681 951 1806 1644 73 1875 140 3044 1839 1112 1373 67 135 1878 1733 122 192 1182 1384 76 88 1397 242 1249 1500 745 54 51 134 128 55 762 121 126 147 102 433 1676
internal_value=189.411 197.541 186.685 184.481 189.108 195.042 204.235 182.726 185.494 193.777 190.53 187.925 182.984 202.206 197.544 207.431 182.049 183.492 190.01 186.072 193.019 176.755 188.462 184.559 184.742 187.276 196.698 191.488 190.365 189.526 183.273 194.808 183.783 188.306 181.629 189.581 189.253 187.526 185.764 184.407 187.052 186.459 191.172 190.883 188.871 188.862 188.27 189.351 188.206 188.094 187.334 187.877 188.543 184.433 190.49
internal_weight=0 13204 39328 20593 18735 9622 3582 7522 13071 6401 8509 10226 7220 2206 3221 1376 2519 4701 5522 7398 3699 302 5603 821 5673 4623 1862 2987 3021 394 3880 2702 505 259 2014 2501 1117 164 4092 364 2784 3306 1614 869 105 2192 317 183 3411 2547 394 273 864 2629 2627
internal_count=52532 13204 39328 20593 18735 9622 3582 7522 13071 6401 8509 10226 7220 2206 3221 1376 2519 4701 5522 7398 3699 302 5603 821 5673 4623 1862 2987 3021 394 3880 2702 505 259 2014 2501 1117 164 4092 364 2784 3306 1614 869 105 2192 317 183 3411 2547 394 273 864 2629 2627
is_linear=0
shrinkage=1


Tree=1
num_leaves=56
num_cat=0
split_feature=4 4 4 4 4 4 4 4 4 4 4 4 4 4 4 4 18 22 4 4 4 4 4 8 4 1 4 4 4 14 18 3 4 3 16 18 3 14 18 18 21 21 16 3 3 14 18 18 17 4 3 18 14 16 18
split_gain=1.71876e+08 3.19412e+07 3.15592e+07 5.5974e+06 4.72815e+06 4.18924e+06 3.28369e+06 1.71477e+06 828801 693324 597172 587719 518388 433858 400662 353000 231755 144966 97288.9 93653.5 90415.3 89881.2 89460.8 83821.3 75421.5 65080.1 60549.7 60464.1 54136.2 52975 142214 41322.3 37899.5 37685.8 33299.2 89108.9 41480.4 32833.3 96907.5 29170.8 28489.4 25125.3 23714.4 23324.2 23294 22949.5 84925.7 28867.9 22491.7 20858.6 20314.1 19480.2 72743.9 19416.9 30826.9
threshold=228.50000000000003 156.50000000000003 327.50000000000006 117.50000000000001 191.50000000000003 277.50000000000006 394.50000000000006 55.500000000000007 137.50000000000003 251.50000000000003 173.50000000000003 211.50000000000003 95.500000000000014 355.00000000000006 443.50000000000006 308.50000000000006 0.084358998231077162 1.5000000000000002 128.50000000000003 147.50000000000003 163.50000000000003 201.50000000000003 240.50000000000003 74.500000000000014 181.50000000000003 0.012189512059315103 289.50000000000006 108.50000000000001 263.50000000000006 207.48333333333338 0.084358998231077162 1081.0432005362302 83.500000000000014 1264.2519949409123 195.98333333333338 0.084358998231077162 1378.612640361089 174.68333333333337 0.084358998231077162 0.084358998231077162 4.5000000000000009 4.5000000000000009 155.15000000000001 1349.8723010903752 1396.3310275534329 207.48333333333338 0.084358998231077162 0.084358998231077162 152.88333333333335 218.50000000000003 1109.3377039530885 0.084358998231077162 213.68333333333334 163.28333333333339 0.084358998231077162
decision_type=2 2 2 2 2 2 2 2 2 2 2 2 2 2 2 2 2 2 2 2 2 2 2 2 2 2 2 2 2 2 2 2 2 2 2 2 2 2 2 2 2 2 2 2 2 2 2 2 2 2 2 2 2 2 2
left_child=1 3 5 7 10 9 13 23 18 22 20 21 16 -4 -8 26 32 25 -5 48 53 34 -2 -1 50 -14 -7 -19 -11 30 49 -23 -9 -18 35 -6 -37 38 -26 -36 -22 -41 -21 -42 -32 46 -33 -47 -10 -13 -12 -24 -53 54 -3
right_child=2 4 6 8 11 15 14 12 19 28 24 29 17 -15 -16 -17 33 27 -20 42 40 31 51 -25 37 -27 -28 -29 -30 -31 44 45 -34 -35 39 36 -38 -39 -40 41 43 -43 -44 -45 -46 47 -48 -49 -50 -51 -52 52 -54 -55 -56
leaf_value=-12.64916437528702 3.0464433999030032 -2.1715100811549797 10.494963362994616 -4.4785364865180002 0.37543425968526212 6.3762166313035609 15.492788877360811 -7.7573771513646799 -3.4174647201693271 4.6399473824495132 -1.8483064074313764 1.5919596644281921 -4.8048938803157473 12.908151474353069 19.000312713758241 8.8302957621479674 -6.2733238203447721 -5.9607515964813418 -3.8417668201084401 -2.860453893187477 -1.5813304189847481 -0.85994765367410075 4.0052174363343953 -8.2019327728533806 -0.37542733998351768 -2.9454924709182198 7.4560222657046262 -5.2568173451975611 5.4256626548800888 2.3125416472398332 -1.1807521004717687 1.0943885614722262 -6.7700907396328578 -4.5518434241295287 0.55223280468924774 -2.3622487702680024 -0.28127568354134086 -0.11004033426053234 -2.2311596383202983 0.60909810516471319 -1.1189194224720753 2.8926000633662907 -2.3963553839082552 0.60717584579854367 0.54881246194617161 1.2105508065814563 -0.62245665637644521 2.6191793449577991 -2.9358199867821662 2.2463186471364578 -0.90384839214835044 0.59602874175532639 3.9022452079904051 -1.8452074578909841 -3.2416335529818094
leaf_weight=232 1935 1288 1020 3378 1389 939 944 831 2183 1448 142 635 719 1185 434 1011 184 2187 3063 1773 2895 63 1270 73 1146 166 1103 1937 1404 1650 92 1397 1184 323 811 100 122 1360 186 57 165 58 1473 58 80 651 186 99 1243 669 2222 57 131 952 205
leaf_count=232 1935 1288 1020 3378 1389 939 944 831 2183 1448 142 635 719 1185 434 1011 184 2187 3063 1773 2895 63 1270 73 1146 166 1103 1937 1404 1650 92 1397 1184 323 811 100 122 1360 186 57 165 58 1473 58 80 651 186 99 1243 669 2222 57 131 952 205
internal_value=0 -2.48468 7.63471 -4.52481 -0.195882 5.29103 13.701 -6.13522 -3.56051 4.1554 -1.25065 1.19381 -5.90097 11.8178 16.6613 7.60347 -6.8116 -5.43618 -4.17894 -2.96081 -1.79465 0.675175 3.40929 -11.7328 -0.650869 -4.47471 6.97615 -5.63686 5.03553 2.00979 1.66456 1.00928 -7.19531 -5.23151 0.358162 0.147955 -1.25107 -0.374112 -0.642074 0.720775 -1.51706 1.83507 -2.6539 -0.665007 -0.381391 1.06161 0.891136 1.4128 -3.24728 1.93511 -0.964446 3.87876 2.94238 -2.14475 -2.32883
internal_weight=0 39627 12881 20949 18678 9298 3583 7836 13113 6245 10619 8059 7531 2205 1378 3053 2522 5009 6441 6672 5563 4933 3393 305 5056 885 2042 4124 2852 3126 1476 2396 2015 507 2537 1611 222 2692 1332 926 3118 115 3246 223 172 2333 1583 750 3426 1304 2364 1458 188 2445 1493
internal_count=52508 39627 12881 20949 18678 9298 3583 7836 13113 6245 10619 8059 7531 2205 1378 3053 2522 5009 6441 6672 5563 4933 3393 305 5056 885 2042 4124 2852 3126 1476 2396 2015 507 2537 1611 222 2692 1332 926 3118 115 3246 223 172 2333 1583 750 3426 1304 2364 1458 188 2445 1493
is_linear=0
shrinkage=0.0761155


Tree=2
num_leaves=56
num_cat=0
split_feature=4 4 4 4 4 4 4 4 4 4 4 4 4 4 4 18 18 4 4 4 4 4 8 1 3 18 4 4 21 18 14 18 4 14 20 4 21 18 18 18 4 17 18 16 22 0 1 18 0 14 4 3 3 4 18
split_gain=1.46764e+08 2.77911e+07 2.64608e+07 4.61368e+06 4.03461e+06 3.95872e+06 2.60945e+06 1.42418e+06 707700 612974 579445 524345 446930 433756 408629 197102 116520 115551 107979 103681 93213.7 71625.7 68364.5 58410.2 48730.1 82685.2 47310.1 45829.6 45141.1 89780.7 44519.8 73564.3 40859.3 39336.3 38098.8 37166.3 36515.2 55123.5 47831.9 34306.2 33811.2 29363.7 28521.6 70646.6 27548.4 26926.1 25843.6 75029.4 27275.6 25410.2 25158.8 24681.3 23560.3 22175.3 21724.7
threshold=226.50000000000003 330.50000000000006 155.50000000000003 116.50000000000001 273.50000000000006 188.50000000000003 384.50000000000006 55.500000000000007 134.50000000000003 427.50000000000006 246.50000000000003 210.50000000000003 169.50000000000003 299.50000000000006 95.500000000000014 0.084358998231077162 0.084358998231077162 342.50000000000006 196.50000000000003 143.50000000000003 257.50000000000006 179.50000000000003 74.500000000000014 0.012189512059315103 1139.2054414802994 0.084358998231077162 125.50000000000001 235.50000000000003 4.5000000000000009 0.084358998231077162 158.48333333333338 0.084358998231077162 106.50000000000001 203.91666666666669 1.0000000180025095e-35 284.50000000000006 4.5000000000000009 0.084358998231077162 0.084358998231077162 0.084358998231077162 80.500000000000014 154.01666666666668 0.084358998231077162 214.55000000000001 2.5000000000000004 0.059286929634504805 0.016185804844607354 0.084358998231077162 0.057851931028546355 196.31666666666669 308.50000000000006 1445.901806718133 1396.3310275534329 218.50000000000003 0.084358998231077162
decision_type=2 2 2 2 2 2 2 2 2 2 2 2 2 2 2 2 2 2 2 2 2 2 2 2 2 2 2 2 2 2 2 2 2 2 2 2 2 2 2 2 2 2 2 2 2 2 2 2 2 2 2 2 2 2 2
left_child=2 4 3 7 10 12 17 22 26 -8 27 18 30 35 15 40 32 -3 46 -10 42 -14 -1 -18 25 -20 -5 -2 29 53 31 -4 -16 52 -17 -6 37 -26 -38 -32 -9 -21 -12 -44 -11 -39 47 -7 -49 -41 -15 -33 -31 -13 -23
right_child=1 6 5 8 13 11 9 14 19 44 20 28 21 50 16 34 23 -19 24 41 -22 54 -24 -25 36 -27 -28 -29 -30 33 39 51 -34 -35 -36 -37 38 45 -40 49 -42 -43 43 -45 -46 -47 -48 48 -50 -51 -52 -53 -54 -55 -56
leaf_value=-11.703650135579965 2.5809025898433893 9.2333030761610129 -1.87887234602958 -4.2545037593654778 5.5829475311083154 0.053070427790959968 13.639247739193923 -7.2787607805014396 -3.2007304086351458 12.090154472690786 4.0313999458137584 1.4552210965416361 -1.0576808700094609 7.0784809969896418 -5.5722737670235629 -6.077466991530887 -4.4707378303135359 11.097226563861213 0.56044168317646759 -2.7915647432971773 4.7680456581234791 -0.41510002460388123 -7.5998783343806453 -2.6221297517072029 0.84222930557747033 -2.5323990380581032 -3.7532879994596482 3.2268676427636214 2.1766200962228348 -1.4150517461061176 -1.7091766896541294 -3.6609463159169002 -4.9497036255353546 1.4602108637722422 -4.279665633002498 6.5237361580356312 1.0656243290796144 0.63402377336047344 2.9034816627241247 -1.1404370796906353 -6.3144127048818968 -2.3540923720075728 0.49596335296367838 3.7720289217676766 17.419677453869124 -0.81392380126865682 0.32486907648438162 -0.61836054843026522 -2.8590686030660972 0.63573774782921566 8.2198611643234027 -2.1228981224166694 0.45397452938753252 2.0372482534803407 -1.0459131200820109
leaf_weight=228 1449 492 1909 2628 856 813 1153 667 3057 57 1257 924 3078 504 1790 141 666 1213 186 2440 1891 2165 72 148 2342 63 3046 1507 1050 84 1999 210 2098 77 364 955 535 118 96 319 1347 1905 56 129 560 184 1047 61 70 51 1117 126 66 782 371
leaf_count=228 1449 492 1909 2628 856 813 1153 667 3057 57 1257 924 3078 504 1790 141 666 1213 186 2440 1891 2165 72 148 2342 63 3046 1507 1050 84 1999 210 2098 77 364 955 535 118 96 319 1347 1905 56 129 560 184 1047 61 70 51 1117 126 66 782 371
internal_value=0 6.94477 -2.33057 -4.21289 4.85196 -0.259596 12.784 -5.71591 -3.34653 14.8643 3.70125 0.954207 -1.2681 6.95217 -5.49499 -6.29733 -5.05895 10.5876 0.513609 -2.8517 4.39301 -0.810718 -10.8582 -4.15281 0.76649 -0.254541 -3.98898 2.91515 1.76649 1.53857 -1.82308 -2.07182 -5.24309 0.112052 -4.83604 6.09556 0.844493 0.71758 1.36607 -1.58342 -6.6509 -2.60272 3.88643 2.82071 17.0273 -0.245917 0.0650559 -0.222921 -1.87837 -0.889541 7.88766 -3.12413 -0.602066 1.7273 -0.509368
internal_weight=0 13196 39323 20597 9721 18726 3475 7521 13076 1770 6289 8498 10228 3432 7221 2519 4702 1705 5515 7402 3333 5614 300 814 3524 249 5674 2956 2983 1933 4614 2245 3888 227 505 1811 3275 2644 631 2369 2014 4345 1442 185 617 302 1991 944 131 370 1621 336 150 1706 2536
internal_count=52519 13196 39323 20597 9721 18726 3475 7521 13076 1770 6289 8498 10228 3432 7221 2519 4702 1705 5515 7402 3333 5614 300 814 3524 249 5674 2956 2983 1933 4614 2245 3888 227 505 1811 3275 2644 631 2369 2014 4345 1442 185 617 302 1991 944 131 370 1621 336 150 1706 2536
is_linear=0
shrinkage=0.0761155


Tree=3
num_leaves=56
num_cat=0
split_feature=5 5 5 5 5 5 5 5 10 5 10 10 5 5 5 3 21 22 22 5 10 8 21 18 3 20 21 10 10 1 11 3 5 3 18 14 18 18 5 16 18 17 18 5 0 3 20 0 0 3 21 7 1 3 3
split_gain=1.20041e+08 2.19449e+07 2.10205e+07 3.80315e+06 3.26846e+06 2.80468e+06 1.73272e+06 1.36751e+06 650701 518572 508401 429536 309377 272287 255483 157249 157011 149273 141844 143586 133694 128466 123371 121934 115093 104650 95526 94933.8 88473.7 87426.9 83664.4 80805.9 80713.2 80093.4 79001.5 75158.1 152556 69352.4 58066 55275.1 124035 54777.5 81234 50076.7 49921 49233.1 58949.4 47006.2 45647.4 43824 43502.3 42339.9 41111.9 40845.8 39810
threshold=230.50000000000003 334.50000000000006 161.50000000000003 120.50000000000001 282.50000000000006 194.50000000000003 404.50000000000006 55.500000000000007 144.50000000000003 257.50000000000006 212.07142857142861 180.35714285714289 95.500000000000014 375.50000000000006 308.50000000000006 1139.2054414802994 2.5000000000000004 1.5000000000000002 2.5000000000000004 443.50000000000006 241.78571428571431 74.500000000000014 4.5000000000000009 0.084358998231077162 1212.1044319343493 1.0000000180025095e-35 4.5000000000000009 131.07142857142858 270.07142857142867 0.012301384320768702 16.035674514746109 1313.1124814451757 134.50000000000003 1145.4789450325895 0.084358998231077162 207.48333333333338 0.084358998231077162 0.084358998231077162 144.50000000000003 298.70000000000005 0.084358998231077162 158.31666666666669 0.084358998231077162 209.50000000000003 0.051967014566615059 1226.506654787197 1.0000000180025095e-35 0.055429480925024359 0.078865582089670858 1145.4789450325895 2.5000000000000004 209.50000000000003 0.029818206303519803 1403.7746807000001 1413.1653653837591
decision_type=2 2 2 2 2 2 2 2 2 2 2 2 2 2 2 2 2 2 2 2 2 2 2 2 2 2 2 2 2 2 2 2 2 2 2 2 2 2 2 2 2 2 2 2 2 2 2 2 2 2 2 2 2 2 2
left_child=2 4 3 7 9 11 13 21 27 20 15 24 17 52 39 37 32 -9 -8 -20 -2 -1 -13 -18 30 -14 49 38 33 44 -4 -31 -10 -11 -24 36 43 -7 -5 40 -6 42 -26 -17 53 -19 -47 54 -16 -12 -22 -45 -3 -27 -29
right_child=1 6 5 8 14 10 18 12 16 28 26 22 25 -15 48 35 23 45 19 -21 50 -23 34 -25 41 29 -28 47 -30 31 -32 -33 -34 -35 -36 -37 -38 -39 -40 -41 -42 -43 -44 51 -46 46 -48 -49 -50 -51 -52 -53 -54 -55 -56
leaf_value=-10.82994014293817 2.608060959847438 8.7492157340551788 -1.4685728375744418 -3.6734681827710549 5.9322699895102931 -0.31813709797649314 10.39420089718587 -4.0227492500870285 -3.3458238274615382 1.677948147608332 -0.40717617940866901 -0.42525331109044229 -4.6215888451346254 11.725665410739959 7.1437236078746436 0.49831125277649296 -1.8913070252844808 -6.123068735381203 13.492799802681887 16.243254894864261 1.9622948689530264 -6.2579466570638616 0.38967891883700367 -0.25246944046524716 -1.1965904155436782 -3.4701811427904405 2.2342772567691109 -2.4984938408299082 5.1174009044588651 -3.8560010711488495 -2.7986523835645465 -1.8509804661667737 -2.3289516473461633 4.215290669416305 2.7880572701381507 1.3057165505464077 -0.88743781467354776 -2.6737012637940016 -2.7279475087601117 6.906532679371864 3.1124683001449753 -0.87217421411798735 -2.5386244099617996 1.452656046592629 -4.2589977865205961 -5.6959791452748743 -4.3610667304417774 -3.0664957369962478 8.607734926505616 1.4660585196619242 3.6610144568217287 0.14178131822000134 10.232100225014721 -0.89691290658328182 -0.51409110954010562
leaf_weight=227 2045 523 837 3122 1019 295 109 477 544 85 74 2892 3113 819 938 2024 1631 935 649 398 113 73 511 316 1856 155 1587 296 882 270 426 233 3984 1657 90 899 389 92 518 438 119 2668 307 703 2102 669 439 3556 348 1394 1557 181 809 52 77
leaf_count=227 2045 523 837 3122 1019 295 109 477 544 85 74 2892 3113 819 938 2024 1631 935 649 398 113 73 511 316 1856 155 1587 296 882 270 426 233 3984 1657 90 899 389 92 518 438 119 2668 307 703 2102 669 439 3556 348 1394 1557 181 809 52 77
internal_value=0 6.50916 -2.03239 -3.54885 4.59345 -0.0256183 11.8244 -4.79557 -2.7711 3.62436 1.06213 -0.89237 -4.61081 10.4867 6.72986 0.554042 -2.20723 -5.33458 14.2582 14.6097 3.03678 -9.83735 -0.218858 -1.62681 -1.27787 -4.29875 1.82212 -3.25169 4.44888 -3.9338 -1.92658 -2.95482 -2.45469 4.09675 0.769119 0.689644 0.519858 -0.905521 -3.54287 6.02153 5.65236 -1.10642 -1.39255 0.709412 -4.14018 -5.63031 -5.18898 -2.97774 7.57142 1.37035 3.55238 1.18692 9.68441 -2.86122 -2.1018
internal_weight=0 12508 40014 22789 9201 17225 3307 8745 14044 6339 7638 9587 8445 2151 2862 4583 6475 2520 1156 1047 3715 300 3493 1947 6094 5925 3055 7569 2624 2812 1263 503 4528 1742 601 4196 3297 387 3640 1576 1138 4831 2163 2908 2309 2043 1108 3929 1286 1468 1670 884 1332 207 373
internal_count=52522 12508 40014 22789 9201 17225 3307 8745 14044 6339 7638 9587 8445 2151 2862 4583 6475 2520 1156 1047 3715 300 3493 1947 6094 5925 3055 7569 2624 2812 1263 503 4528 1742 601 4196 3297 387 3640 1576 1138 4831 2163 2908 2309 2043 1108 3929 1286 1468 1670 884 1332 207 373
is_linear=0
shrinkage=0.0761155


Tree=4
num_leaves=56
num_cat=0
split_feature=4 4 4 4 4 4 4 4 4 4 4 4 4 4 4 4 18 18 4 4 1 4 4 4 4 4 8 3 4 3 4 14 18 18 3 16 3 20 22 18 14 14 18 1 0 1 18 18 1 18 0 21 1 14 18
split_gain=1.0814e+08 2.23896e+07 1.78186e+07 3.30662e+06 2.85221e+06 2.59106e+06 2.51932e+06 1.00218e+06 578684 523866 405841 401913 319500 295621 238997 186228 128520 105295 65294.8 58100.1 52948.2 46881 45586.5 45224.7 42959 42821.9 39633.5 33387.7 32810.8 31702 31026 25353.5 67837.2 31907.6 24623.3 22038.5 21758.4 21728.7 18833.5 18712.4 76762.3 25582.3 18575.7 66882.3 26009.8 22613.5 18366.7 17036.6 16473 52993.2 19474.4 16065.2 14673.7 14345 36004.8
threshold=221.50000000000003 319.50000000000006 153.50000000000003 113.50000000000001 265.50000000000006 380.00000000000006 185.50000000000003 55.500000000000007 134.50000000000003 423.50000000000006 242.50000000000003 291.50000000000006 167.50000000000003 203.50000000000003 89.500000000000014 342.50000000000006 0.084358998231077162 0.084358998231077162 122.50000000000001 143.50000000000003 0.010191972573781901 101.50000000000001 213.50000000000003 176.50000000000003 194.50000000000003 230.50000000000003 74.500000000000014 1090.6576923804662 251.50000000000003 1109.3377039530885 277.50000000000006 158.48333333333338 0.084358998231077162 0.084358998231077162 1201.6165075193751 179.88333333333335 1201.6165075193751 1.0000000180025095e-35 13.500000000000002 0.084358998231077162 166.38333333333335 193.78333333333339 0.084358998231077162 0.018255089401027252 0.057512974260475601 0.0091277003442764518 0.084358998231077162 0.084358998231077162 0.017758984323821055 0.084358998231077162 0.059286929634504805 2.5000000000000004 0.012704014969004451 206.21666666666667 0.084358998231077162
decision_type=2 2 2 2 2 2 2 2 2 2 2 2 2 2 2 2 2 2 2 2 2 2 2 2 2 2 2 2 2 2 2 2 2 2 2 2 2 2 2 2 2 2 2 2 2 2 2 2 2 2 2 2 2 2 2
left_child=2 4 3 7 10 15 12 26 18 -7 25 30 31 24 17 -3 21 -9 46 -10 -18 -16 27 -14 29 -2 -1 -15 -12 38 -6 32 -4 -33 -34 -35 -22 -19 -8 -25 -41 -42 -20 44 -44 -46 -5 -32 49 -26 -51 -21 -48 -31 -55
right_child=1 5 6 8 11 9 13 14 19 -11 28 -13 23 22 16 -17 20 37 42 51 36 -23 -24 39 48 -27 -28 -29 -30 53 47 33 34 35 -36 -37 -38 -39 -40 40 41 -43 43 -45 45 -47 52 -49 -50 50 -52 -53 -54 54 -56
leaf_value=-10.028734456938112 1.961007436789576 7.7009612405780477 -1.6486957304057885 -3.9105561357558116 4.3835165307911144 11.53010916528215 -2.1937610151052511 -6.0007254856387773 -2.741126559530997 14.492335636388155 3.1310078885867001 6.3498082040914285 -1.0029700977532814 -0.81974060036586549 -5.1173142681850807 9.3974496243392451 -3.9626873733314869 -5.5532694242456957 -3.3622639687425413 -2.3658080783309083 -3.6140094757454104 -4.4754603764002425 1.4324607718138198 -0.47347076010466177 0.4183943582927856 2.5262037587152757 -6.6759790442618279 0.93143196722548194 3.7187297284349334 -0.094574081768230178 5.2321784183090863 -1.5768901729710203 -4.0955060572066024 -1.2195606419968583 -2.3907006350953641 0.019100286552826189 -1.645998932784468 -3.7869417208376341 -0.30369671465632975 -2.3049385043254547 -0.72715629269980464 0.920467626564341 -1.2551729448416611 -0.28804274473445141 -3.5683959344987937 -2.2736471199693931 -3.4494680134322295 3.688909353842492 0.59366607617600375 -0.30522115640755676 -2.210913033572099 -1.9346147967706302 -2.0502309073931291 0.12827656823665134 2.1239466740972053
leaf_weight=231 1710 905 2033 2249 1164 1174 56 1312 3062 688 1269 1662 2759 61 1612 1129 644 92 3244 2903 53 2220 1439 2253 677 1717 73 2361 1698 1636 983 1985 76 226 278 129 121 253 66 159 148 80 52 57 370 150 362 102 1270 65 59 825 82 427 55
leaf_count=231 1710 905 2033 2249 1164 1174 56 1312 3062 688 1269 1662 2759 61 1612 1129 644 92 3244 2903 53 2220 1439 2253 677 1717 73 2361 1698 1636 983 1985 76 226 278 129 121 253 66 159 148 80 52 57 370 150 362 102 1270 65 59 825 82 427 55
internal_value=0 5.67425 -2.10223 -3.67431 3.81269 10.587 -0.386216 -5.06753 -2.98306 12.6601 2.81848 5.43243 -1.18832 0.607746 -4.85424 8.66317 -4.55888 -5.66698 -3.49471 -2.48607 -3.63186 -4.75177 1.09108 -0.786972 0.174037 2.2475 -9.34376 0.88561 3.47307 -0.0568824 4.74197 -1.64535 -1.8263 -1.45717 -2.80875 -0.77435 -2.33022 -4.33034 -1.22541 -0.55966 -1.0483 -0.140293 -3.27611 -2.80857 -3.05454 -3.22036 -3.80242 5.10471 0.423515 0.151321 -1.26443 -2.27315 -3.21711 0.012939 0.375862
internal_weight=0 14201 38265 19967 10305 3896 18298 6611 13356 1862 6394 3911 10126 8172 6307 2034 4650 1657 6566 6790 818 3832 3861 5399 4311 3427 304 2422 2967 2240 2249 4727 2387 2340 354 355 174 345 122 2640 387 228 3873 629 572 520 2693 1085 2071 801 124 3728 444 2118 482
internal_count=52466 14201 38265 19967 10305 3896 18298 6611 13356 1862 6394 3911 10126 8172 6307 2034 4650 1657 6566 6790 818 3832 3861 5399 4311 3427 304 2422 2967 2240 2249 4727 2387 2340 354 355 174 345 122 2640 387 228 3873 629 572 520 2693 1085 2071 801 124 3728 444 2118 482
is_linear=0
shrinkage=0.0761155


Tree=5
num_leaves=56
num_cat=0
split_feature=4 4 4 4 4 4 4 4 4 4 4 4 4 4 22 4 4 21 4 4 4 4 3 8 4 4 18 16 18 16 3 22 18 1 3 3 4 4 4 3 14 22 4 1 3 18 9 10 3 0 16 18 3 1 16
split_gain=9.22253e+07 1.85854e+07 1.57635e+07 2.83025e+06 2.33186e+06 2.28595e+06 2.22721e+06 828653 545408 446561 339667 301167 300083 271489 189413 186668 159354 69054.8 67322.1 58723.1 48344.2 39074.5 38157.1 33472.8 32873.6 31286.3 30608 56280.7 30604.9 93674.4 28609 27867.6 26535.3 57621.9 32001.3 26346.2 25967.1 25110.5 24777.8 23025.3 21302.6 21184 20158.4 19225 18284.8 16954.8 67524.4 24754.4 20279.2 16404.6 16140.9 55379.7 25514.6 16038.9 16032.5
threshold=223.50000000000003 319.50000000000006 153.50000000000003 111.50000000000001 185.50000000000003 265.50000000000006 380.00000000000006 55.500000000000007 132.50000000000003 423.50000000000006 291.50000000000006 242.50000000000003 203.50000000000003 168.50000000000003 1.5000000000000002 91.500000000000014 340.50000000000006 1.5000000000000002 143.50000000000003 213.50000000000003 121.50000000000001 194.50000000000003 1286.9848960733241 74.500000000000014 176.50000000000003 163.50000000000003 0.084358998231077162 278.18333333333339 0.084358998231077162 214.55000000000001 1090.6576923804662 2.5000000000000004 0.084358998231077162 0.018255089401027252 1291.0626147842991 1123.6523000974664 274.50000000000006 230.50000000000003 252.50000000000003 1167.7206440860803 262.98333333333341 6.5000000000000009 101.50000000000001 0.020704092280763454 1308.8973997785927 0.084358998231077162 166.50000000000003 180.35714285714289 1249.7924654357503 0.059927636776613405 184.41666666666669 0.084358998231077162 1380.6374353332872 0.0098448790586932022 204.51666666666668
decision_type=2 2 2 2 2 2 2 2 2 2 2 2 2 2 2 2 2 2 2 2 2 2 2 2 2 2 2 2 2 2 2 2 2 2 2 2 2 2 2 2 2 2 2 2 2 2 2 2 2 2 2 2 2 2 2
left_child=2 5 3 7 13 11 16 23 20 -8 26 37 21 25 17 -16 -3 39 43 30 -5 35 -19 -1 -15 -4 36 44 38 -30 -14 -11 -22 34 -34 41 -7 -2 -13 -9 -31 -6 -17 -10 -28 -26 48 -48 -47 -45 51 -23 -53 -36 -21
right_child=1 6 4 8 12 10 9 14 18 31 -12 28 19 24 15 42 -18 22 -20 54 32 50 -24 -25 45 -27 27 -29 29 40 -32 -33 33 -35 53 -37 -38 -39 -40 -41 -42 -43 -44 49 -46 46 47 -49 -50 -51 -52 52 -54 -55 -56
leaf_value=-9.2753671145358307 1.8564040238254447 7.0286874398940018 -1.6303390011443921 -3.5678565772798767 -2.167575037123127 4.0857703756513706 10.665404411533459 -4.7346077192697811 -2.6492642755152991 9.667078918986757 5.8606987354523525 3.007943601283432 -0.76199636963976147 -0.90830322191660617 -5.4734408141902628 -4.6937094672585991 8.6215635195671982 -3.3335080692004957 -2.100002696523962 1.1394694205990961 -3.2027815460174476 0.40279386200837641 -1.2790347541475091 -6.1616941022004816 -0.43611011672540395 -1.2135754392084113 1.3804391571057357 5.4473198537780645 0.26858279345341468 2.623854085879556 0.85864193671630917 13.722057987850746 -3.6027297741271869 -0.11751052786437881 -2.5913367199343114 0.012247982630068882 4.7967206723108227 2.3258109661148745 3.5588340262292442 -3.6077005116747354 4.4676378551813318 -0.32020265263027303 -4.1807115048073396 -0.9982864935050656 3.1622216480251137 -3.2962984027395916 -0.87659335897006552 0.76659351892664929 -1.4285307898152295 -2.2701253096057519 0.59950476869861546 -2.3199274886078691 -0.24311206493294438 -1.252514152829165 1.6201880814421641
leaf_weight=229 1375 811 3406 2747 53 895 1167 215 3228 66 1664 1260 61 2443 1519 1414 1221 108 3716 847 2930 852 118 72 2250 1647 66 56 88 193 2366 622 195 52 235 2088 1118 1723 1361 671 64 102 1923 82 109 51 97 106 132 440 1090 61 75 87 938
leaf_count=229 1375 811 3406 2747 53 895 1167 215 3228 66 1664 1260 61 2443 1519 1414 1221 108 3716 847 2930 852 118 72 2250 1647 66 56 88 193 2366 622 195 52 235 2088 1118 1723 1361 671 64 102 1923 82 109 51 97 106 132 440 1090 61 75 87 938
internal_value=0 5.32531 -1.91099 -3.39649 -0.320252 3.58195 9.7876 -4.73719 -2.78203 11.7144 5.01821 2.65296 0.606595 -1.10078 -4.53321 -4.74433 8.00449 -3.59416 -2.33929 1.06341 -3.30893 0.160517 -2.3124 -8.64265 -0.706563 -1.49588 4.38189 3.35138 3.2042 2.43729 0.816306 13.4049 -3.10083 -2.55231 -2.79311 -0.0596689 4.49152 2.12086 3.30026 -3.90616 3.15956 -1.0013 -4.40477 -2.57325 2.54826 -0.518118 -0.983741 -0.0190232 -2.02352 -2.08218 0.397937 0.173335 -1.22556 -2.25495 1.39603
internal_weight=0 13859 38646 19981 18665 9972 3887 6269 13712 1855 3908 6064 8533 10132 5968 4856 2032 1112 7466 4212 6246 4321 226 301 5079 5053 2244 231 2966 345 2427 688 3499 569 517 2243 2013 3098 2621 886 257 155 3337 3750 175 2636 386 203 183 522 2078 988 136 322 1785
internal_count=52505 13859 38646 19981 18665 9972 3887 6269 13712 1855 3908 6064 8533 10132 5968 4856 2032 1112 7466 4212 6246 4321 226 301 5079 5053 2244 231 2966 345 2427 688 3499 569 517 2243 2013 3098 2621 886 257 155 3337 3750 175 2636 386 203 183 522 2078 988 136 322 1785
is_linear=0
shrinkage=0.0761155


Tree=6
num_leaves=56
num_cat=0
split_feature=4 4 4 4 4 4 4 4 4 4 4 4 4 4 4 4 18 18 4 4 18 1 0 1 3 4 21 18 5 0 4 3 4 4 8 4 22 3 21 4 18 16 4 1 0 3 18 14 3 18 14 3 21 1 0
split_gain=7.88336e+07 1.59257e+07 1.34785e+07 2.33019e+06 2.15013e+06 2.0952e+06 1.73093e+06 722768 444598 431031 279608 260434 256008 215277 164982 148640 99128 67122.4 49284.7 49050.4 41055.5 58765.5 54917.9 40302.4 35116.8 34317.7 33291.4 99382.1 48951.6 49544.6 32788.7 32597.2 31755.2 29239.8 26716.3 26692.3 26257.4 25567.6 27556.8 23985.4 23967.3 138017 22308.6 21445.8 19183.1 18497.3 17697.1 32326 15986.8 15852.3 58806.5 24512.4 15665.3 15533.3 18328.7
threshold=223.50000000000003 316.50000000000006 152.50000000000003 111.50000000000001 375.50000000000006 185.50000000000003 266.50000000000006 55.500000000000007 419.50000000000006 132.50000000000003 244.50000000000003 167.50000000000003 203.50000000000003 287.50000000000006 87.500000000000014 340.50000000000006 0.084358998231077162 0.084358998231077162 213.50000000000003 141.50000000000003 0.084358998231077162 0.018255089401027252 0.056882863960019563 0.012301384320768702 1291.0626147842991 175.50000000000003 2.5000000000000004 0.084358998231077162 185.50000000000003 0.059286929634504805 123.50000000000001 1094.3331295740304 234.50000000000003 101.50000000000001 74.500000000000014 160.50000000000003 2.5000000000000004 1139.2054414802994 4.5000000000000009 451.00000000000006 0.084358998231077162 314.90000000000003 255.50000000000003 0.0098448790586932022 0.056467975641187655 1268.6848082853207 0.084358998231077162 259.15000000000003 1286.9848960733241 0.084358998231077162 193.78333333333339 1212.1044319343493 2.5000000000000004 0.016572349769064753 0.054036991503075657
decision_type=2 2 2 2 2 2 2 2 2 2 2 2 2 2 2 2 2 2 2 2 2 2 2 2 2 2 2 2 2 2 2 2 2 2 2 2 2 2 2 2 2 2 2 2 2 2 2 2 2 2 2 2 2 2 2
left_child=2 6 3 7 15 11 10 34 -6 20 32 35 26 46 17 -3 33 -9 37 -11 30 22 -22 -18 -24 -13 27 -7 -29 -30 -5 -12 -2 -16 -1 -4 -10 38 -14 -38 -15 44 -33 -26 -42 -19 -8 -48 -25 -27 51 -51 -21 54 -53
right_child=1 4 5 9 8 12 13 14 36 19 31 25 18 40 16 -17 23 45 -20 52 21 -23 24 48 43 49 -28 28 29 -31 -32 42 -34 -35 -36 -37 39 -39 -40 -41 41 -43 -44 -45 -46 -47 47 -49 -50 50 -52 53 -54 -55 -56
leaf_value=-8.5883802100899462 1.7896521753260843 6.4164059115501342 -1.587349026815265 -3.3486697529133593 9.6987060016824742 0.13851326828774418 4.0881852087097714 -5.2150867209281637 8.966561216370506 -2.4227752026335141 1.1606547407160699 -0.88423981041132027 -1.2883444742953236 5.352814367088822 -4.386860385119995 7.8621369661582756 -3.3765772888920322 -4.6707076517216999 1.2877709405606375 -2.0869211681883204 -0.86462464208249146 -0.53739797203491257 -3.6112106656647498 -2.7672424728830309 -2.8273066799109356 -0.42150055413644505 0.33725788974750565 0.64350186201912996 -0.69104473382698484 -2.9723808920999999 -2.9187232059143531 2.8229551816332612 2.2882937170824267 -3.8625449141629544 -5.7386757160435558 -1.2255601387316502 11.309261771109535 0.81511066772523832 0.85180108062401827 13.612294241338219 3.7160691698870254 7.3289665045120715 3.3318475694483443 -1.668311289110048 1.6836945532178214 -3.1263203340414183 2.2132101289410198 4.4660365890811873 -1.0063975989077183 -2.6323225758271493 0.83797289715254608 -0.36112787071982938 -1.6837699031235451 -0.27855316311682127 -2.0128028555288475
leaf_weight=231 1981 1031 2902 2795 1227 1643 1681 1142 72 3058 61 2453 68 1501 1787 1103 660 116 1782 3111 88 79 314 56 387 2516 2401 52 111 114 2434 1405 1405 1928 72 2238 336 2300 62 347 56 51 1334 161 79 192 128 66 79 67 85 63 878 110 112
leaf_count=231 1981 1031 2902 2795 1227 1643 1681 1142 72 3058 61 2453 68 1501 1787 1103 660 116 1782 3111 88 79 314 56 387 2516 2401 52 111 114 2434 1405 1405 1928 72 2238 336 2300 62 347 56 51 1334 161 79 192 128 66 79 67 85 63 878 110 112
internal_value=0 4.9237 -1.76571 -3.16904 8.89187 -0.325942 3.24451 -4.38061 10.7123 -2.59729 2.47128 -1.04323 0.560606 4.58201 -4.18935 7.18017 -3.94834 -4.92285 0.982546 -2.18533 -3.05905 -2.57601 -2.74152 -3.12391 -2.92674 -0.673303 0.148579 -0.087442 -1.40799 -1.88729 -3.15153 3.03695 1.99968 -4.12031 -8.01475 -1.43121 12.2858 0.756421 -0.271172 12.5687 5.22448 4.07587 3.07646 -2.50529 2.63018 -3.77331 3.99162 3.0728 -1.81089 -0.496784 -0.919915 -1.35109 -2.00045 -1.00916 -1.44628
internal_weight=0 13864 38647 19568 4116 19079 9748 6263 1982 13305 6186 10546 8533 3562 5960 2134 4510 1450 4212 7047 6258 1029 950 795 862 5406 4321 1920 277 225 5229 2800 3386 3715 303 5140 755 2430 130 683 1687 186 2739 548 135 308 1875 194 135 2953 437 352 3989 285 175
internal_count=52511 13864 38647 19568 4116 19079 9748 6263 1982 13305 6186 10546 8533 3562 5960 2134 4510 1450 4212 7047 6258 1029 950 795 862 5406 4321 1920 277 225 5229 2800 3386 3715 303 5140 755 2430 130 683 1687 186 2739 548 135 308 1875 194 135 2953 437 352 3989 285 175
is_linear=0
shrinkage=0.0761155


Tree=7
num_leaves=56
num_cat=0
split_feature=4 4 4 4 4 4 4 4 4 4 4 4 4 4 4 18 4 21 4 3 18 3 1 4 4 4 3 4 14 18 18 3 4 4 21 18 0 8 3 20 20 4 14 3 12 3 3 18 21 18 14 18 15 3 17
split_gain=6.73512e+07 1.39725e+07 1.11372e+07 1.85361e+06 1.83114e+06 1.81313e+06 1.58566e+06 615516 330357 291618 234717 227285 226597 220112 218235 133215 128110 55422.1 41099.3 37195.8 35392 52536.3 45220.5 34421.9 33267.6 28069.7 26213.3 24627.6 23985.1 70049.6 33123.6 26543 23388.2 22168 21670.9 88313.4 41148.7 21346.4 20727.2 20257.2 19425.6 19159.1 19039.3 17592.4 17307.9 16950.8 14804 25709.2 14750.7 33509.8 27176.6 18342.1 17932 14560.9 13633.4
threshold=221.50000000000003 316.50000000000006 150.50000000000003 110.50000000000001 386.50000000000006 183.50000000000003 263.50000000000006 55.500000000000007 130.50000000000003 443.50000000000006 284.50000000000006 201.50000000000003 165.50000000000003 239.50000000000003 351.50000000000006 0.084358998231077162 87.500000000000014 1.5000000000000002 139.50000000000003 1052.9824567456669 0.084358998231077162 1289.2899899435547 0.017758984323821055 213.50000000000003 192.50000000000003 173.50000000000003 1185.2867388649927 251.50000000000003 159.6166666666667 0.084358998231077162 0.084358998231077162 1178.2859104783656 118.50000000000001 301.50000000000006 4.5000000000000009 0.084358998231077162 0.057851931028546355 74.500000000000014 1113.5568148503455 1.0000000180025095e-35 1.0000000180025095e-35 101.50000000000001 135.31666666666669 1145.4789450325895 187.32142857142861 1575.9784852194941 1201.6165075193751 0.084358998231077162 4.5000000000000009 0.084358998231077162 165.81666666666669 0.020137789777488053 29.095522426755007 1235.9795520092096 154.01666666666668
decision_type=2 2 2 2 2 2 2 2 2 2 2 2 2 2 2 2 2 2 2 2 2 2 2 2 2 2 2 2 2 2 2 2 2 2 2 2 2 2 2 2 2 2 2 2 2 2 2 2 2 2 2 2 2 2 2
left_child=2 6 3 7 14 12 13 37 20 -6 43 24 28 34 -3 16 -9 40 -10 -13 32 -22 39 -21 48 -14 -19 -15 29 -4 -30 -31 -5 -12 35 -2 -37 -1 44 -23 -17 -18 -41 -8 -26 -32 47 -27 49 -7 52 -50 -51 -42 -20
right_child=1 4 5 8 9 11 10 15 18 -11 33 19 25 27 -16 17 41 26 54 23 21 22 -24 -25 38 46 -28 -29 30 31 45 -33 -34 -35 -36 36 -38 -39 -40 42 53 -43 -44 -45 -46 -47 -48 -49 51 50 -52 -53 -54 -55 -56
leaf_value=-7.9477229138572012 1.7100031075421414 6.1911249630541771 -1.392637646661725 -3.2282970837080436 9.4662381406521838 -0.098702447519629977 2.2216636623406951 -4.8153684245964961 -2.3170225925489056 12.074792875147963 4.4365659753537523 -0.80784097839195967 -0.8969062428600233 2.4116018148136815 7.7846384610506325 -4.0984208955987107 -4.0544096459205434 -3.2581251446380985 -2.0457211692970665 0.70086939868511655 -3.150772090544558 -2.9789689012299609 0.19336247710451024 1.1685359143952192 -1.6755963873387711 -0.65078501112264719 -1.3120874972970369 2.8932087587735751 -1.3401792312578342 -3.774293414266146 -0.75306145561162197 -2.1163087377857206 -2.826354452520901 5.1492106720697928 1.9271711712983965 0.8573570969586668 -1.4738159965600313 -5.3511903693176448 0.30963410601952751 -2.2858846713732941 -3.7304440390230735 -3.594662089312004 -1.1795040773089416 3.5972406092374873 0.085442763319190665 0.68742347219280642 -0.47858687803440697 -2.1759454106467153 0.02743811729822327 -0.68663236970429786 -0.32442820951022072 1.5404717618268129 -2.6643356490250829 -2.7482823501349012 -1.7165420837370047
leaf_weight=232 1308 1440 2464 1710 1239 1700 87 1133 3038 433 1111 75 2392 1636 994 220 1790 58 2441 2738 371 141 51 1405 52 312 154 1449 2001 78 327 351 3220 830 1595 99 71 73 2217 241 197 1719 177 1913 73 51 2638 79 198 51 156 56 65 429 1443
leaf_count=232 1308 1440 2464 1710 1239 1700 87 1133 3038 433 1111 75 2392 1636 994 220 1790 58 2441 2738 371 141 51 1405 52 312 154 1449 2001 78 327 351 3220 830 1595 99 71 73 2217 241 197 1719 177 1913 73 51 2638 79 198 51 156 56 65 429 1443
internal_value=0 4.47654 -1.65878 -2.9781 8.21856 -0.382435 2.95184 -4.08288 -2.45975 10.1754 4.14465 0.427552 -1.04789 2.18571 6.8564 -3.8979 -4.07892 -3.08815 -2.0991 0.830091 -2.87993 -2.41977 -1.95298 0.860749 0.0552859 -0.701185 -1.90787 2.64216 -1.40334 -1.55463 -1.2164 -2.4579 -2.96892 4.75372 1.72388 1.4986 -0.128266 -7.42209 0.255346 -2.14941 -3.37078 -3.83463 -1.83738 3.54317 -0.680072 -0.551455 -0.545305 -0.983014 -0.155139 -0.225713 -1.00241 0.385296 -1.861 -3.08457 -1.92584
internal_weight=0 14205 38317 18838 4106 19479 10099 6005 12833 1672 3941 8786 10693 6158 2434 5700 4642 1058 6922 4218 5911 981 610 4143 4568 5421 212 3085 5272 2893 2379 429 4930 1941 3073 1478 170 305 2342 559 846 3509 418 2000 125 378 3029 391 2226 1972 272 254 116 626 3884
internal_count=52522 14205 38317 18838 4106 19479 10099 6005 12833 1672 3941 8786 10693 6158 2434 5700 4642 1058 6922 4218 5911 981 610 4143 4568 5421 212 3085 5272 2893 2379 429 4930 1941 3073 1478 170 305 2342 559 846 3509 418 2000 125 378 3029 391 2226 1972 272 254 116 626 3884
is_linear=0
shrinkage=0.0761155


Tree=8
num_leaves=56
num_cat=0
split_feature=4 4 4 4 4 4 4 4 4 4 4 4 4 4 4 4 8 18 4 18 3 3 4 4 16 18 6 18 14 4 4 14 18 3 3 1 17 21 18 0 21 18 16 18 16 4 18 3 3 21 18 18 16 1 15
split_gain=5.74004e+07 1.08278e+07 1.04976e+07 1.94396e+06 1.58459e+06 1.47393e+06 1.12938e+06 595616 304761 224289 206395 199550 175003 156265 145486 110333 67917 63588.3 43439.8 41413.1 39189.8 38554.7 33969.6 33317.8 32681.1 120236 55907.8 32632.6 120111 31885.7 31292.4 25509.3 51868.7 24331.4 24168.2 24112.6 23372.9 22897.8 77027.1 30182.1 22642.1 22641.9 35671.8 22338.1 48715.1 22289.1 20433.9 18165.5 16768.5 16754.9 32939.7 28481.2 16655.6 16580.6 15907.7
threshold=226.50000000000003 330.50000000000006 156.50000000000003 116.50000000000001 273.50000000000006 188.50000000000003 404.50000000000006 65.500000000000014 137.50000000000003 246.50000000000003 207.50000000000003 361.50000000000006 308.50000000000006 171.50000000000003 98.500000000000014 457.50000000000006 74.500000000000014 0.084358998231077162 128.50000000000003 0.084358998231077162 1233.2427417869794 1039.3850605134517 257.50000000000006 147.50000000000003 208.28333333333339 0.084358998231077162 207.50000000000003 0.084358998231077162 299.43333333333334 196.50000000000003 287.50000000000006 158.48333333333338 0.084358998231077162 1459.4585457385849 1445.901806718133 0.010191972573781901 190.18333333333334 4.5000000000000009 0.084358998231077162 0.057851931028546355 1.5000000000000002 0.084358998231077162 199.88333333333335 0.084358998231077162 214.55000000000001 181.50000000000003 0.084358998231077162 1366.5435044854441 1155.389255112276 4.5000000000000009 0.084358998231077162 0.084358998231077162 184.41666666666669 0.011017972182063702 25.272685268103171
decision_type=2 2 2 2 2 2 2 2 2 2 2 2 2 2 2 2 2 2 2 2 2 2 2 2 2 2 2 2 2 2 2 2 2 2 2 2 2 2 2 2 2 2 2 2 2 2 2 2 2 2 2 2 2 2 2
left_child=2 4 3 7 9 13 11 16 18 37 21 -3 27 31 17 -8 -1 -9 -5 -16 -19 -7 43 -10 25 -12 -27 30 33 -23 -6 32 -4 -29 53 -21 47 38 -2 -40 -22 -33 -43 -11 -45 -15 -26 -28 -24 51 -51 -31 54 -34 -53
right_child=1 6 5 8 12 10 15 14 23 22 24 -13 -14 45 19 -17 -18 20 -20 35 40 29 48 -25 46 26 36 28 -30 49 -32 41 34 -35 -36 -37 -38 -39 39 -41 -42 42 -44 44 -46 -47 -48 -49 -50 50 -52 52 -54 -55 -56
leaf_value=-7.3500264396799331 1.7852915050533174 6.2162972184666465 -1.1004599070518384 -2.6230901310224501 3.6811229145689466 -1.2250607183888844 9.3309573750474115 -4.0329831811403762 -1.8777121301442534 2.561074860765765 1.0370892168839809 7.76837104586936 5.1662097098728479 -0.59142873819815911 -3.2420721475366956 11.554813760349875 -5.0739410350408845 -3.9907280649907149 -2.2118509470879082 -2.794946954157759 -2.8175740072519813 0.072076759446169203 1.624625690503313 -1.5244278882911757 1.169638868151617 1.2318647946641754 -2.983366417421625 1.3634476391371824 5.9865557108795233 0.48038099953108138 4.3962144664592246 -0.99412920789920267 -3.1329051404526527 3.3605828107942353 -1.2483889755405295 -1.6376850585260616 -0.22642376141116247 2.0204404632647166 0.89648853631132941 -1.1822706014665068 -1.1368834795369334 -0.65788045580816068 1.3582510901559619 -0.25868511828780971 2.3693520770918122 -0.26010000151295476 1.9645304477801779 -0.93104792176988949 3.0236418145617932 0.59901165059142825 2.2769814299343931 0.26987489284436189 0.3567370136650958 -1.4181999430008139 -1.31345465187324
leaf_weight=229 1113 1179 1929 3660 989 92 837 2384 3431 1262 1687 1138 1116 2979 3394 310 218 195 3066 544 321 1950 71 3248 1490 54 60 140 55 1984 1079 2293 141 51 129 164 59 1688 86 68 66 335 55 57 130 1971 228 52 1822 475 76 51 114 60 112
leaf_count=229 1113 1179 1929 3660 989 92 837 2384 3431 1262 1687 1138 1116 2979 3394 310 218 195 3066 544 321 1950 71 3248 1490 54 60 140 55 1984 1079 2293 141 51 129 164 59 1688 86 68 66 335 55 57 130 1971 228 52 1822 475 76 51 114 60 112
internal_value=0 4.34253 -1.45945 -2.62521 3.03841 -0.131921 7.99496 -3.60571 -2.07439 2.31811 0.603951 6.99358 4.35546 -0.763073 -3.4305 9.97903 -6.30801 -3.84805 -2.43743 -3.12425 -3.06249 0.278734 2.74769 -1.70721 1.03777 0.816629 -0.821625 3.95418 2.96862 0.309094 4.06394 -1.06585 -1.25695 1.96943 -2.14109 -2.54051 -1.48841 1.82839 1.56544 -0.027339 -2.5497 -0.902807 -0.359293 2.44052 1.58032 -0.45996 1.28064 -2.11271 2.9757 0.472917 0.849174 0.379424 -0.338182 -2.66883 -0.822536
internal_weight=0 13191 39296 20920 9727 18376 3464 7515 13405 6297 8484 2317 3430 9892 7068 1147 447 2966 6726 4102 582 4854 3342 6679 3630 1912 225 2314 246 4762 2068 4942 2259 191 330 708 171 2955 1267 154 387 2683 390 1449 187 4950 1718 112 1893 2812 551 2261 277 201 163
internal_count=52487 13191 39296 20920 9727 18376 3464 7515 13405 6297 8484 2317 3430 9892 7068 1147 447 2966 6726 4102 582 4854 3342 6679 3630 1912 225 2314 246 4762 2068 4942 2259 191 330 708 171 2955 1267 154 387 2683 390 1449 187 4950 1718 112 1893 2812 551 2261 277 201 163
is_linear=0
shrinkage=0.0761155


Tree=9
num_leaves=56
num_cat=0
split_feature=4 4 4 4 4 4 4 4 4 4 4 4 4 4 4 22 4 15 21 4 18 3 1 3 3 18 4 13 4 18 16 3 1 18 3 21 3 21 18 18 20 4 20 4 14 16 18 3 16 3 18 14 4 1 14
split_gain=4.90896e+07 1.02059e+07 8.131e+06 1.52433e+06 1.30759e+06 1.21653e+06 1.14412e+06 453497 304708 198294 185375 182065 146659 146094 136444 83633.8 67804.6 58440.4 41023.2 36640.5 33169.3 46043.2 43153.5 29185.8 26927.8 56898 26785.8 26329.4 23669.1 23291.1 71592.9 33002.6 23203.1 61632.1 57378.4 47023.9 22431.3 21737.3 69912.8 22987.4 23090.4 20862.6 19840.5 19505.6 18891.3 17869.7 47865.6 36707.1 20763.4 17163.4 17151 43311.8 17424.4 15522 15294
threshold=221.50000000000003 319.50000000000006 153.50000000000003 110.50000000000001 265.50000000000006 394.50000000000006 185.50000000000003 65.500000000000014 132.50000000000003 351.50000000000006 242.50000000000003 291.50000000000006 169.50000000000003 451.00000000000006 201.50000000000003 1.5000000000000002 92.500000000000014 10.515478465366582 1.5000000000000002 146.50000000000003 0.084358998231077162 1291.0626147842991 0.018255089401027252 1052.9824567456669 1113.5568148503455 0.084358998231077162 212.50000000000003 29.786050278759937 121.50000000000001 0.084358998231077162 222.28333333333339 1382.6201528864556 0.010191972573781901 0.084358998231077162 1216.1091702025003 2.5000000000000004 975.2417105657355 4.5000000000000009 0.084358998231077162 0.084358998231077162 2.5000000000000004 230.50000000000003 1.5000000000000002 161.50000000000003 262.98333333333341 179.88333333333335 0.084358998231077162 1214.4388735431946 158.35000000000005 1329.5630600796724 0.084358998231077162 269.2166666666667 274.50000000000006 0.012668318951563852 134.91666666666671
decision_type=2 2 2 2 2 2 2 2 2 2 2 2 2 2 2 2 2 2 2 2 2 2 2 2 2 2 2 2 2 2 2 2 2 2 2 2 2 2 2 2 2 2 2 2 2 2 2 2 2 2 2 2 2 2 2
left_child=2 4 3 7 10 9 12 17 20 -3 41 50 36 -7 24 18 -17 -1 -9 32 28 -22 42 -16 25 -8 -25 -20 -5 -12 31 -31 -10 -34 -35 -36 -4 39 -39 -26 -41 -2 -23 -38 -32 46 -14 -48 -49 -29 52 -52 -6 -42 -44
right_child=1 5 6 8 11 13 14 15 19 -11 29 -13 45 -15 23 16 -18 -19 27 -21 21 22 -24 26 37 -27 -28 49 -30 30 44 -33 33 34 35 -37 43 38 -40 40 53 -43 54 -45 -46 -47 47 48 -50 -51 51 -53 -54 -55 -56
leaf_value=-6.7714058056091924 1.3132037643840422 5.3570917474958852 -2.3296341667296518 -2.6946939941160206 2.9595030948033569 8.3661690251330647 -0.020801878825230071 -2.8971668385129341 -1.9867468645612516 6.8170716733151506 2.4198558458800146 4.2789706144543835 -0.48246836012855043 10.488307816299754 -0.74010993697632776 -3.8823341711770842 -3.2156821878416584 -4.6614082734888029 -2.5488564998588847 -1.4743970867955465 -2.6620686844936161 -2.2282658234121384 0.42577576810026463 0.58530497309823126 0.13869089366911863 -2.724025245848499 0.98929357323882194 -1.631986540469097 -2.3403831039497978 -1.2520599888097721 1.8963051780001514 1.3287506357985379 -1.8147345855078925 -2.4166733582793629 -0.98491566956217624 1.061483903671786 -1.19830925534819 0.23095619397310663 2.6409116868806572 -0.022331428862039246 -2.1950731068271341 1.7056789318802759 -1.8361278975924922 -0.89367530618714786 3.565202311927167 -0.30905525464574979 -2.6026007925650334 -1.5102449360801649 -0.37037331882552099 0.16430819112943787 1.6626742367183462 4.0159507529240752 3.5191653974451906 -0.58139609998509567 -0.734979474569178
leaf_weight=236 1722 1214 81 2496 891 998 184 816 2791 1287 2630 1673 2611 378 75 1543 2991 212 96 2686 403 304 54 2596 2732 55 1543 62 2938 53 176 52 1659 77 145 110 2782 518 76 259 53 1726 158 2380 64 1812 98 186 190 55 162 68 1116 101 155
leaf_count=236 1722 1214 81 2496 891 998 184 816 2791 1287 2630 1673 2611 378 75 1543 2991 212 96 2686 403 304 54 2596 2732 55 1543 62 2938 53 176 52 1659 77 145 110 2782 518 76 259 53 1726 158 2380 64 1812 98 186 190 55 162 68 1116 101 155
internal_value=0 3.8187 -1.41852 -2.48019 2.56701 7.14715 -0.260625 -3.49449 -2.04284 6.12042 1.89635 3.66487 -0.800947 8.98464 0.408217 -3.30095 -3.44659 -5.83511 -2.64553 -1.70837 -2.42502 -2.00806 -1.59824 0.709786 0.0881875 -0.686679 0.73699 -1.63629 -2.50548 2.33855 1.69249 0.0250811 -1.83807 -1.62509 -0.663763 -0.0974075 -1.08077 0.138649 0.559029 0.0583899 -0.467336 1.51192 -1.77792 -1.05891 2.40539 -0.500499 -0.61216 -1.31354 -0.947386 -0.812063 3.19706 2.42938 3.27872 -1.18969 -1.31174
internal_weight=0 14210 38319 19987 10333 3877 18332 6011 13976 2501 6423 3910 10140 1376 8192 5563 4534 448 1029 7468 6508 1074 671 4214 3978 239 4139 213 5434 2975 345 105 4782 1991 332 255 5243 3739 594 3145 413 3448 617 5162 240 4897 3085 474 376 117 2237 230 2007 154 313
internal_count=52529 14210 38319 19987 10333 3877 18332 6011 13976 2501 6423 3910 10140 1376 8192 5563 4534 448 1029 7468 6508 1074 671 4214 3978 239 4139 213 5434 2975 345 105 4782 1991 332 255 5243 3739 594 3145 413 3448 617 5162 240 4897 3085 474 376 117 2237 230 2007 154 313
is_linear=0
shrinkage=0.0761155


Tree=10
num_leaves=56
num_cat=0
split_feature=4 4 4 4 4 4 4 4 4 4 4 4 4 4 4 8 18 22 4 3 13 4 18 3 4 16 18 3 18 3 21 18 18 16 6 3 4 18 14 21 22 4 3 1 0 6 21 18 0 18 20 1 21 3 10
split_gain=4.20593e+07 8.21052e+06 7.48265e+06 1.54512e+06 1.12994e+06 1.09201e+06 760244 455202 240625 169164 163641 150784 131513 101935 101848 88248.6 50816.7 39197 39531.3 35196.7 33480.5 33429.2 30621.3 29231.2 26502.2 25590.3 65432.5 36872.2 27478.1 24043.5 23492.5 57654.7 47346.5 35923.3 51124.9 27855.9 23455.3 22380.9 66131.5 22192.3 38010 18473.1 17731 17639.4 22534.1 28427 17220.4 64205.7 22765.6 17969.6 16537 20040.2 15726.4 15712.8 14235.3
threshold=230.50000000000003 158.50000000000003 334.50000000000006 117.50000000000001 194.50000000000003 280.50000000000006 413.50000000000006 71.500000000000014 137.50000000000003 255.50000000000003 366.50000000000006 175.50000000000003 216.50000000000003 308.50000000000006 101.50000000000001 65.500000000000014 0.084358998231077162 2.5000000000000004 463.50000000000006 1479.0966663670622 44.464456002219443 147.50000000000003 0.084358998231077162 1021.662775806075 128.50000000000003 197.88333333333335 0.084358998231077162 1251.6395194133236 0.084358998231077162 1190.0055834150562 4.5000000000000009 0.084358998231077162 0.084358998231077162 189.35000000000002 186.50000000000003 1378.612640361089 240.50000000000003 0.084358998231077162 294.85000000000008 4.5000000000000009 4.5000000000000009 205.50000000000003 1328.2678152470003 0.017045262440315703 0.054707089321150752 173.50000000000003 4.5000000000000009 0.084358998231077162 0.056467975641187655 0.084358998231077162 1.0000000180025095e-35 0.010347730752275502 4.5000000000000009 975.2417105657355 217.21428571428575
decision_type=2 2 2 2 2 2 2 2 2 2 2 2 2 2 2 2 2 2 2 2 2 2 2 2 2 2 2 2 2 2 2 2 2 2 2 2 2 2 2 2 2 2 2 2 2 2 2 2 2 2 2 2 2 2 2
left_child=1 3 5 7 11 9 10 15 24 36 -4 39 23 37 16 -1 -9 -8 -19 -17 29 -10 -16 -6 -5 26 -13 -28 -27 -18 31 41 -32 34 -33 -36 -2 -7 42 53 -41 -25 -39 44 -29 -46 47 -14 -49 -48 -31 -52 -30 -3 -34
right_child=2 4 6 8 12 13 17 14 21 -11 -12 25 46 -15 22 19 20 18 -20 -21 -22 -23 -24 30 -26 28 27 43 52 50 32 33 54 -35 35 -37 -38 38 -40 40 -42 -43 -44 -45 45 -47 49 48 -50 -51 51 -53 -54 -55 -56
leaf_value=-6.3018494784225139 1.5545291809255877 -1.9499177022819627 5.4676853531317819 -2.2181804325309114 -1.1828909094173383 3.6074280277306787 6.3082164437948274 -3.3547383820372993 -1.6024528013505739 2.6037362148261676 6.8431825200819931 -0.19045782878455819 1.1352152237345898 4.4495348351119635 -2.7083161241108171 -4.5471502100163006 -3.5746497923439904 8.4896284085659968 10.430511560185913 -2.2253851450005002 -0.7006610844085277 -1.2705802213899839 -2.0823306328212872 0.34251832066661381 -1.8875906201207377 -0.056855896360556817 -2.0748333724048305 -0.20625651113471766 0.26274134002412852 -3.2627150762200419 0.58036111041091576 0.68021892573813747 2.7125326252051676 0.51229163665376276 -2.2774184137911635 -0.58826923393450292 1.9760289089129894 0.41198577782921292 4.7006996438606858 1.628815169020073 -0.54973573456620151 0.69973523305760166 2.2455483101129792 -0.082846366556184131 -0.1613915988093165 -2.3046863203549526 1.241981051283525 0.30267296167721919 -1.445208727122796 2.2356582510572589 -2.2888984600192264 -0.59794280537126243 1.8276492597105742 -0.82233040880096864 1.1715282968217764
leaf_weight=231 1552 71 1098 3373 57 1572 81 2685 3434 2687 1331 3462 1300 1296 3229 333 160 554 241 60 57 4037 647 1850 3069 1001 149 110 79 104 928 89 79 170 111 121 1919 56 53 51 268 1569 72 173 54 109 986 100 69 126 279 53 70 5053 84
leaf_count=231 1552 71 1098 3373 57 1572 81 2685 3434 2687 1331 3462 1300 1296 3229 333 160 554 241 60 57 4037 647 1850 3069 1001 149 110 79 104 928 89 79 170 111 121 1919 56 53 51 268 1569 72 173 54 109 986 100 69 126 279 53 70 5053 84
internal_value=0 -1.20364 3.85131 -2.20293 -0.0148971 2.73348 6.95656 -3.05803 -1.72026 2.14699 6.23384 -0.52152 0.691252 3.91253 -2.88341 -5.03789 -3.20034 8.9142 9.13889 -4.22543 -2.54462 -1.42412 -2.60668 0.464779 -2.0623 -0.228281 -0.318054 -1.05224 0.0881191 -2.71321 0.484773 0.396549 0.797435 -0.371455 -0.841242 -1.42841 1.79013 3.50399 2.5321 -0.80152 -0.18092 0.50732 1.49092 -0.690932 -1.06672 -1.62225 1.13321 0.954121 -0.429579 1.36423 -2.35997 -2.03267 1.03512 -0.839877 1.97803
internal_weight=0 40040 12512 21751 18289 9207 3305 7838 13913 6158 2429 10650 7639 3049 7214 624 3338 876 795 393 653 7471 3876 5058 6442 5207 4057 595 1150 596 5001 3910 1091 491 321 232 3471 1753 181 5443 319 3419 128 446 273 163 2581 1469 169 1112 436 332 149 5124 163
internal_count=52552 40040 12512 21751 18289 9207 3305 7838 13913 6158 2429 10650 7639 3049 7214 624 3338 876 795 393 653 7471 3876 5058 6442 5207 4057 595 1150 596 5001 3910 1091 491 321 232 3471 1753 181 5443 319 3419 128 446 273 163 2581 1469 169 1112 436 332 149 5124 163
is_linear=0
shrinkage=0.0761155


Tree=11
num_leaves=56
num_cat=0
split_feature=4 4 4 4 4 4 4 4 4 4 4 4 4 4 4 4 15 18 18 18 20 3 18 1 18 14 3 4 14 18 3 18 16 18 21 14 3 3 16 14 18 6 21 18 18 16 6 3 5 6 3 4 1 13 3
split_gain=3.58949e+07 7.26773e+06 6.13698e+06 1.1849e+06 948033 854612 836648 357956 219051 155482 144656 108745 105834 102940 90191.3 69350.2 43052.4 37314 30115.5 29337.2 28824.3 28763.9 37587.6 27542.8 90659.1 51108.9 25885.5 23411.2 23397.2 51316.4 25485.3 22826.8 30771.2 22482.3 68308.2 31830.9 22207.1 21600 21160.2 20890.4 80865.4 38464.6 20182.9 59654.2 41232.7 25237.4 44398.2 21016.4 19862.4 19500.4 18999.3 16569.4 16227.8 16659.3 16152.1
threshold=223.50000000000003 322.50000000000006 155.50000000000003 113.50000000000001 269.50000000000006 398.00000000000006 188.50000000000003 65.500000000000014 134.50000000000003 244.50000000000003 359.50000000000006 171.50000000000003 463.50000000000006 299.50000000000006 206.50000000000003 96.500000000000014 12.780193008454477 0.084358998231077162 0.084358998231077162 0.084358998231077162 1.0000000180025095e-35 1190.0055834150562 0.084358998231077162 0.010789093894499701 0.084358998231077162 168.01666666666668 1039.3850605134517 123.50000000000001 158.48333333333338 0.084358998231077162 1445.901806718133 0.084358998231077162 199.88333333333335 0.084358998231077162 4.5000000000000009 273.85000000000008 1384.8220132461377 1286.9848960733241 160.08333333333334 207.48333333333338 0.084358998231077162 206.50000000000003 4.5000000000000009 0.084358998231077162 0.084358998231077162 180.51666666666668 188.50000000000003 1380.6374353332872 96.500000000000014 154.50000000000003 1366.5435044854441 234.50000000000003 0.012453532763759203 31.601919510476488 1099.1729647822663
decision_type=2 2 2 2 2 2 2 2 2 2 2 2 2 2 2 2 2 2 2 2 2 2 2 2 2 2 2 2 2 2 2 2 2 2 2 2 2 2 2 2 2 2 2 2 2 2 2 2 2 2 2 2 2 2 2
left_child=2 4 3 7 9 10 11 16 27 51 -3 28 18 -6 26 17 -1 -9 -7 -17 -19 22 -10 -23 -25 -26 -8 -5 29 -4 -31 -30 -33 -11 36 37 -35 -36 -24 40 -16 -42 44 -44 -28 46 -46 -48 -22 -27 -43 -2 -21 -54 -13
right_child=1 5 6 8 13 12 14 15 21 33 -12 54 -14 -15 39 19 -18 20 -20 52 48 23 38 24 25 49 42 -29 31 30 -32 32 -34 34 35 -37 -38 -39 -40 -41 41 50 43 -45 45 -47 47 -49 -50 -51 -52 -53 53 -55 -56
leaf_value=-5.7819358213069307 1.1989067467587802 4.7435756474089299 -0.88437108226223504 -2.1786211535577653 2.9272041621679818 7.4873199573041695 -1.0496593436503603 -3.2487127533179043 -1.5263261363526484 2.1703870878462759 6.0088712223960794 -0.88089003273385014 9.3935320055184022 3.8167779791370395 0.74681081733721455 -2.6515050248926304 -3.9692035834573356 -3.429148236084965 5.2790202549331582 -2.2114362385317237 -1.7182140298096988 -1.4637892685105121 -3.0148171475940915 -1.3334773315546844 -0.76291387988730019 1.4844408718229771 0.25226071570135089 -1.8688414257402741 -0.79846482727827806 -2.3674396697835243 -0.9903984992389756 -0.45556494078558968 1.354754310075567 -1.1985174068053175 0.45364241685621642 3.8100010063045171 0.92819644504761811 2.1530916976673362 -1.3183650287542401 0.95338012140534056 0.94862999670534653 -2.1780788865255727 0.31316790189925087 2.1645795365996374 0.42689086689592576 0.095200297946501103 -2.6168623380927367 -0.85579141836083783 -3.1804203861638674 -0.25214689762747783 -0.52089821732048436 1.5570156035362241 -1.9596164035068113 -0.11206523304405382 -0.32542614350317167
leaf_weight=245 1982 1387 2054 2992 2182 952 88 2017 1392 2842 1088 323 259 1314 1587 3020 205 138 95 509 302 3354 179 1967 261 111 3183 3594 2463 226 136 361 59 53 66 51 51 146 72 1419 51 80 759 112 80 211 77 91 76 53 85 1408 57 54 4624
leaf_count=245 1982 1387 2054 2992 2182 952 88 2017 1392 2842 1088 323 259 1314 1587 3020 205 138 95 509 302 3354 179 1967 261 111 3183 3594 2463 226 136 361 59 53 66 51 51 146 72 1419 51 80 759 112 80 211 77 91 76 53 85 1408 57 54 4624
internal_value=0 3.32071 -1.19141 -2.08937 2.25265 6.16561 -0.167462 -2.92848 -1.69079 1.71343 5.31074 -0.619919 7.75943 3.26655 0.425105 -2.77292 -5.0087 -3.0909 7.31288 -2.54767 -2.44851 -1.40405 -1.69227 -1.3202 -1.11613 -0.105615 0.208359 -2.01115 -0.859516 -1.03588 -1.87126 -0.710081 -0.187697 2.09483 1.48779 2.13069 -0.157516 1.64792 -2.56423 0.733719 0.558522 -0.809106 0.234083 0.562449 0.154803 -0.51578 -1.02876 -1.71643 -2.05017 0.930109 -1.36622 1.34979 -2.02448 -1.10672 -0.362603
internal_weight=0 13876 38667 20598 10095 3781 18069 6623 13975 6599 2475 10246 1306 3496 7823 6173 450 2533 1047 3640 516 7389 1643 5746 2392 425 4601 6586 5299 2416 362 2883 420 3209 367 263 104 212 251 3222 1803 216 4513 871 3642 459 248 168 378 164 165 3390 620 111 4947
internal_count=52543 13876 38667 20598 10095 3781 18069 6623 13975 6599 2475 10246 1306 3496 7823 6173 450 2533 1047 3640 516 7389 1643 5746 2392 425 4601 6586 5299 2416 362 2883 420 3209 367 263 104 212 251 3222 1803 216 4513 871 3642 459 248 168 378 164 165 3390 620 111 4947
is_linear=0
shrinkage=0.0761155


Tree=12
num_leaves=56
num_cat=0
split_feature=4 4 4 4 4 4 4 4 4 4 4 4 4 4 4 4 22 3 18 1 0 1 18 21 4 3 22 3 3 21 18 18 0 6 1 0 18 18 1 0 18 0 18 15 20 21 18 3 3 1 2 15 21 3 3
split_gain=3.0681e+07 6.66545e+06 4.85989e+06 888758 836704 805622 791815 263440 185757 174542 135711 103652 98464.3 87794.1 80767.2 54919.6 39529.9 30852.9 30172.2 34118.1 30727.9 29301.8 70916.3 55928.5 29126.3 28843.8 26445 25075.6 23356 22534.8 45459.5 39767.2 30385.6 29398.8 21988.3 21483.5 34062.6 24844.9 21262 21254.6 81427.7 24945.8 22687.4 20287.7 19422 19331.2 81404.5 28588 19140.9 18860 17445.9 17420.5 16258.5 36798.8 16049
threshold=218.50000000000003 316.50000000000006 149.50000000000003 380.00000000000006 106.50000000000001 259.50000000000006 181.50000000000003 55.500000000000007 419.50000000000006 128.50000000000003 284.50000000000006 195.50000000000003 163.50000000000003 236.50000000000003 340.50000000000006 83.500000000000014 2.5000000000000004 1032.3273746042412 0.084358998231077162 0.0098448790586932022 0.055429480925024359 0.010191972573781901 0.084358998231077162 2.5000000000000004 472.50000000000006 1408.8221430961701 1.5000000000000002 1357.2385527213207 1286.9848960733241 4.5000000000000009 0.084358998231077162 0.084358998231077162 0.059286929634504805 178.50000000000003 0.014822174583578653 0.056882863960019563 0.084358998231077162 0.084358998231077162 0.0075155327879284509 0.077126965492228514 0.084358998231077162 0.056467975641187655 0.018117493715668901 27.139031145040065 1.0000000180025095e-35 4.5000000000000009 0.084358998231077162 1340.7998807839695 1394.748764932637 0.007847920691839351 257.72502590692221 29.740303160124217 4.5000000000000009 1363.2513936750245 1145.4789450325895
decision_type=2 2 2 2 2 2 2 2 2 2 2 2 2 2 2 2 2 2 2 2 2 2 2 2 2 2 2 2 2 2 2 2 2 2 2 2 2 2 2 2 2 2 2 2 2 2 2 2 2 2 2 2 2 2 2
left_child=2 5 4 14 7 13 12 -1 -5 18 54 -8 -4 -2 -3 25 -10 -13 -6 20 -20 35 -23 48 -18 -9 34 -25 -21 31 -31 -19 49 -34 -17 36 -11 -37 -27 40 -12 -42 -41 -35 -32 46 -15 -48 -24 -33 -46 -40 -14 -54 -7
right_child=1 3 6 8 9 10 11 15 16 21 39 17 52 45 -16 26 24 29 19 28 -22 22 23 27 -26 38 -28 -29 -30 30 44 32 33 43 -36 37 -38 -39 51 42 41 -43 -44 -45 50 -47 47 -49 -50 -51 -52 -53 53 -55 -56
leaf_value=-5.0606389402947887 1.0837764125884182 3.9608021143239895 -1.0014248574875231 6.0857466448091539 -2.0922736297858391 1.3211864003257405 -0.087404051922864323 -3.4562261189382784 5.2486830148502692 -1.3851671527244955 3.2514741039660784 -1.068923009100389 -0.56706977878738851 1.6301689326893578 4.9691365672774088 -2.2252952655115541 7.5441782223533327 0.46230154445959332 -0.33112600021941324 -1.7847365564551885 -2.0649423981013171 -1.4331228688695845 -1.6113028321932823 -0.38836613843375001 9.652366601009696 -3.1512574792696166 -2.6813148662690471 1.313482860512585 -0.39699499484662765 0.54485970471739154 0.53313420932443623 -0.71107203210734349 0.75779019180405816 -0.18414211173203862 -0.5281490689173659 -1.567634782253112 0.18593723166556719 -2.1246129555545825 -2.3158708841718165 3.4181928635679353 2.3955417283374003 0.55079492459240098 5.3526540658362984 -1.735205685564712 3.1815891289760772 1.811964788696627 -1.6242326703730059 0.56615014307564882 -0.32982972626853041 0.81529989789854951 1.2554434806791601 -0.41827592472222735 -0.38748292130194961 1.6088866598511609 2.3827942787520646
leaf_weight=302 3070 1032 4968 1100 5180 108 3730 833 72 576 1424 73 5121 971 1221 628 550 3501 68 109 644 2417 164 86 132 103 2966 109 196 991 52 61 52 77 52 3039 91 610 65 283 80 94 63 138 67 1986 55 77 119 160 62 52 299 60 2369
leaf_count=302 3070 1032 4968 1100 5180 108 3730 833 72 576 1424 73 5121 971 1221 628 550 3501 68 109 644 2417 164 86 132 103 2966 109 196 991 52 61 52 77 52 3039 91 610 65 283 80 94 63 138 67 1986 55 77 119 160 62 52 299 60 2369
internal_value=0 2.95245 -1.14607 5.5537 -2.03192 1.94054 -0.305673 -2.87298 6.79799 -1.71725 2.72474 0.219072 -0.755811 1.37586 4.51704 -2.72717 7.79048 0.437427 -2.015 -1.6129 -1.90325 -1.46012 -1.26567 -0.41225 8.01885 -3.23548 -2.57611 0.570045 -0.914521 0.459799 0.753535 0.372587 -0.268514 -0.808858 -2.10075 -1.58887 -1.1705 -1.66357 -2.34085 3.20848 3.05985 1.44343 3.84144 -1.19785 1.84956 1.66384 1.38997 -0.369444 -1.08851 0.386117 2.33852 -1.52626 -0.532383 -0.0356338 2.33936
internal_weight=0 14687 37821 4107 18409 10580 19412 5001 1854 13408 4421 8964 10448 6159 2253 4699 754 5234 6197 1017 712 7211 2895 478 682 1053 3646 195 305 5161 1172 3989 488 267 680 4316 667 3649 220 1944 1598 174 346 215 181 3089 1103 132 283 221 129 117 5480 359 2477
internal_count=52508 14687 37821 4107 18409 10580 19412 5001 1854 13408 4421 8964 10448 6159 2253 4699 754 5234 6197 1017 712 7211 2895 478 682 1053 3646 195 305 5161 1172 3989 488 267 680 4316 667 3649 220 1944 1598 174 346 215 181 3089 1103 132 283 221 129 117 5480 359 2477
is_linear=0
shrinkage=0.0761155


Tree=13
num_leaves=56
num_cat=0
split_feature=4 4 4 4 4 4 4 4 4 4 4 4 4 4 3 4 3 18 15 18 1 0 3 4 5 14 11 4 21 18 15 18 14 14 17 18 6 4 18 16 3 3 1 18 0 3 4 18 16 0 3 2 4 3 2
split_gain=2.6232e+07 5.30364e+06 4.50028e+06 815552 801085 693942 547471 227875 176589 135013 110187 106985 81235 66998.8 51348.7 44151.1 39008.3 46878.2 34043.5 27125.9 39319.8 29080.8 28511.5 26237.1 25875.6 22156.4 20999.9 20334.4 19773.9 61899.9 30407.3 19335.8 52030.3 20294.5 18891.3 83079.6 32999.3 18825.2 18066.9 108652 17492.2 17410.4 17099.2 52697.4 27995.8 19656.9 16641.7 16163.4 22938 15552 14113.2 13792.4 13748.3 13371.3 13194.3
threshold=223.50000000000003 330.50000000000006 152.50000000000003 273.50000000000006 107.50000000000001 188.50000000000003 408.50000000000006 65.500000000000014 130.50000000000003 246.50000000000003 366.50000000000006 167.50000000000003 299.50000000000006 204.50000000000003 1247.4216332212866 467.00000000000006 1181.4027149094638 0.084358998231077162 12.780193008454477 0.084358998231077162 0.0098448790586932022 0.056882863960019563 1424.1975068554946 141.50000000000003 107.50000000000001 147.35000000000005 1.0000000180025095e-35 85.500000000000014 4.5000000000000009 0.084358998231077162 27.950489882593462 0.084358998231077162 221.45000000000002 262.98333333333341 203.81666666666669 0.084358998231077162 204.50000000000003 179.50000000000003 0.020323992179499054 314.90000000000003 975.2417105657355 1272.8081337012511 0.018255089401027252 0.084358998231077162 0.057851931028546355 1382.6201528864556 118.50000000000001 0.084358998231077162 224.95000000000002 0.054233908818329957 1286.9848960733241 280.72820156495499 261.50000000000006 1224.4667481825284 265.94151337515632
decision_type=2 2 2 2 2 2 2 2 2 2 2 2 2 2 2 2 2 2 2 2 2 2 2 2 2 2 2 2 2 2 2 2 2 2 2 2 2 2 2 2 2 2 2 2 2 2 2 2 2 2 2 2 2 2 2
left_child=2 3 4 9 7 11 10 18 19 28 -3 40 -5 42 -8 -16 27 26 -1 46 21 -21 -22 -10 25 51 -18 -9 29 -2 -31 52 -33 50 35 -15 -37 -13 -14 -40 -4 -38 43 -7 -45 -46 -6 -36 -49 -32 -34 -19 -11 -25 -43
right_child=1 6 5 12 8 13 14 16 23 31 -12 37 38 34 15 -17 17 24 -20 20 22 -23 -24 53 -26 -27 -28 -29 -30 30 49 32 33 -35 47 36 41 -39 39 -41 -42 54 -44 44 45 -47 -48 48 -50 -51 -52 -53 -54 -55 -56
leaf_value=-4.9742432690203922 1.1434642853485821 4.2326017055121907 -1.957183582474463 2.5681420246192954 -2.0592949030887246 0.13552062535769191 4.7065214204714989 -3.2338859090280052 -1.4325635103321019 1.7627556715317743 5.3358450882863835 -0.46684191578293371 3.449542073959821 0.60590087339217436 6.7035438890355215 8.4986830009810603 -2.0458688277014803 -1.3486167590792137 -3.3712979594025771 -0.32443273958777841 -1.2745818064173966 -1.912117343561708 0.17247416995406342 -1.3745128528981052 -2.7832783440800717 -0.0042211166174618876 -2.6104119949841302 -2.5785056845888406 1.337879844214539 0.97103863680322988 0.02559630167751217 -0.21798814125762575 0.28146316225447338 2.8446850910047821 0.67503873864456954 0.71391101314463723 -2.4061318230909783 -0.19507967627686815 1.2399502502455937 5.2276944667699032 -0.80740771410006196 0 0.28105465532200807 -0.21426931121819498 -2.7694227621139995 -0.80486736594163955 -1.7678480513769683 0.31305456820980898 1.8837561831258318 -1.6608222331568201 1.7329568570676315 -2.3326663696897221 2.1343140893329884 -1.0502718646088014 -1.4770768874532285
leaf_weight=243 1408 1265 76 1815 2341 1476 96 513 3676 1707 1204 3589 1425 1866 713 198 660 368 202 77 211 693 122 1114 109 55 1724 1253 2035 66 52 96 56 80 1530 56 57 2536 136 54 5054 64 2217 123 61 65 3219 85 157 74 146 126 1232 2871 72
leaf_count=243 1408 1265 76 1815 2341 1476 96 513 3676 1707 1204 3589 1425 1866 713 198 660 368 202 77 211 693 122 1114 109 55 1724 1253 2035 66 52 96 56 80 1530 56 57 2536 136 54 5054 64 2217 123 61 65 3219 85 157 74 146 126 1232 2871 72
internal_value=0 2.84009 -1.0191 1.97677 -1.82976 -0.187225 5.4121 -2.6344 -1.53385 1.50096 4.78027 -0.569943 2.93752 0.362938 6.93016 7.13759 -2.47667 -2.29769 -4.29216 -1.82152 -1.45745 -1.75687 -0.748576 -1.2826 -1.69957 -1.46098 -2.4588 -2.77753 1.17715 0.969041 -0.304869 1.85343 1.30207 1.81565 0.587019 0.431283 -0.8623 -0.354626 3.34337 2.47834 -0.826367 -1.32781 0.141438 -0.0380834 -1.05127 -1.82692 -1.89233 0.770994 1.35071 -0.98728 1.34852 -1.62082 1.92193 -1.14258 -0.805213
internal_weight=0 13858 38661 10382 19577 19084 3476 5253 14324 6952 2469 11255 3430 7829 1007 911 4808 3042 445 6663 1103 770 333 7661 658 549 2384 1766 3635 1600 192 3317 378 282 3887 2115 249 6125 1615 190 5130 193 3942 1725 249 126 5560 1772 242 126 202 494 2939 3985 136
internal_count=52519 13858 38661 10382 19577 19084 3476 5253 14324 6952 2469 11255 3430 7829 1007 911 4808 3042 445 6663 1103 770 333 7661 658 549 2384 1766 3635 1600 192 3317 378 282 3887 2115 249 6125 1615 190 5130 193 3942 1725 249 126 5560 1772 242 126 202 494 2939 3985 136
is_linear=0
shrinkage=0.0761155


Tree=14
num_leaves=56
num_cat=0
split_feature=4 4 4 4 4 4 4 4 4 4 4 4 4 4 4 15 22 3 4 13 19 3 18 14 18 1 0 3 16 14 18 3 18 9 16 18 3 1 20 11 8 18 13 22 18 14 3 2 20 4 1 15 18 16 0
split_gain=2.24369e+07 4.38388e+06 4.00865e+06 797989 636974 582994 430316 259033 118273 85511 84441.7 82695.2 73345.2 57722.5 57344.4 47291.1 32418.9 30318.5 28010 26691.9 25894.1 23227.6 53883.3 21751.1 21198.3 68223.6 42615.2 27814.2 19084.3 18457.7 52504.2 31857.7 24139.2 20245.7 18056.3 44674.2 20517.2 18035 17969 20155.8 17038.7 39399.7 28382.6 23566.2 16762.9 52290.4 24476.3 16703.7 16072.2 15935.7 15915.3 17589.1 15310.8 24853.9 14923.4
threshold=230.50000000000003 157.50000000000003 334.50000000000006 117.50000000000001 192.50000000000003 279.50000000000006 413.50000000000006 71.500000000000014 137.50000000000003 215.50000000000003 252.50000000000003 369.50000000000006 173.50000000000003 308.50000000000006 104.50000000000001 7.1529271551242672 1.5000000000000002 1479.0966663670622 489.50000000000006 44.464456002219443 169.47328106384614 1185.2867388649927 0.084358998231077162 187.38333333333335 0.084358998231077162 0.018255089401027252 0.055429480925024359 1291.0626147842991 152.38333333333335 187.38333333333335 0.084358998231077162 1214.4388735431946 0.084358998231077162 217.50000000000003 157.77463768115948 0.084358998231077162 1443.5378815509118 0.0091277003442764518 1.0000000180025095e-35 1.0000000180025095e-35 325.50000000000006 0.084358998231077162 33.764903099476349 6.5000000000000009 0.084358998231077162 294.85000000000008 1408.8221430961701 283.32036973385902 3.5000000000000004 204.50000000000003 0.016572349769064753 31.673985838281769 0.084358998231077162 199.88333333333335 0.060327871682732757
decision_type=2 2 2 2 2 2 2 2 2 2 2 2 2 2 2 2 2 2 2 2 2 2 2 2 2 2 2 2 2 2 2 2 2 2 2 2 2 2 2 2 2 2 2 2 2 2 2 2 2 2 2 2 2 2 2
left_child=1 3 5 7 12 10 11 15 24 21 -2 -4 34 44 16 -1 19 -17 -8 38 -13 22 -6 -24 -5 26 -26 -28 -10 30 -14 -32 -31 -34 35 -3 37 -37 39 -9 41 -12 54 -42 -7 46 -46 -29 50 -23 51 -33 -36 -54 -43
right_child=2 4 6 8 9 13 18 14 28 -11 40 20 29 -15 -16 17 -18 -19 -20 -21 -22 49 23 -25 25 -27 27 47 -30 32 31 48 33 -35 52 36 -38 -39 -40 -41 43 42 -44 -45 45 -47 -48 -49 -50 -51 -52 -53 53 -55 -56
leaf_value=-4.6509503123355769 1.2787484836269007 -0.64482388529621171 4.0278224428460838 -1.5681708772247496 0.21734190265077868 2.627277561070859 6.2960955055554333 -1.4195541278726462 -1.1643139772013458 0.82143078128806879 1.8965192623876963 3.6288535917601052 -0.19405352596231584 3.2444335337524359 -1.859580667948888 -3.4159439326423464 -2.4168198395268607 -1.3674629493314165 8.4442646552976015 -0.36287165124537651 5.1479610929876127 0.22520818077270358 -2.4613461167833384 -0.40134702502982489 0.26676817584870954 0.71509290618331212 -2.1101841744752559 -0.92913296636827136 -0.90517764426957548 -0.12145591275650564 -2.1895145212906963 -0.34324162818419046 0.0096557891792131839 1.5015131886200495 -0.57324621883533122 -2.6906154014606076 -0.8131524651330625 -1.1177558859873093 -1.7009625218733957 -3.2654606643501665 3.9961434593421608 1.7765217121818184 -0.2471513620594753 2.0162128961796077 0.14192654337754257 3.7363686657475208 2.1657130838838667 -1.9478646479915516 -1.6243888056798248 0.50051491808508175 0.25876965271710112 -1.7065298930915607 -0.33493388883951902 1.2031862531194559 0.28232938511615835
leaf_weight=233 3170 1872 1177 5400 487 1670 794 66 3977 2716 2341 129 3088 1288 3277 331 3177 59 86 69 1123 2624 64 57 82 97 313 419 3081 1397 102 167 107 100 2536 118 131 83 512 116 51 152 83 183 89 52 53 127 85 2305 115 80 363 68 55
leaf_count=233 3170 1872 1177 5400 487 1670 794 66 3977 2716 2341 129 3088 1288 3277 331 3177 59 86 69 1123 2624 64 57 82 97 313 419 3081 1397 102 167 107 100 2536 118 131 83 512 116 51 152 83 183 89 52 53 127 85 2305 115 80 363 68 55
internal_value=0 -0.87948 2.8148 -1.62464 -0.0274673 1.9947 5.08525 -2.2357 -1.26895 0.471795 1.55411 4.54151 -0.423274 2.83443 -2.10421 -3.72996 -2.30502 -3.12781 6.55215 -1.82656 5.00652 0.299652 -0.142849 -1.54728 -1.50581 -1.17518 -1.37311 -1.53069 -1.05195 -0.22219 -0.316944 -0.999683 -0.00680588 0.750141 -0.626607 -0.792625 -1.6034 -2.08502 -1.968 -2.65288 1.85594 1.79193 0.928907 2.52253 2.54315 1.77018 0.94687 -1.18199 -0.706538 0.354395 -0.471186 -0.810876 -0.502056 -0.0806188 1.39694
internal_weight=0 40001 12496 21336 18665 9187 3309 7840 13496 8253 6035 2429 10412 3152 7217 623 3940 390 880 763 1252 5537 608 121 6438 1038 941 859 7058 5241 3637 549 1604 207 5171 2204 332 201 694 182 2865 2631 290 234 1864 194 142 546 447 4929 362 247 2967 431 207
internal_count=52497 40001 12496 21336 18665 9187 3309 7840 13496 8253 6035 2429 10412 3152 7217 623 3940 390 880 763 1252 5537 608 121 6438 1038 941 859 7058 5241 3637 549 1604 207 5171 2204 332 201 694 182 2865 2631 290 234 1864 194 142 546 447 4929 362 247 2967 431 207
is_linear=0
shrinkage=0.0761155


Tree=15
num_leaves=56
num_cat=0
split_feature=5 5 5 5 5 14 5 5 18 17 5 18 0 18 18 21 18 3 20 3 22 18 21 5 3 1 16 3 18 1 19 10 0 0 20 16 5 3 11 5 0 1 5 18 3 13 1 6 2 3 2 5 0 5 2
split_gain=1.80105e+07 3.36267e+06 3.07807e+06 576892 562432 394153 249202 228150 164073 156706 150546 110141 109267 149505 146367 92100 114611 76688.1 82591.3 76363.6 67344.1 66025.2 79885.5 72596 56661.3 53298.3 50637.7 49176.4 60489.7 46215.4 95712.6 45508.2 40778.3 40313.4 40241.6 39688.7 36020.2 33292.6 33125.2 32761.2 32028.9 40017.4 31641.8 25760.9 25675.1 25424.7 24582.2 23719.6 23693.9 25290.5 22807.4 22099.8 22092.1 21260.5 20064.1
threshold=230.50000000000003 340.50000000000006 163.50000000000003 120.50000000000001 282.50000000000006 199.21666666666667 413.50000000000006 55.500000000000007 0.084358998231077162 156.71666666666667 192.50000000000003 0.084358998231077162 0.078575181613143405 0.084358998231077162 0.084358998231077162 4.5000000000000009 0.084358998231077162 1181.4027149094638 1.0000000180025095e-35 1152.2443998908086 2.5000000000000004 0.084358998231077162 4.5000000000000009 199.50000000000003 1247.4216332212866 0.025486332217774355 165.55000000000004 1194.9371011156379 0.084358998231077162 0.028246210775740653 171.41642758673586 258.50000000000006 0.054233908818329957 0.056467975641187655 1.0000000180025095e-35 214.55000000000001 306.50000000000006 1222.4565547129703 0.48795003649158919 143.50000000000003 0.059286929634504805 0.010059883969012402 101.50000000000001 0.084358998231077162 1032.3273746042412 11.933883794372511 0.018076033002466702 299.50000000000006 271.16294245986847 1567.1784782568418 241.67236192658768 148.50000000000003 0.056467975641187655 77.500000000000014 284.97094176596596
decision_type=2 2 2 2 2 2 2 2 2 2 2 2 2 2 2 2 2 2 2 2 2 2 2 2 2 2 2 2 2 2 2 2 2 2 2 2 2 2 2 2 2 2 2 2 2 2 2 2 2 2 2 2 2 2 2
left_child=2 4 3 7 15 8 29 45 10 27 -4 51 13 36 -14 16 -2 42 53 -10 -8 23 52 -7 -13 32 40 28 -5 30 -3 -17 -20 -15 -26 -18 -6 -24 -39 -29 -21 -42 -9 -34 -12 -1 -36 -35 -28 -50 -30 -11 -23 -19 -45
right_child=1 6 5 9 12 21 20 17 19 11 44 24 14 33 -16 31 35 18 25 26 -22 22 37 -25 34 -27 48 39 50 -31 -32 -33 43 47 46 -37 -38 38 -40 -41 41 -43 -44 54 -46 -47 -48 -49 49 -51 -52 -53 -54 -55 -56
leaf_value=-4.2965210837687842 1.1770664371368571 0.30321182584082434 -0.36924448056004538 -1.3705305417009095 2.2893869934517936 0.061545161243786825 3.3481539514935039 -2.3974436008538582 -2.1814052803392334 -1.0397185982386694 -1.349185306644795 -0.87123709346636991 3.1452612556219508 1.6029330043885097 7.1730656125593129 1.3699057553057115 -1.351109537014505 -2.6911346015494479 -0.23647431201544902 0.0015534925783107377 6.0485952803928154 0.72205771935536034 0.60817987827547171 0.68418453195928908 -0.88270225245323597 0.69961155119083951 -0.061571531949048845 -1.2741217654876618 -1.9808187200250904 4.4465389493562384 3.8415958597257323 1.8825587996674906 -1.6006473212225603 0.75168763542538586 0.32010703536254348 0.61582937649235725 2.9468753037395876 4.0445158142557229 1.8990954634496477 -0.94890068871010858 -2.3946951846553399 -0.93145987506426575 -1.8330340182579836 -0.85345669389740442 0.26634517089774679 -2.2863663951780437 1.4701391280630327 -1.2255098534875233 -1.5949584824337197 -0.025445182063467905 -3.4197087557486574 -0.6802293981907076 -0.70409217516764755 -1.8220638448756472 -1.827734031030148
leaf_weight=234 1808 51 5968 1776 1146 1764 80 1269 247 1972 53 215 532 129 58 2408 146 196 179 93 797 206 85 2823 86 72 557 4495 243 1746 398 1870 1747 64 227 94 1104 55 235 3173 187 277 1318 630 3771 67 208 67 142 101 111 2116 85 2884 157
leaf_count=234 1808 51 5968 1776 1146 1764 80 1269 247 1972 53 215 532 129 58 2408 146 196 179 93 797 206 85 2823 86 72 557 4495 243 1746 398 1870 1747 64 227 94 1104 55 235 3173 187 277 1318 630 3771 67 208 67 142 101 111 2116 85 2884 157
internal_value=0 2.52232 -0.78712 -1.35037 1.80784 0.00381422 4.70811 -1.83936 -0.247597 -1.0571 -0.130439 -0.700591 2.64821 2.41827 3.59778 1.39423 0.969809 -1.76393 -1.60779 -0.96001 5.82269 0.549022 1.25548 0.445139 0.155278 -1.30197 -0.730364 -1.23215 -1.5593 4.25062 3.4481 1.59598 -1.35639 0.673144 0.583746 -0.582372 2.61787 1.98291 2.36779 -1.14029 -1.28492 -1.54084 -2.11405 -1.43475 0.242159 -3.89415 0.881094 -0.264678 -0.338328 -0.957477 -2.47362 -0.854769 0.299508 -1.88168 -1.0584
internal_weight=0 12498 40024 23375 9426 16649 3072 8753 11396 14622 9792 4824 3100 2510 590 6326 2048 8452 5865 1604 877 5253 666 4587 736 2785 1357 9798 2130 2195 449 4278 2713 260 521 240 2250 375 290 7668 557 464 2587 2534 3824 301 435 131 800 243 354 4088 291 3080 787
internal_count=52522 12498 40024 23375 9426 16649 3072 8753 11396 14622 9792 4824 3100 2510 590 6326 2048 8452 5865 1604 877 5253 666 4587 736 2785 1357 9798 2130 2195 449 4278 2713 260 521 240 2250 375 290 7668 557 464 2587 2534 3824 301 435 131 800 243 354 4088 291 3080 787
is_linear=0
shrinkage=0.0761155


Tree=16
num_leaves=56
num_cat=0
split_feature=4 4 4 4 4 4 4 4 4 4 4 4 4 4 4 19 15 18 13 1 18 21 18 8 4 5 13 2 0 18 18 20 11 1 1 6 20 21 18 18 5 14 10 1 18 0 6 22 21 13 1 21 18 8 9
split_gain=1.65305e+07 3.56948e+06 2.67101e+06 495111 472501 428629 423729 145342 95919.2 92605 63287.5 59506.8 54715.1 53467.1 51363.5 36446.7 30938.8 25556.1 23415 19587.9 54813.3 34617.5 18869.7 23180.5 17228 16558.9 15562.5 13956.7 13664.4 22485.2 21291.3 12688.7 17815.3 14859.7 12220.2 12012.2 11827.2 11812.3 32325.2 22793.1 21069.8 24593.6 10928.6 10784.4 42759.6 24548.1 16497.4 12039.1 28684 12023.1 11387.6 10751.5 39755.7 22003.1 10556.6
threshold=218.50000000000003 316.50000000000006 149.50000000000003 386.50000000000006 106.50000000000001 263.50000000000006 181.50000000000003 71.500000000000014 128.50000000000003 439.50000000000006 239.50000000000003 345.50000000000006 294.50000000000006 197.50000000000003 163.50000000000003 217.62606380518693 7.1529271551242672 0.084358998231077162 44.464456002219443 0.010789093894499701 0.084358998231077162 2.5000000000000004 0.084358998231077162 191.50000000000003 87.500000000000014 106.50000000000001 0.46880723099028793 206.12466600339368 0.059286929634504805 0.084358998231077162 0.084358998231077162 1.0000000180025095e-35 1.0000000180025095e-35 0.0095481706671090016 0.0098448790586932022 144.50000000000003 1.0000000180025095e-35 4.5000000000000009 0.084358998231077162 0.084358998231077162 197.50000000000003 188.01666666666668 218.07142857142861 0.018802449607436354 0.084358998231077162 0.056467975641187655 179.50000000000003 1.5000000000000002 4.5000000000000009 1.0000000180025095e-35 0.0095481706671090016 4.5000000000000009 0.084358998231077162 195.50000000000003 138.50000000000003
decision_type=2 2 2 2 2 2 2 2 2 2 2 2 2 2 2 2 2 2 2 2 2 2 2 2 2 2 2 2 2 2 2 2 2 2 2 2 2 2 2 2 2 2 2 2 2 2 2 2 2 2 2 2 2 2 2
left_child=2 5 4 11 7 10 14 16 22 -5 -2 -3 26 43 -4 -11 -1 24 25 28 -21 -22 -6 34 -9 31 -7 -15 29 -10 -30 32 -19 -33 -24 36 -36 38 -29 -39 -40 -42 -41 44 49 -46 -47 48 -45 -8 -48 52 -12 -54 -16
right_child=1 3 6 9 8 12 13 17 19 15 51 -13 -14 27 54 -17 -18 18 -20 20 21 -23 23 -25 -26 -27 -28 37 30 -31 -32 33 -34 -35 35 -37 -38 39 40 42 41 -43 -44 47 45 46 50 -49 -50 -51 -52 -53 53 -55 -56
leaf_value=-3.9839986145053317 0.82992526703069225 2.9555064897605603 -0.72481478167160074 4.6672469234757177 -1.5432202717058388 1.2482281439357421 -0.93645357925031536 -2.3772929160816436 -1.0239385087577622 3.4911839630984245 1.262145552041009 3.7675127092462097 2.4751489330335295 -0.83603219060974399 -0.5647484681004431 6.3073298341491322 -2.731939402138035 -1.071490613864396 -0.20709502625333601 -1.0577194175128601 -0.71350162085773705 0.60551125324775879 -1.4503138555446682 0.030784725332061509 -1.9511833137272849 -2.4600573004938084 1.914122594006529 0.37388189961445606 -1.1469662196257906 0.18168218416649135 -1.6516401141712735 -1.4384502341785237 -2.7706649033048683 -0.22294686214252715 -1.4016024640729963 -1.7169519758958525 -0.1246434976733309 0.41806249614294527 1.0087805234284906 1.955670762823031 -1.0382225992762797 0.16327621857399452 0.69767705520305501 0.13468383646641574 -0.16535146442359158 -0.31808599638425505 -2.8568155746856316 0.022408028669895826 1.9790828253998258 0.028573310033866459 -1.2585658688281476 1.411297013707822 -1.1526668340255695 0.79953877973780274 -0.32245121537729476
leaf_weight=231 3545 1232 4962 1188 5156 267 73 893 680 51 916 1201 1282 53 1427 436 393 73 70 2285 262 198 676 85 2675 140 2385 3148 3086 101 616 376 93 72 55 60 147 922 56 87 220 173 88 213 134 51 51 1696 59 1861 79 2046 62 62 4060
leaf_count=231 3545 1232 4962 1188 5156 267 73 893 680 51 916 1201 1282 53 1427 436 393 73 70 2285 262 198 676 85 2675 140 2385 3148 3086 101 616 376 93 72 55 60 147 922 56 87 220 173 88 213 134 51 51 1696 59 1861 79 2046 62 62 4060
internal_value=0 2.16822 -0.841045 4.07114 -1.49741 1.42673 -0.217916 -2.12822 -1.26068 5.08629 1.05186 3.36327 2.05641 0.16595 -0.547184 6.05095 -3.22351 -1.9691 -1.56063 -1.07054 -0.90536 -0.144588 -1.48201 -1.16726 -2.06105 -1.68367 1.84965 0.341028 -1.1705 -0.867412 -1.23312 -1.48794 -2.0778 -1.24842 -1.2758 -0.805781 -0.499075 0.355254 0.287669 0.574269 -0.313499 -0.512938 1.36138 -0.0312161 -0.144997 -0.960152 -1.52674 0.0986684 0.564055 -0.00994921 -1.96941 1.30495 1.08975 -0.180532 -0.385979
internal_weight=0 14673 37836 4108 18423 10565 19413 5016 13407 1675 6631 2433 3934 8964 10449 487 624 4392 824 7228 2745 460 6179 1023 3568 754 2652 4747 4483 781 3702 614 166 448 938 262 202 4694 3597 1097 449 393 175 4217 2249 315 181 1968 272 1934 130 3086 1040 124 5487
internal_count=52509 14673 37836 4108 18423 10565 19413 5016 13407 1675 6631 2433 3934 8964 10449 487 624 4392 824 7228 2745 460 6179 1023 3568 754 2652 4747 4483 781 3702 614 166 448 938 262 202 4694 3597 1097 449 393 175 4217 2249 315 181 1968 272 1934 130 3086 1040 124 5487
is_linear=0
shrinkage=0.0761155


Tree=17
num_leaves=56
num_cat=0
split_feature=4 4 4 4 4 4 4 4 4 4 4 4 4 4 4 22 22 4 20 15 11 3 1 3 1 18 3 21 18 3 1 13 3 18 14 3 3 3 1 3 18 2 11 0 18 18 21 22 18 0 18 18 0 6 4
split_gain=1.41376e+07 2.92659e+06 2.37971e+06 409100 403691 402007 363621 116696 92478.6 72471.5 55960.5 53492.2 52943.8 47332.7 47198.1 31255.1 26729.3 32231.5 27041.7 19592.1 19157.1 17767.5 16923.9 21383 16852.3 44501.1 38872.1 28443.6 16774.1 27698.5 22838.9 15269.3 14934.9 26460.1 20575.8 14376.4 13750.5 13694 15090.3 13672.8 31116.3 12937.8 12790.8 12496.6 20342.2 17704.9 12281.5 32111.9 11662.4 11506.1 48407.4 20684.6 13807.9 11166.2 10774
threshold=221.50000000000003 318.50000000000006 149.50000000000003 398.00000000000006 104.50000000000001 183.50000000000003 265.50000000000006 55.500000000000007 128.50000000000003 359.50000000000006 489.50000000000006 244.50000000000003 163.50000000000003 201.50000000000003 291.50000000000006 2.5000000000000004 1.5000000000000002 80.500000000000014 1.0000000180025095e-35 39.057796793535729 1.0000000180025095e-35 1094.3331295740304 0.029346624708719054 1233.2427417869794 0.010191972573781901 0.084358998231077162 1216.1091702025003 2.5000000000000004 0.084358998231077162 1296.9013611597372 0.012514857141638152 3.1132471299773172 1247.4216332212866 0.084358998231077162 166.38333333333335 1052.9824567456669 1340.7998807839695 975.2417105657355 0.018966344292109954 1109.3377039530885 0.084358998231077162 270.47192117888898 1.0000000180025095e-35 0.059286929634504805 0.084358998231077162 0.084358998231077162 4.5000000000000009 4.5000000000000009 0.019169537287030951 0.080333404649446813 0.084358998231077162 0.018117493715668901 0.056467975641187655 99.500000000000014 439.50000000000006
decision_type=2 2 2 2 2 2 2 2 2 2 2 2 2 2 2 2 2 2 2 2 2 2 2 2 2 2 2 2 2 2 2 2 2 2 2 2 2 2 2 2 2 2 2 2 2 2 2 2 2 2 2 2 2 2 2
left_child=2 6 4 9 7 12 11 -1 28 22 15 -2 37 32 31 36 18 -18 20 53 -9 -13 23 -3 43 -26 -27 -28 -6 -30 -31 48 33 -7 -35 -15 -5 38 -4 40 -14 -29 -19 44 -10 -45 -41 -48 -8 50 -16 -51 -52 -20 -17
right_child=1 3 5 10 8 13 14 16 24 -11 -12 21 39 35 49 54 17 42 19 -21 -22 -23 -24 -25 25 26 27 41 29 30 -32 -33 -34 34 -36 -37 -38 -39 -40 46 -42 -43 -44 45 -46 -47 47 -49 -50 51 52 -53 -54 -55 -56
leaf_value=-3.4545279067400276 0.82847256216960352 1.4858800553496889 -2.3623405182031698 1.9917538894804554 -1.4378624842045862 -0.054656601883395529 1.412186289738131 -1.1869162520835332 -0.94045417710598656 3.7475092391987288 7.000673154896516 -0.00013362850316579066 -0.42462667035972546 -0.62676088910259631 2.3314299613847687 4.5690480176173027 -2.4886921355043436 -1.5680332804138817 -0.96463632113382713 -0.10957318912345218 -2.8216285311600791 1.3081301753332248 3.2139402143340869 2.7613543566441114 -0.97186907519870047 -1.3603832026051252 -0.36831079720285165 1.4520768031374574 -1.5689111606525445 -0.99511023152121558 0.12012617156946875 1.8095874517126 0.10451014602961024 -2.3149257951388917 -0.46146440801591104 0.40679108036726824 4.0196881846688042 -0.65000388989993474 -0.50998775800616558 -0.32753191909967599 -1.942777728539824 0.012243430047908775 -1.9784359128235569 -1.0635145253677132 0.22684303753507526 -1.5307279617523186 1.6709932092009927 -0.21595092842721816 0.2034630835091005 2.3628863214331797 1.5341651719501048 4.1870062560323182 0.084975148388330923 -1.702658915335576 5.4268174069713915
leaf_weight=303 3740 107 54 52 5550 795 286 78 657 1084 88 61 437 75 1152 743 669 752 246 82 129 2611 706 773 2425 114 204 104 434 528 131 1901 3605 51 102 4144 69 4856 52 5290 92 55 2002 2959 97 601 60 263 58 221 75 56 75 300 365
leaf_count=303 3740 107 54 52 5550 795 286 78 657 1084 88 61 437 75 1152 743 669 752 246 82 129 2611 706 773 2425 114 204 104 434 528 131 1901 3605 51 102 4144 69 4856 52 5290 92 55 2002 2959 97 601 60 263 58 221 75 56 75 300 365
internal_value=0 2.05119 -0.758674 3.79978 -1.38183 -0.180949 1.36857 -2.00357 -1.17655 3.24534 4.90731 1.01677 -0.48512 0.2041 1.95631 4.72986 -1.89637 -1.99401 -1.48636 -1.21887 -2.24913 1.27818 2.89138 2.61578 -0.986181 -0.839855 -0.164911 0.222712 -1.38241 -1.09535 -0.773632 1.72151 0.0337245 -0.234232 -1.13434 0.387626 3.26273 -0.670139 -1.51969 -0.335173 -0.704767 0.971488 -1.86949 -1.08346 -0.789319 -1.14449 -0.299691 0.153264 1.21514 2.28354 2.16339 2.79946 0.837542 -1.38236 4.87465
internal_weight=0 14223 38296 3987 18420 19876 10236 4561 13859 2670 1317 6412 11104 8772 3824 1229 4258 3423 835 628 207 2672 1586 880 7216 2902 477 363 6643 1093 659 2245 4553 948 153 4219 121 4962 106 6142 529 159 2754 4314 754 3560 5613 323 344 1579 1302 277 150 546 1108
internal_count=52519 14223 38296 3987 18420 19876 10236 4561 13859 2670 1317 6412 11104 8772 3824 1229 4258 3423 835 628 207 2672 1586 880 7216 2902 477 363 6643 1093 659 2245 4553 948 153 4219 121 4962 106 6142 529 159 2754 4314 754 3560 5613 323 344 1579 1302 277 150 546 1108
is_linear=0
shrinkage=0.0761155


Tree=18
num_leaves=56
num_cat=0
split_feature=4 4 4 4 4 4 4 4 4 4 4 4 4 8 3 4 4 5 18 14 18 16 18 1 0 3 2 3 3 18 3 16 21 3 18 3 18 14 2 4 0 18 12 3 0 0 0 3 3 18 21 8 3 16 3
split_gain=1.20869e+07 2.2943e+06 2.23939e+06 451763 370145 290932 247176 132039 82791.6 51008.6 50246.1 43779.1 40828.2 37025.6 38158.2 35858 30266.8 25530.8 31008.5 25831.6 18061.4 76450.2 16010.2 42087.8 33140.1 22177.6 20030.8 17170.8 15707.5 25013.7 15583.4 14078 14055.4 13989.2 33892.2 13960.3 27352.1 16029.8 13869.4 12563.7 12488.9 26136.5 22059.9 19624.3 16158.8 12364.8 12238 12057.7 11914.6 23437.3 29302.3 12228.9 11865.1 31478.7 11740.2
threshold=226.50000000000003 334.50000000000006 157.50000000000003 114.50000000000001 273.50000000000006 192.50000000000003 413.50000000000006 77.500000000000014 136.50000000000003 375.50000000000006 249.50000000000003 173.50000000000003 306.50000000000006 65.500000000000014 1490.082916243646 213.50000000000003 489.50000000000006 116.50000000000001 0.084358998231077162 151.21666666666667 0.020323992179499054 314.90000000000003 0.084358998231077162 0.018255089401027252 0.055429480925024359 1291.0626147842991 283.32036973385902 1384.8220132461377 1190.0055834150562 0.084358998231077162 1046.231868053728 160.08333333333334 4.5000000000000009 1181.4027149094638 0.084358998231077162 1212.1044319343493 0.084358998231077162 161.85000000000005 289.2997401827559 97.500000000000014 0.080333404649446813 0.084358998231077162 338.82142857142861 1469.0211316176953 0.056882863960019563 0.069985179895254504 0.058267878654561109 1278.5321653486433 1320.624691468719 0.084358998231077162 4.5000000000000009 312.50000000000006 1272.8081337012511 339.08333333333343 960.7620140922694
decision_type=2 2 2 2 2 2 2 2 2 2 2 2 2 2 2 2 2 2 2 2 2 2 2 2 2 2 2 2 2 2 2 2 2 2 2 2 2 2 2 2 2 2 2 2 2 2 2 2 2 2 2 2 2 2 2
left_child=2 4 3 7 10 11 9 13 22 52 48 54 40 -1 -15 33 47 18 39 30 -14 46 -5 24 -24 -26 -27 -25 29 -10 -20 -31 -30 34 -7 36 -13 -38 45 -9 41 -6 -42 44 -43 -32 -22 -8 49 -2 -51 -50 53 -3 -4
right_child=1 6 5 8 12 15 16 17 28 -11 -12 35 20 14 -16 -17 -18 -19 19 -21 21 -23 23 27 25 26 -28 -29 32 31 38 -33 -34 -35 -36 -37 37 -39 -40 -41 42 43 -44 -45 -46 -47 -48 -49 51 50 -52 -53 -54 -55 -56
leaf_value=-3.4283113582534765 0.7926092592453583 0.59362280271188816 -1.4789406004013681 -1.1894926683103804 1.8432112931749436 0.13570288124113006 3.416102036004725 -1.7798680619370877 -0.85136085291770869 3.7300632070121478 1.2950939421844845 -0.23117967546276602 2.4643746162207938 -2.4586210353982496 -0.6974869547004503 0.5547477791059191 6.4959891060168165 -2.0145939268848645 -2.2036285347297011 0.083009076330007397 1.0260223737021783 3.6867822154062302 0.33319044540266729 -0.38235731708078258 -1.6329047856027548 -0.5977559321710092 -1.6296165423972535 1.5066705459837408 -0.72445583421133009 -2.0870627468983489 -1.1241787988999166 -0.76283005972919804 0.4243258046658514 0.24566202094091519 -1.3292758944276897 -0.092608462116939419 -2.4063059310308574 -0.70024477496769444 -1.9169887004254846 -1.4866513322719261 3.5524764608143751 1.3124035216554699 1.6435321911245238 2.1251908631286112 -0.20819230920259868 -0.27491283564131952 -0.56055307693254741 4.7783906103015292 0.93588915095562275 -1.437247387221966 0.60337593296252068 2.0702284453005335 3.0881013735302965 2.8005627671250823 -0.44637392583627417
leaf_weight=232 1113 52 61 5955 1808 460 106 1580 1308 1098 2869 713 1242 594 87 2467 88 707 87 95 51 54 94 52 349 462 144 51 5721 168 532 76 59 4539 109 4390 51 91 107 2743 69 66 102 52 91 128 52 683 2081 61 102 56 1110 172 5119
leaf_count=232 1113 52 61 5955 1808 460 106 1580 1308 1098 2869 713 1242 594 87 2467 88 707 87 95 51 54 94 52 349 462 144 51 5721 168 532 76 59 4539 109 4390 51 91 107 2743 69 66 102 52 91 128 52 683 2081 61 102 56 1110 172 5119
internal_value=0 1.99554 -0.667571 -1.19507 1.41269 -0.0422766 3.72908 -1.70234 -0.952423 3.31863 1.0589 -0.303082 2.0299 -2.55964 -2.24076 0.316571 4.84207 -1.56938 -1.50779 -1.10033 2.36188 1.49873 -1.13812 -0.868341 -1.01249 -1.14634 -0.854667 0.575699 -0.771732 -0.989829 -1.23211 -1.69922 -0.712318 0.201047 -0.153291 -0.147764 -0.428398 -1.37539 -1.10812 -1.5958 1.81265 1.74883 2.49353 0.90714 0.449267 -0.963256 0.232681 4.61809 0.858665 0.668151 -0.177882 0.970461 2.96727 2.31353 -0.459992
internal_weight=0 13178 39331 21331 9869 18000 3309 6892 14439 2432 6282 10425 3587 913 681 7575 877 5979 5272 949 1399 157 7107 1152 1049 955 606 103 7332 1552 854 244 5780 5108 569 5245 855 142 767 4323 2188 2017 171 209 157 660 103 789 3413 1276 163 2137 1334 224 5180
internal_count=52509 13178 39331 21331 9869 18000 3309 6892 14439 2432 6282 10425 3587 913 681 7575 877 5979 5272 949 1399 157 7107 1152 1049 955 606 103 7332 1552 854 244 5780 5108 569 5245 855 142 767 4323 2188 2017 171 209 157 660 103 789 3413 1276 163 2137 1334 224 5180
is_linear=0
shrinkage=0.0761155


Tree=19
num_leaves=56
num_cat=0
split_feature=4 4 4 4 4 4 4 4 4 4 4 4 8 4 4 4 3 4 22 5 18 8 3 18 1 21 3 18 3 19 3 18 8 21 18 19 3 17 18 6 14 5 21 18 16 18 3 5 3 18 16 8 18 18 13
split_gain=1.03409e+07 1.95369e+06 1.90263e+06 389871 310787 247835 216620 139307 47630.5 44501.6 41875 36997.9 30368.3 29623 29250.2 29181.6 28277.9 25510.1 19426.5 19139.4 18049.5 16720.8 15780.9 34934 49193.7 14377.8 13312.1 27142.2 13179.8 19442 12511.3 22833.2 23399.6 13937.8 20935.4 12121.8 13671.1 11018.6 32222.2 28180.1 17907.8 10912 13965.2 36337.7 26912.2 22200.6 19375.6 15447.5 10887.3 24429 12000.7 10122.6 19265.1 16325.7 20154.8
threshold=226.50000000000003 334.50000000000006 157.50000000000003 121.50000000000001 277.50000000000006 194.50000000000003 404.50000000000006 77.500000000000014 249.50000000000003 176.50000000000003 139.50000000000003 489.50000000000006 65.500000000000014 104.50000000000001 361.50000000000006 308.50000000000006 1490.082916243646 213.50000000000003 2.5000000000000004 104.50000000000001 0.084358998231077162 173.50000000000003 1413.1653653837591 0.084358998231077162 0.012301384320768702 4.5000000000000009 1099.1729647822663 0.084358998231077162 1145.4789450325895 214.75084030173329 1178.2859104783656 0.084358998231077162 153.50000000000003 4.5000000000000009 0.017735778791546353 214.75084030173329 1325.7867626336001 226.48333333333338 0.084358998231077162 227.50000000000003 197.27333333333337 193.50000000000003 4.5000000000000009 0.084358998231077162 189.35000000000002 0.084358998231077162 1378.612640361089 208.50000000000003 1190.0055834150562 0.084358998231077162 160.08333333333334 325.50000000000006 0.017903360953356252 0.084358998231077162 33.764903099476349
decision_type=2 2 2 2 2 2 2 2 2 2 2 2 2 2 2 2 2 2 2 2 2 2 2 2 2 2 2 2 2 2 2 2 2 2 2 2 2 2 2 2 2 2 2 2 2 2 2 2 2 2 2 2 2 2 2
left_child=2 4 3 7 8 9 14 12 37 30 22 18 -1 19 -3 -6 -14 41 -8 20 -9 -22 -5 -24 -25 48 27 -11 29 -10 31 -4 -33 -32 -35 36 -16 38 -2 -40 -41 -7 43 -43 46 -44 -45 -47 49 -12 -51 53 -53 -30 -55
right_child=1 6 5 10 15 17 11 13 28 26 25 -13 16 -15 35 -17 -18 -19 -20 -21 21 -23 23 24 -26 -27 -28 -29 51 -31 33 32 -34 34 -36 -37 -38 -39 39 40 -42 42 45 44 -46 47 -48 -49 -50 50 -52 52 -54 54 -56
leaf_value=-3.1714885094861414 0.77423178145068805 2.6391530941348784 -0.47846797137299302 -1.0674281928356366 1.7157462671011601 0.62495658075187688 2.8097190949730089 -1.5596667562874129 -0.53828405514824362 -0.19961180656133162 -0.74461262059065603 6.0276885785318317 -2.278254918423912 -1.2460545210323299 1.2252548506218257 2.2035719803839431 -0.74791736981994528 0.51135150941083174 4.2530323799315708 -1.9914612515288506 -1.2203974566359184 0 -0.94653473615523309 -0.62687902529508155 1.3235313803057487 0.53009833208230372 -0.06383114929796127 -2.0785141660535804 1.2702894383518377 1.2955965988071501 -0.37450633993835297 -2.4565998993441736 -0.65547704821791797 -0.49747435390821793 1.0241104543877531 3.381973157113094 2.9684857331861347 0.9310048925789568 1.105530895514933 -1.8018585608656865 -0.038614331814340153 0.19248329744774445 0.27128778891603061 -1.6803071386324506 0.28117630092155083 1.944341155507318 -0.35711588516833015 0.28586870045945856 -0.64467070364370704 -1.9963416221697898 -0.68414163393475624 1.2162642721846766 2.8063580716525638 1.0430547835640747 -0.30331243823881221
leaf_weight=231 1387 1018 981 3759 2041 330 101 2535 60 201 1125 88 594 4445 52 1285 87 2464 964 526 510 74 1784 304 94 52 4632 53 2480 65 4790 70 108 100 100 998 90 1835 54 60 70 2840 788 128 135 82 132 56 4969 153 65 151 70 221 87
leaf_count=231 1387 1018 981 3759 2041 330 101 2535 60 201 1125 88 594 4445 52 1285 87 2464 964 526 510 74 1784 304 94 52 4632 53 2480 65 4790 70 108 100 100 998 90 1835 54 60 70 2840 788 128 135 82 132 56 4969 153 65 151 70 221 87
internal_value=0 1.84602 -0.617577 -1.10415 1.3079 -0.0411254 3.44506 -1.485 1.00182 -0.265386 -0.82502 4.30012 -2.37986 -1.38269 2.97931 1.9073 -2.09003 0.314577 4.13002 -1.54732 -1.46929 -1.06664 -0.971099 -0.802961 -0.154824 -0.687952 -0.0936772 -0.625042 1.21715 0.425527 -0.401584 -0.627609 -1.41269 -0.348449 0.267895 3.27013 2.39486 0.802103 0.648882 -0.289692 -0.891038 0.206097 0.172095 0.0970255 -0.582347 0.432071 -1.02896 1.30679 -0.698447 -0.894077 -1.63039 1.24917 1.77157 1.20459 0.662821
internal_weight=0 13177 39297 21307 9866 17990 3311 9002 6540 11035 12305 1153 912 8090 2158 3326 681 6955 1065 3645 3119 584 5941 2182 398 6364 4886 254 3134 125 6149 1159 178 4990 200 1140 142 3406 1571 184 130 4491 4161 3235 395 926 260 138 6312 1343 218 3009 221 2788 308
internal_count=52474 13177 39297 21307 9866 17990 3311 9002 6540 11035 12305 1153 912 8090 2158 3326 681 6955 1065 3645 3119 584 5941 2182 398 6364 4886 254 3134 125 6149 1159 178 4990 200 1140 142 3406 1571 184 130 4491 4161 3235 395 926 260 138 6312 1343 218 3009 221 2788 308
is_linear=0
shrinkage=0.0761155


Tree=20
num_leaves=56
num_cat=0
split_feature=4 4 4 4 4 4 4 4 4 4 4 15 3 5 3 18 4 4 18 0 1 3 4 0 7 2 20 4 3 18 1 0 3 1 2 3 3 2 3 18 14 2 21 3 2 4 3 11 3 18 9 21 18 6 5
