tree
version=v4
num_class=1
num_tree_per_iteration=1
label_index=0
max_feature_idx=22
objective=regression
feature_names=Product_Brand_freq City_freq Amount Total_Amount lag_1 lag_2 lag_3 lag_7 lag_14 lag_21 roll_mean_7 roll_std_7 roll_mean_14 roll_std_14 roll_mean_30 roll_std_30 cat_roll_30 country_roll_30 product_freq product_target_enc Product_Category_le Country_le products_grouped_le
feature_infos=[0.022509163479657399:0.099816332858926105] [0.0027907864293039999:0.0716977681659524] [10.27003335:496.6026162] [37.542306799999999:4414.0998228874996] [1:518] [1:518] [1:518] [1:518] [1:518] [1:518] [2.2857142857142856:518] [0:127.21635115031413] [3.5:494.71428571428572] [0:123.49213615573932] [4.6799999999999997:465.16666666666669] [0:112.48531960410118] [4.6799999999999997:465.16666666666669] [4.7333333333333334:465.16666666666669] [0.013592775346801899:0.14821711200074481] [166.37006772302621:226.62883360075944] [0:5] [0:5] [0:50]
tree_sizes=5495 5566 5565 5562 5578 5584 5570 5554 5582 5553 5551 5567 5589 5574 5553 5558 5578 5538 5531 5528 5536 5544 5568 5582 5573 5579 5597 5560 5573 5550 5551 5574 5542 5557 5600 5584 5581 5568 5562 5569 5581 5588 5619 5590 5574 5620 5607 5602 5542 5609 5599 5552 5555 5615 5657 5641 5623 5638 5604 5608 5585 5573 5578 5556 5578 5567 5598 5593 5548 5557 5597 5600 5622 5614 5576 5601 5598 5587 5635 5601 5629 5589 5599 5587 5610 5628 5608 5557 5537 5610 5634 5597 5618 5595 5589 5566 5616 5612 5545 5552 5590 5551 5584 5626 5585 5585 5535 5587 5612 5597 5645 5569 5603 5651 5543 5570 5596 5587 5639

Tree=0
num_leaves=64
num_cat=0
split_feature=4 4 4 4 4 4 4 4 4 4 4 4 4 4 4 4 18 8 18 22 4 4 4 4 4 4 4 1 4 4 4 20 4 4 4 14 18 3 3 18 4 4 14 18 21 18 6 16 18 3 18 14 18 18 3 1 18 3 14 18 20 14 18
split_gain=1.82833e+08 3.49569e+07 3.2983e+07 5.73415e+06 4.98877e+06 4.86385e+06 3.72598e+06 1.87002e+06 890500 854844 713860 663361 574959 551269 550520 421154 263903 188005 166408 146864 137730 137699 136093 101087 92230.7 91299.9 90282.2 89974 82989.8 80839.1 76728.4 76116.3 74521.6 72670.2 72076.5 55686.9 134026 54277.5 52322.7 55632.4 48651.4 47284.7 39973.9 71964.9 40941.8 36727.8 36722.4 34482.3 102215 54610.8 52292.3 33623.9 97503.9 41246.5 33047.9 31604.5 31055.5 29863.2 27585.8 47810.1 27396.9 27103.5 44018.1
threshold=226.50000000000003 327.50000000000006 155.50000000000003 116.50000000000001 188.50000000000003 277.50000000000006 394.50000000000006 55.500000000000007 134.50000000000003 251.50000000000003 443.50000000000006 210.50000000000003 359.50000000000006 95.500000000000014 169.50000000000003 301.50000000000006 0.084358998231077162 74.500000000000014 0.084358998231077162 2.5000000000000004 239.50000000000003 146.50000000000003 198.50000000000003 340.50000000000006 180.50000000000003 80.500000000000014 413.50000000000006 0.012189512059315103 489.50000000000006 380.00000000000006 262.50000000000006 1.0000000180025095e-35 107.50000000000001 287.50000000000006 125.50000000000001 207.48333333333338 0.084358998231077162 1257.7504633891222 1081.0432005362302 0.084358998231077162 163.50000000000003 308.50000000000006 152.45000000000002 0.084358998231077162 2.5000000000000004 0.084358998231077162 210.50000000000003 205.75000000000003 0.084358998231077162 1280.9978497218747 0.084358998231077162 207.48333333333338 0.084358998231077162 0.084358998231077162 1185.2867388649927 0.0088113552644326024 0.084358998231077162 1296.9013611597372 160.25000000000003 0.084358998231077162 1.0000000180025095e-35 153.58333333333334 0.084358998231077162
decision_type=2 2 2 2 2 2 2 2 2 2 2 2 2 2 2 2 2 2 2 2 2 2 2 2 2 2 2 2 2 2 2 2 2 2 2 2 2 2 2 2 2 2 2 2 2 2 2 2 2 2 2 2 2 2 2 2 2 2 2 2 2 2 2
left_child=2 5 3 7 14 9 12 17 34 20 26 22 23 16 40 33 25 -1 32 -12 -2 42 47 -3 -16 -9 56 -20 -21 -14 -11 -18 -15 -7 45 36 -13 -33 39 -24 58 -17 -10 -44 -45 -5 -38 48 -6 -50 -49 52 -40 -53 -29 -39 -8 -47 59 -4 -59 62 -23
right_child=1 6 4 8 11 15 10 13 21 30 19 35 29 18 24 41 31 -19 27 28 -22 61 38 -25 -26 -27 -28 54 -30 -31 -32 37 -34 -35 -36 -37 46 55 51 -41 -42 -43 43 44 -46 57 -48 50 49 -51 -52 53 -54 -55 -56 -57 -58 60 -60 -61 -62 -63 -64
leaf_value=180.24350182337753 191.49827931603284 196.4676773556416 187.84078441098976 186.04864934235374 189.56458284790273 193.93169577813279 200.13523823488779 183.79475682500097 186.88682699284132 192.69671582707892 199.96347457428234 190.72843894306399 198.30142529694095 185.15417374558774 188.60923212049369 194.9915756853392 184.62821121289824 183.23918865359425 185.94248718246848 202.9763567658425 192.13974840303092 187.43539405163145 189.76138657301016 197.45583816178288 189.04455944437453 184.54180866868248 201.03283132919657 186.03179373187473 204.86185082674226 199.23399620734594 193.2442172176944 185.10888647842216 185.6143679485682 194.62120847563523 186.51246168979469 191.00228280949179 190.54633161087293 186.229688333583 190.10295618984856 187.24061730480531 188.21682915501191 195.7024422704369 187.07224445233587 187.37051426108718 188.80532323395215 186.02010443806765 188.69282971104425 189.68657393820067 187.28005392719223 188.94308646112825 191.19292499415502 190.2149968884803 188.96302299429917 191.24999231107702 187.83859712485088 187.85033957144503 198.65856600419184 186.05204580019799 188.05262085832572 187.00918167587744 187.21083007042748 187.62584300768137 186.71828530947187
leaf_weight=208 1899 449 1197 1992 1450 751 409 616 2414 1197 35 1166 495 1822 3097 313 133 70 615 291 1496 1388 65 611 2004 1217 411 34 73 438 1375 104 1701 778 2749 1393 35 183 1629 33 1671 926 1094 97 102 156 113 507 71 162 65 685 212 112 99 36 39 70 1133 202 188 1374 253
leaf_count=208 1899 449 1197 1992 1450 751 409 616 2414 1197 35 1166 495 1822 3097 313 133 70 615 291 1496 1388 65 611 2004 1217 411 34 73 438 1375 104 1701 778 2749 1393 35 183 1629 33 1671 926 1094 97 102 156 113 507 71 162 65 685 212 112 99 36 39 70 1133 202 188 1374 253
internal_value=189.409 194.753 187.616 186.168 189.21 193.105 199.179 185.014 186.832 192.302 201.309 190.152 197.834 185.185 188.431 194.838 184.559 180.998 185.52 203.057 191.781 187.211 189.81 197.037 188.78 184.291 200.498 186.198 203.354 198.739 192.989 185.635 185.376 194.283 186.338 190.782 190.549 186.049 190.047 188.913 188.007 195.523 187.007 187.231 188.106 186.138 189.131 189.522 189.408 188.436 189.858 190.089 189.972 190.36 187.377 186.496 200.007 186.566 187.869 187.721 186.896 187.462 187.325
internal_weight=47703 11986 35717 18715 17002 8735 3251 6838 11877 5967 1258 7698 1993 6560 9304 2768 2289 278 4271 399 3395 6722 4991 1060 5101 1833 859 748 364 933 2572 456 3523 1529 5155 2707 1314 323 2736 98 4203 1239 3707 1293 199 2406 148 2255 1683 233 572 2638 1841 797 133 219 448 414 2532 1399 258 3015 1641
internal_count=47703 11986 35717 18715 17002 8735 3251 6838 11877 5967 1258 7698 1993 6560 9304 2768 2289 278 4271 399 3395 6722 4991 1060 5101 1833 859 748 364 933 2572 456 3523 1529 5155 2707 1314 323 2736 98 4203 1239 3707 1293 199 2406 148 2255 1683 233 572 2638 1841 797 133 219 448 414 2532 1399 258 3015 1641
is_linear=0
shrinkage=1


Tree=1
num_leaves=64
num_cat=0
split_feature=4 4 4 4 4 4 4 4 4 4 4 4 4 4 4 4 18 8 4 18 22 4 4 4 4 4 4 1 4 4 4 4 4 3 4 21 18 0 14 18 3 1 3 4 18 3 18 14 16 18 1 18 19 17 18 3 1 3 18 3 18 14 21
split_gain=1.65023e+08 3.35332e+07 2.78114e+07 5.17507e+06 4.16535e+06 4.03292e+06 3.87954e+06 1.6877e+06 1.00141e+06 803979 685700 566147 497521 496844 419055 390845 238173 169675 161869 150183 143838 119112 106355 90758.1 89031.8 83540.8 83238.2 81201.5 78402.3 73309.9 71257.1 67724.1 64021.6 62305.4 55812.4 49718.6 138749 55351.3 45536.4 73988 43968.6 40004.2 38459.6 36907.5 36585.4 44649.5 35104.8 41144.4 33909.2 90768.5 33729.3 67656.4 41219.3 32961 51127 32140.5 31206.6 29825.8 28107.9 26356.1 25905.9 90654.9 34172.9
threshold=223.50000000000003 319.50000000000006 155.50000000000003 116.50000000000001 265.50000000000006 380.00000000000006 188.50000000000003 55.500000000000007 439.50000000000006 137.50000000000003 289.50000000000006 244.50000000000003 95.500000000000014 169.50000000000003 203.50000000000003 342.50000000000006 0.084358998231077162 74.500000000000014 404.50000000000006 0.084358998231077162 2.5000000000000004 128.50000000000003 212.50000000000003 308.50000000000006 489.50000000000006 83.500000000000014 180.50000000000003 0.012189512059315103 147.50000000000003 277.50000000000006 230.50000000000003 106.50000000000001 255.50000000000003 1264.2519949409123 359.50000000000006 2.5000000000000004 0.084358998231077162 0.058267878654561109 158.48333333333338 0.084358998231077162 1081.0432005362302 0.0088113552644326024 1268.6848082853207 419.50000000000006 0.084358998231077162 1296.9013611597372 0.084358998231077162 269.2166666666667 205.75000000000003 0.084358998231077162 0.029346624708719054 0.084358998231077162 171.41642758673586 152.88333333333335 0.084358998231077162 1178.2859104783656 0.018076033002466702 1185.2867388649927 0.084358998231077162 1224.4667481825284 0.084358998231077162 168.55000000000004 4.5000000000000009
decision_type=2 2 2 2 2 2 2 2 2 2 2 2 2 2 2 2 2 2 2 2 2 2 2 2 2 2 2 2 2 2 2 2 2 2 2 2 2 2 2 2 2 2 2 2 2 2 2 2 2 2 2 2 2 2 2 2 2 2 2 2 2 2 2
left_child=2 4 3 7 11 15 13 17 18 21 29 30 16 38 35 50 25 -1 -7 31 -10 44 40 -12 -22 -9 -15 -21 53 -6 -2 -14 -13 -18 -17 36 -8 -38 39 -4 -16 -35 -39 -20 -5 -46 -31 -48 49 -24 51 -3 -52 -11 -55 -41 -47 -29 -40 -56 -28 -62 -63
right_child=1 5 6 9 10 8 14 12 20 28 23 32 19 26 22 34 33 -19 43 27 24 -23 48 -25 -26 -27 60 57 -30 46 -32 -33 -34 41 -36 -37 37 42 58 55 -42 -43 -44 -45 45 56 47 -49 -50 -51 52 -53 -54 54 59 -57 -58 -59 -60 -61 61 62 -64
leaf_value=-8.7092903724083524 1.7060872551972608 6.565806053691742 -1.3762113522564701 -3.1248327758788119 3.7092727762512392 9.5031750380710402 0.18132715621879186 -5.267289804907703 9.953892903327942 -2.3186626500740206 5.0907679377273931 2.7775417133273042 -4.0698551103605594 -0.76184681087664963 -0.92790905817961089 7.7073966278220132 -4.3710403921414009 -5.8633877396583562 10.330834735337126 -3.2952545043414205 12.752132086371809 -2.607078678730435 1.2249929679793303 5.854113286296589 14.678140527908116 -4.5815937037808876 -0.27433999015959448 -3.2104131726657643 -1.8260651019369831 4.4440203566773064 2.1930081455225081 -3.6301068189713477 3.2920090227702197 -3.4036509479950312 8.4457369715276389 0.3748446997382176 -0.40672363499179487 -3.4860846331625277 -1.2501214194989805 -3.3780272691249849 0.76705909782707105 -1.7977112303609435 -1.3901797601838526 11.125121649271225 -3.2413485711406582 -2.4766874342475216 2.5545443000034851 4.8094510283321146 1.478501727967678 -0.39293202646836944 8.8352285130818693 4.7076930425785211 6.8496389736682914 -2.1242742428453916 -2.2827855564299084 -1.9925025501719711 -0.78948360403378803 -1.493950072322229 -0.74934404761139373 -0.84473637524766465 -1.8227197256244598 -0.37120606359774183 1.4671269016881143
leaf_weight=208 1269 528 1739 2778 1038 633 1198 756 40 1987 992 1327 1626 3097 39 530 163 70 372 615 337 2776 751 641 73 1077 1714 34 2647 763 1842 1897 1111 247 495 1876 96 33 1826 50 2020 46 65 241 220 317 55 32 902 98 30 54 203 948 42 257 30 99 331 132 122 137 31
leaf_count=208 1269 528 1739 2778 1038 633 1198 756 40 1987 992 1327 1626 3097 39 530 163 70 372 615 337 2776 751 641 73 1077 1714 34 2647 763 1842 1897 1111 247 495 1876 96 33 1826 50 2020 46 65 241 220 317 55 32 902 98 30 54 203 948 42 257 30 99 331 132 122 137 31
internal_value=-0.00182653 4.90517 -1.7643 -3.08115 3.29501 9.03533 -0.259921 -4.17693 10.7941 -2.45027 4.64014 2.44148 -4.01522 -0.931037 0.622257 7.41416 -4.61001 -7.9927 10.064 -3.69645 12.8158 -2.8492 0.978567 5.3904 13.0951 -4.8644 -0.599374 -3.05299 -2.02605 3.99122 1.99439 -3.83307 3.01199 -3.58745 8.06396 0.206851 -0.0195532 -1.26004 -1.33356 -1.50254 0.734954 -3.15152 -2.09594 10.6431 -3.05013 -2.68411 4.33552 3.38394 1.26503 1.03824 6.59693 6.3934 7.10529 -2.19633 -1.97967 -2.21816 -2.33082 -1.93275 -1.17328 -1.19185 -0.348286 -0.785331 -0.0319899
internal_weight=47703 12606 35097 18715 9070 3536 16382 6838 1696 11877 3521 5549 6560 9304 7078 1840 2289 278 1246 4271 450 6121 3810 1633 410 1833 5101 748 5756 1888 3111 3523 2438 456 1025 3268 1392 194 4203 2046 2059 293 98 613 3345 567 850 87 1751 849 815 582 233 3109 1122 307 347 133 2157 174 2004 290 168
internal_count=47703 12606 35097 18715 9070 3536 16382 6838 1696 11877 3521 5549 6560 9304 7078 1840 2289 278 1246 4271 450 6121 3810 1633 410 1833 5101 748 5756 1888 3111 3523 2438 456 1025 3268 1392 194 4203 2046 2059 293 98 613 3345 567 850 87 1751 849 815 582 233 3109 1122 307 347 133 2157 174 2004 290 168
is_linear=0
shrinkage=0.05


Tree=2
num_leaves=64
num_cat=0
split_feature=5 5 5 5 5 5 5 5 10 10 5 5 10 5 5 10 8 22 3 10 21 22 22 3 21 21 10 1 11 5 14 10 18 3 11 1 3 18 14 0 18 18 10 3 20 5 3 18 5 3 3 5 7 14 18 18 3 0 18 21 18 7 18
split_gain=1.42496e+08 2.61303e+07 2.50065e+07 4.47503e+06 3.41965e+06 3.41432e+06 2.73927e+06 1.70172e+06 767987 646383 579369 494673 491601 446794 394305 306639 224725 187094 182546 171765 159390 138211 132992 123741 120284 118991 117448 106645 106024 105297 103616 102874 99347.1 98252.9 118137 97926.9 89513.8 87437.9 165654 86745.9 152386 86607.7 86388 84546.1 90067.2 82051.5 78600.4 78270.3 77685.1 71781.6 71634.1 69646.4 68915.4 59621.5 91094.2 58808.9 57967.2 57130.8 56430.6 55086.6 109892 67038.3 52782.2
threshold=230.50000000000003 327.50000000000006 161.50000000000003 120.50000000000001 194.50000000000003 280.50000000000006 394.50000000000006 55.500000000000007 144.50000000000003 211.07142857142861 257.50000000000006 443.50000000000006 180.35714285714289 357.50000000000006 95.500000000000014 300.07142857142867 74.500000000000014 1.5000000000000002 1139.2054414802994 244.21428571428575 2.5000000000000004 1.5000000000000002 2.5000000000000004 1212.1044319343493 4.5000000000000009 4.5000000000000009 131.07142857142858 0.029818206303519803 26.349301969611012 134.50000000000003 140.55000000000004 270.07142857142867 0.084358998231077162 1219.4714131859641 28.864214126541583 0.028246210775740653 1000.0777265579596 0.084358998231077162 206.21666666666667 0.080333404649446813 0.084358998231077162 0.084358998231077162 111.07142857142858 1187.6392508924366 1.0000000180025095e-35 213.50000000000003 1145.4789450325895 0.084358998231077162 144.50000000000003 1274.1953420357768 1320.624691468719 419.50000000000006 131.50000000000003 159.01666666666668 0.084358998231077162 0.084358998231077162 975.2417105657355 0.055187879332068555 0.084358998231077162 4.5000000000000009 0.084358998231077162 244.50000000000003 0.084358998231077162
decision_type=2 2 2 2 2 2 2 2 2 2 2 2 2 2 2 2 2 2 2 2 2 2 2 2 2 2 2 2 2 2 2 2 2 2 2 2 2 2 2 2 2 2 2 2 2 2 2 2 2 2 2 2 2 2 2 2 2 2 2 2 2 2 2
left_child=2 5 3 7 12 10 13 16 26 18 19 41 23 27 17 33 -1 -9 36 59 29 30 -13 28 62 -14 48 55 -4 -10 -16 46 -22 34 -7 50 -6 45 -39 -17 -41 51 -23 -19 -45 -20 -12 -27 -5 -24 -15 -8 -28 54 -25 -3 -31 -52 -38 60 61 -2 -11
right_child=1 6 4 8 9 15 11 14 20 24 31 22 25 35 21 39 -18 43 37 -21 32 42 49 53 -26 47 52 -29 -30 56 -32 -33 -34 -35 -36 -37 58 38 -40 40 -42 -43 -44 44 -46 -47 -48 -49 -50 -51 57 -53 -54 -55 -56 -57 -58 -59 -60 -61 -62 -63 -64
leaf_value=-8.2738258948692902 2.0241664169269851 6.4223003825274381 -1.2099587004203254 -2.7611370307549912 -2.8217598149942802 4.0827813387426559 9.6500527323209333 -3.0846641087218334 -2.531699977110117 1.1613268611107643 1.4424195339714272 8.9245540618896495 -0.32476424371952889 5.2189392444065641 -2.9948944626498477 5.2404232673617139 -4.9627875916221562 -4.6543599504363407 0.47539934810255136 2.7216130667597853 -1.4330849124404275 -3.625857679380311 10.267960692615045 -0.90501615970543003 1.6865771275392836 0.24214434861156087 -1.8818405439327972 7.2841953851343177 -2.4882241268035692 -3.2879711230595912 -1.8158138058310938 3.8394653176789597 -0.40259544547821441 4.5475109265822127 1.0919931498720594 8.5074306577407324 -0.04189744726304085 -0.66224493734516843 1.7919169730918352 5.8532815730615413 9.6075217946370444 8.196394317214553 -3.1721881892098684 -4.3248582723781253 -3.4021825161555812 1.142850369155944 3.1693370800485732 1.9521474463053239 -2.0638282735886113 12.488500238347937 8.1961492054279041 10.647232912525986 -2.380115295622415 -0.67166162960604159 -1.8590208838607685 4.5791764214634894 -1.7208781801239335 5.9453534649478073 -1.6772801368608516 2.2404061987233717 0.31254357555188422 0.13970503807067872 0.25386950966456662
leaf_weight=208 841 440 965 2832 43 117 520 437 484 1241 69 33 2609 35 715 855 68 728 2703 1310 1474 1710 41 1749 1491 471 941 492 195 60 252 657 278 1193 46 811 248 343 86 273 30 74 2716 670 437 555 1462 78 465 324 130 264 2643 2338 292 48 3580 36 67 1075 121 50 184
leaf_count=208 841 440 965 2832 43 117 520 437 484 1241 69 33 2609 35 715 855 68 728 2703 1310 1474 1710 41 1749 1491 471 941 492 195 60 252 657 278 1193 46 811 248 343 86 273 30 74 2716 670 437 555 1462 78 465 324 130 264 2643 2338 292 48 3580 36 67 1075 121 50 184
internal_value=-0.0017352 4.88981 -1.52843 -2.66897 -0.0207636 3.37033 8.67868 -3.60081 -2.08892 0.805163 2.68156 10.5073 -0.681828 7.52568 -3.46192 4.90049 -7.45806 -4.01443 0.396078 2.27285 -1.6691 -3.22915 11.9642 -0.965674 1.37264 -0.183975 -2.44742 6.76473 -1.42484 -1.83884 -2.68763 3.3161 -1.26957 4.39019 3.23876 8.26257 -0.681855 0.500743 -0.170268 5.49804 6.22499 9.8315 -3.34746 -4.23585 -3.96062 0.5891 3.09151 0.485096 -2.66279 12.2391 7.2746 9.98584 -2.24929 -0.84404 -1.0415 6.24101 -1.74671 7.70802 -0.389741 1.99117 1.72641 1.91842 1.04415
internal_weight=47703 11347 36356 20698 15658 8099 3248 7941 12757 6961 5585 1256 8697 1992 7665 2514 276 2272 4045 3397 5876 5393 398 5539 2916 3158 6881 980 1160 4124 967 2188 1752 1356 163 1012 358 3687 429 1158 303 858 4426 1835 1107 3258 1531 549 3297 365 201 784 3584 4379 2041 488 3640 166 315 2087 1012 891 1425
internal_count=47703 11347 36356 20698 15658 8099 3248 7941 12757 6961 5585 1256 8697 1992 7665 2514 276 2272 4045 3397 5876 5393 398 5539 2916 3158 6881 980 1160 4124 967 2188 1752 1356 163 1012 358 3687 429 1158 303 858 4426 1835 1107 3258 1531 549 3297 365 201 784 3584 4379 2041 488 3640 166 315 2087 1012 891 1425
is_linear=0
shrinkage=0.05


Tree=3
num_leaves=64
num_cat=0
split_feature=5 5 5 5 5 5 5 5 10 5 10 5 10 5 5 10 20 8 3 21 18 21 3 10 10 20 21 1 21 18 1 19 19 21 18 5 3 3 11 3 14 3 5 3 10 5 18 3 5 3 3 3 14 5 7 11 5 18 0 18 5 19 0
split_gain=1.28979e+08 2.34663e+07 2.27075e+07 4.41216e+06 3.00186e+06 2.69924e+06 2.41329e+06 1.63897e+06 777234 563704 546836 421534 405568 405071 362529 241925 188585 187927 168205 161874 156752 184666 154317 141606 117528 117100 113544 111400 110113 98914.1 96737.5 96160.9 95201.2 95175 119919 93761.9 93560.3 82336.1 129339 81272.7 87270.6 76602 73696.9 72956.3 70854.6 70084.9 64110.5 63346.7 63079.3 62122.4 61770 61657.2 59405.4 59205.8 57115.8 56579.1 56480.8 56040 55548.8 69314.9 53301.3 53232.6 52221.8
threshold=230.50000000000003 327.50000000000006 163.50000000000003 120.50000000000001 282.50000000000006 194.50000000000003 394.50000000000006 55.500000000000007 145.07142857142858 251.50000000000003 211.07142857142861 443.50000000000006 180.35714285714289 351.50000000000006 95.500000000000014 308.21428571428584 1.0000000180025095e-35 74.500000000000014 1274.1953420357768 2.5000000000000004 0.084358998231077162 4.5000000000000009 1219.4714131859641 270.07142857142867 131.07142857142858 1.0000000180025095e-35 4.5000000000000009 0.012301384320768702 4.5000000000000009 0.084358998231077162 0.028246210775740653 214.75084030173329 193.39850786740368 4.5000000000000009 0.084358998231077162 134.50000000000003 1313.1124814451757 1219.4714131859641 25.253948018871334 1212.1044319343493 157.45000000000002 1032.3273746042412 219.50000000000003 1155.389255112276 340.07142857142867 144.50000000000003 0.084358998231077162 1251.6395194133236 467.00000000000006 1123.6523000974664 960.7620140922694 1194.9371011156379 214.98333333333338 106.50000000000001 131.50000000000003 32.882909151803247 423.50000000000006 0.084358998231077162 0.080333404649446813 0.084358998231077162 375.50000000000006 169.58703835623422 0.052769359895976559
decision_type=2 2 2 2 2 2 2 2 2 2 2 2 2 2 2 2 2 2 2 2 2 2 2 2 2 2 2 2 2 2 2 2 2 2 2 2 2 2 2 2 2 2 2 2 2 2 2 2 2 2 2 2 2 2 2 2 2 2 2 2 2 2 2
left_child=2 4 3 7 9 12 13 17 24 33 20 31 39 44 16 37 -9 -1 -13 35 41 47 -18 43 45 53 -14 62 49 -21 32 -8 -15 34 -2 -10 -29 38 -6 40 57 -7 -43 55 -3 -5 -28 -22 -20 -12 -37 -26 -36 -16 -53 -11 -33 -4 59 -39 -32 -24 -27
right_child=1 6 5 8 15 10 11 14 19 23 28 18 26 30 25 -17 22 -19 48 29 21 -23 61 -25 51 27 46 36 -30 -31 60 56 -34 -35 52 50 -38 58 -40 -41 -42 42 -44 -45 -46 -47 -48 -49 -50 -51 -52 54 -54 -55 -56 -57 -58 -59 -60 -61 -62 -63 -64
leaf_value=-7.8675857718132409 1.9090119900755724 5.9066755651032672 -1.5703279874467551 -2.6158929537470694 4.1733607337964296 -1.4247892627529071 7.7501136582473222 -4.2309217374990284 -2.3828871763349877 2.3409104973287653 -0.65229176931213917 8.834211354336496 -0.27836119964178296 4.5147736953364479 -3.6031375752772941 5.4026597672199941 -4.1045049887910983 -4.8239482328747263 11.085506032165869 -1.3113839927717896 -1.7011783820943851 2.1101983795090327 -2.2785862427365546 3.6204253390359771 -2.4926314026653005 -2.2268928202368867 0.29474028595783169 -2.7842272809850495 1.5817537671109232 -0.33594615499098457 7.6087819761288928 9.2447074530196147 7.2857791796928026 2.3211195749296012 -0.45674080704820574 -3.4073720177014675 -1.3473456239700319 4.5241135751155381 1.3599178325384855 -0.7667919976778701 -0.94710459124618152 0.45493234631304413 1.2603374301623076 2.9177671632090347 6.8345043640970538 -1.9715787248385528 1.8435345733777071 -0.40403826444682372 12.45630345163466 1.0325006513973791 -1.6020065288415113 -1.6407795783393657 1.7976682328365066 -3.1256495399076294 -2.1375972432650268 -0.19137383159250021 10.207977564518268 -3.1000031659007075 5.7967021992332057 3.2511080266813104 8.3729079704780087 -3.2149474698861442 -3.0670880825994984
leaf_weight=219 1003 470 238 2831 151 51 87 1279 459 71 57 59 2569 36 1018 821 387 66 179 1608 132 63 255 832 838 205 466 246 1474 310 451 567 223 1611 87 48 210 1140 56 4042 661 3168 312 2059 366 496 78 328 158 1364 3663 784 44 1792 2207 32 208 80 76 118 462 375 1890
leaf_count=219 1003 470 238 2831 151 51 87 1279 459 71 57 59 2569 36 1018 821 387 66 179 1608 132 63 255 832 838 205 466 246 1474 310 451 567 223 1611 87 48 210 1140 56 4042 661 3168 312 2059 366 496 78 328 158 1364 3663 784 44 1792 2207 32 208 80 76 118 462 375 1890
internal_value=0.00421743 4.65158 -1.4523 -2.50792 3.20911 0.0304443 8.2295 -3.43971 -1.94916 2.59163 0.754109 9.94665 -0.587794 7.15372 -3.30113 4.70939 -3.82685 -7.16274 11.297 -1.53389 0.379292 -0.428561 -3.31867 3.06612 -2.30246 -3.07598 -0.139404 -2.83072 1.27898 -1.15373 7.7535 9.3263 6.90062 2.07411 1.72319 -1.70874 -2.12251 4.34004 3.41224 -0.865793 -1.27454 0.498948 0.527141 2.8528 6.31288 -2.51984 0.51681 -0.776261 11.7282 0.964919 -1.62536 -2.11357 0.300465 -3.29863 -2.00737 1.55418 9.50324 -1.95515 4.48401 4.40471 7.99545 -2.83594 -2.98487
internal_weight=47636 11367 36269 21186 8101 15083 3266 7942 13244 5739 6949 1258 8134 2008 7657 2362 2296 285 396 6088 4054 523 1017 2994 7156 5361 3113 2551 2895 1918 1172 862 259 2745 1134 4170 456 1541 207 5021 979 3531 3480 2162 836 3327 544 460 337 1421 3711 3829 131 2810 2991 103 775 318 1334 1258 913 630 2095
internal_count=47636 11367 36269 21186 8101 15083 3266 7942 13244 5739 6949 1258 8134 2008 7657 2362 2296 285 396 6088 4054 523 1017 2994 7156 5361 3113 2551 2895 1918 1172 862 259 2745 1134 4170 456 1541 207 5021 979 3531 3480 2162 836 3327 544 460 337 1421 3711 3829 131 2810 2991 103 775 318 1334 1258 913 630 2095
is_linear=0
shrinkage=0.05


Tree=4
num_leaves=64
num_cat=0
split_feature=4 4 4 4 4 4 4 4 4 4 4 4 4 4 4 4 18 19 18 8 4 4 4 4 4 4 4 1 4 20 4 4 4 4 3 4 4 18 14 18 16 3 4 4 1 3 18 16 4 18 0 18 18 1 14 18 3 1 6 14 18 18 18
split_gain=1.2254e+08 2.32072e+07 2.25645e+07 4.06616e+06 3.26363e+06 2.83722e+06 2.82843e+06 1.30991e+06 634967 611201 501996 445633 390222 385332 328213 282641 187694 144025 110356 103569 93807.2 87819 87532.1 87274.2 74920.3 71252.7 70110.7 68124.8 66169.4 65291.9 59864.5 52941 45606.8 45415.1 43581 41278.8 38422.5 34332.9 80079.7 33557.6 150615 40702.5 32952.1 32785.2 30050.1 28099.1 25707.6 73075.1 25118.3 23294 23198.5 48376.8 23048.2 25657.7 22675 34993.1 57820.4 52463.9 22383.4 21199.7 44123.7 42956 20847.2
threshold=226.50000000000003 322.50000000000006 155.50000000000003 116.50000000000001 188.50000000000003 273.50000000000006 386.50000000000006 55.500000000000007 432.50000000000006 134.50000000000003 246.50000000000003 210.50000000000003 169.50000000000003 95.500000000000014 351.50000000000006 291.50000000000006 0.084358998231077162 217.15285490060185 0.084358998231077162 74.500000000000014 146.50000000000003 196.50000000000003 489.50000000000006 259.50000000000006 308.50000000000006 83.500000000000014 404.50000000000006 0.012453532763759203 179.50000000000003 1.0000000180025095e-35 104.50000000000001 125.50000000000001 340.50000000000006 236.50000000000003 1285.2737959480289 375.50000000000006 219.50000000000003 0.084358998231077162 303.91666666666669 0.084358998231077162 208.28333333333339 1109.3377039530885 163.50000000000003 451.00000000000006 0.0088113552644326024 1185.2867388649927 0.084358998231077162 214.55000000000001 201.50000000000003 0.084358998231077162 0.082196010178302373 0.084358998231077162 0.084358998231077162 0.016185804844607354 134.01666666666668 0.084358998231077162 1224.4667481825284 0.018076033002466702 196.50000000000003 153.58333333333334 0.084358998231077162 0.084358998231077162 0.084358998231077162
decision_type=2 2 2 2 2 2 2 2 2 2 2 2 2 2 2 2 2 2 2 2 2 2 2 2 2 2 2 2 2 2 2 2 2 2 2 2 2 2 2 2 2 2 2 2 2 2 2 2 2 2 2 2 2 2 2 2 2 2 2 2 2 2 2
left_child=2 5 3 7 12 10 14 19 26 31 33 21 42 16 32 50 25 -10 30 -1 54 62 43 46 37 -9 -8 -20 -14 -18 -15 52 -3 -2 -31 -16 -13 -17 -39 48 41 -41 -4 -19 -36 -29 -12 -48 -23 -28 51 -7 -5 -54 -11 -56 -57 -58 -43 60 -22 -61 -6
right_child=1 6 4 9 11 15 8 13 17 20 23 36 28 18 35 24 29 22 27 -21 59 39 -24 -25 -26 -27 49 45 -30 34 -32 -33 -34 -35 44 -37 -38 38 -40 40 -42 58 -44 -45 -46 -47 47 -49 -50 -51 -52 -53 53 -55 55 56 57 -59 -60 61 -62 -63 -64
leaf_value=-7.4742065603874597 1.6483482788932873 5.694429387558178 -1.254242532619932 -2.7611934154332745 0.12030918557571042 3.763119908737556 8.2663925090757751 -4.6078259918755524 8.6487703256309043 -2.1165313692674315 2.5893572770801416 0.9563925642303428 -0.65086363740932507 -3.601915657192563 7.0340272420202199 4.5088641282690931 -4.0779155862709837 10.248648967036495 -2.8750630178901018 -5.2276933125595555 -1.5913932733653164 0.35293127386569978 12.743066407521567 3.0528454328411048 5.0807751736969786 -3.97699268916082 9.19792789674141 -2.7739988792586971 -0.28838339358421167 -3.466741181910038 -3.172439858326253 -2.3685500637018504 6.3849209988370852 2.0591436626738964 -2.5509461318752891 7.7782892398761989 1.3348269038097267 2.6583974281577647 5.7208642705281578 -2.1611557674407957 1.4580539239253161 0.49276214662145396 -0.96710575847022506 11.224106080992883 -0.88378688939847061 -1.1423895102480184 0.35038702008770967 2.5765288076006385 0.66648152055539089 8.0333615647985592 5.0018294132117074 2.6880171328397662 -2.47119438743557 -1.0861020458711159 -1.9488626614244098 -2.4584399401539505 -1.5045849675766236 -0.0075845124820868182 -0.60398471658023034 -1.5581339115013628 -2.2980074257451775 -0.78181831338818042 -0.37908049821235335
leaf_weight=219 1453 657 2510 1969 1573 1068 476 761 64 1421 1355 1478 2792 1264 633 781 126 135 610 67 1381 1000 75 1469 725 1087 497 37 2293 128 2266 2733 376 1253 174 264 1228 74 30 35 135 61 1660 238 32 92 51 133 1768 47 33 116 347 37 1916 99 193 84 196 1146 263 211 241
leaf_count=219 1453 657 2510 1969 1573 1068 476 761 64 1421 1355 1478 2792 1264 633 781 126 135 610 67 1381 1000 75 1469 725 1087 497 37 2293 128 2266 2733 376 1253 174 264 1228 74 30 35 135 61 1660 238 32 92 51 133 1768 47 33 116 347 37 1916 99 193 84 196 1146 263 211 241
internal_value=0.00400655 4.37341 -1.46783 -2.66762 -0.148336 2.97367 7.82665 -3.63536 9.43074 -2.10478 2.33268 0.611115 -0.781417 -3.49131 6.55336 4.26927 -4.01181 10.8675 -3.20991 -6.94793 -1.79158 0.331809 11.1845 2.77718 4.70393 -4.23677 8.70955 -2.6543 -0.487409 -3.10806 -3.32622 -2.51823 5.94576 1.83857 -2.74218 7.25307 1.12813 4.39522 3.5418 0.48956 0.076989 -0.561517 -1.13994 10.8711 -2.29197 -1.61037 2.51405 1.9595 0.553205 9.09731 3.69423 3.65779 -2.69209 -2.33773 -1.95961 -1.86232 -1.4213 -1.05062 -0.343667 -1.5837 -1.70443 -1.43742 0.0539625
internal_weight=47636 12003 35633 18663 16970 8541 3462 6863 1532 11800 5714 7715 9255 6577 1930 2827 2308 512 4269 286 6714 5009 448 3008 1610 1848 1020 739 5085 460 3530 5086 1033 2706 334 897 2706 885 104 3195 427 292 4170 373 206 129 1539 184 2768 544 1217 1184 2353 384 3713 2292 376 277 257 3001 1644 1357 1814
internal_count=47636 12003 35633 18663 16970 8541 3462 6863 1532 11800 5714 7715 9255 6577 1930 2827 2308 512 4269 286 6714 5009 448 3008 1610 1848 1020 739 5085 460 3530 5086 1033 2706 334 897 2706 885 104 3195 427 292 4170 373 206 129 1539 184 2768 544 1217 1184 2353 384 3713 2292 376 277 257 3001 1644 1357 1814
is_linear=0
shrinkage=0.05


Tree=5
num_leaves=64
num_cat=0
split_feature=4 4 4 4 4 4 4 4 4 4 4 4 4 4 4 4 18 22 18 4 8 4 4 4 4 4 4 1 4 4 4 4 3 4 1 4 18 16 18 14 4 4 3 21 18 5 0 18 1 3 3 18 16 1 18 3 21 1 18 21 22 0 14
split_gain=1.10592e+08 2.09445e+07 2.03665e+07 3.79722e+06 2.80976e+06 2.56059e+06 2.55632e+06 1.20108e+06 542315 453051 451281 427600 402616 373581 316413 255083 169393 117634 103537 97999.3 93471.2 85279.8 78765 69996.6 67615.6 64305.6 63451.1 60069.6 59485.6 58299.6 57109.2 54988.7 48925.5 40987.1 40318.9 39236.4 34410.5 99052.7 30985.4 72271.9 30578.8 29097.1 29000.4 25679.7 84661.1 40553.5 42243.8 24813.6 41631.9 29022.9 23312.9 23201.1 65950.3 22606 42497.3 43372.5 33126.8 22247.6 48454.4 22041.9 33362.7 21267.6 20275.8
threshold=226.50000000000003 322.50000000000006 156.50000000000003 117.50000000000001 188.50000000000003 273.50000000000006 394.50000000000006 55.500000000000007 134.50000000000003 246.50000000000003 355.00000000000006 443.50000000000006 211.50000000000003 95.500000000000014 173.50000000000003 291.50000000000006 0.084358998231077162 2.5000000000000004 0.084358998231077162 147.50000000000003 74.500000000000014 201.50000000000003 259.50000000000006 375.50000000000006 308.50000000000006 83.500000000000014 108.50000000000001 0.012189512059315103 503.00000000000006 415.50000000000006 340.50000000000006 163.50000000000003 1264.2519949409123 236.50000000000003 0.0088113552644326024 128.50000000000003 0.084358998231077162 208.28333333333339 0.084358998231077162 303.91666666666669 181.50000000000003 219.50000000000003 1222.4565547129703 2.5000000000000004 0.084358998231077162 188.50000000000003 0.057851931028546355 0.084358998231077162 0.017045262440315703 1296.9013611597372 1185.2867388649927 0.084358998231077162 214.55000000000001 0.010789093894499701 0.084358998231077162 1257.7504633891222 2.5000000000000004 0.038983034596744806 0.084358998231077162 4.5000000000000009 4.5000000000000009 0.057851931028546355 151.21666666666667
decision_type=2 2 2 2 2 2 2 2 2 2 2 2 2 2 2 2 2 2 2 2 2 2 2 2 2 2 2 2 2 2 2 2 2 2 2 2 2 2 2 2 2 2 2 2 2 2 2 2 2 2 2 2 2 2 2 2 2 2 2 2 2 2 2
left_child=2 5 3 7 14 9 10 20 35 33 30 29 21 16 31 57 25 -13 26 53 -1 43 51 -12 38 -9 -15 -20 -19 -8 -3 -4 -18 -2 -34 47 -23 42 -17 -40 -16 -14 -38 44 -6 -46 -47 -5 49 -49 -29 -11 -53 -10 -55 -56 -57 58 -7 -33 -61 -60 -21
right_child=1 6 4 8 12 15 11 13 19 22 23 17 41 18 40 24 32 28 27 62 -22 36 -24 -25 -26 -27 -28 50 -30 -31 -32 59 34 -35 -36 -37 37 -39 39 -41 -42 -43 -44 -45 45 46 -48 48 -50 -51 -52 52 -54 54 55 56 -58 -59 61 60 -62 -63 -64
leaf_value=-7.1004959280632409 1.5659308359606343 5.4097078301466128 -1.1717440532210961 -2.5470396336223917 0.14596163933071038 3.5731638779099644 8.2695681273707091 -4.3774346806529945 -1.9431350277565755 2.4598893862610818 6.7384770454647382 8.0105686455965053 0.93097401809005831 -3.3338439851556694 -0.51246737507196005 4.2834208860516396 -3.6230160841467787 10.644696749853569 -2.7193760056704659 -1.5996824947785118 -4.9663087102904253 0.64081356108740528 2.9002032075257347 7.546533759745806 4.8267365219510836 -3.7781430316963873 -2.9220016615366586 -2.6543898050601666 12.712657126402243 9.1114616036065517 6.1297908648156927 -0.87688047790018764 -2.7927074953704238 1.956186474579054 -1.0825212104618549 -2.1892544062147219 -1.770764920478914 1.410421533063873 2.5254775980437127 5.4348209889729819 -0.23176711301085426 1.2680855570003051 -0.27233202942083345 0.27786352979973444 0.57773676067590718 -0.49317151872792109 -2.202022400890526 -2.7990382494926456 -0.63242110479168778 -1.9723926646966075 -1.2316271513700485 0.33286765930699369 2.4477023495767352 -1.8180513168378281 -2.008150822661587 -1.3189004677475669 0.0092007136892998369 4.6005193498399519 3.2747919795464497 1.094507768574883 -0.62467411167650344 1.8952754398951166 -1.3378299965929747
leaf_weight=219 1453 657 2197 2534 1086 1058 518 761 2396 1355 535 40 1337 1978 2127 781 171 321 636 1453 67 1890 1469 537 725 1087 1774 39 39 341 474 2634 249 1253 40 1798 41 91 74 30 1784 1228 152 1713 32 69 76 175 41 270 110 51 133 1387 97 102 87 45 49 34 166 65 1505
leaf_count=219 1453 657 2197 2534 1086 1058 518 761 2396 1355 535 40 1337 1978 2127 781 171 321 636 1453 67 1890 1469 537 725 1087 1774 39 39 341 474 2634 249 1253 40 1798 41 91 74 30 1784 1228 152 1713 32 69 76 175 41 270 110 51 133 1387 97 102 87 45 49 34 166 65 1505
internal_value=0.00380623 4.15474 -1.39444 -2.51439 -0.118568 2.82499 7.43532 -3.42596 -1.96559 2.21604 6.4082 9.23257 0.580559 -3.29332 -0.721762 4.0558 -3.81122 10.5829 -3.02987 -1.68545 -6.60053 0.325648 2.63832 7.14326 4.46874 -4.02493 -3.13912 -2.50767 10.8687 8.60378 5.71149 -0.984001 -2.95265 1.74664 -2.556 -2.37418 0.563703 0.0505371 4.17546 3.36471 -0.384426 1.09237 -0.590652 0.151747 -0.0193037 -1.0333 -1.38885 -2.48427 -2.15701 -2.29748 -1.60403 2.38835 1.86153 -1.84466 -1.70362 -1.14866 -0.707552 3.50952 3.46763 -0.838457 -0.332413 2.48823 -1.46645
internal_weight=47636 12003 35633 18976 16657 8541 3462 7131 11845 5714 2203 1259 7715 6845 8942 2827 2308 400 4537 7027 286 5150 3008 1072 1610 1848 3752 785 360 859 1131 5031 460 2706 289 4818 2174 284 885 104 3911 2565 193 2976 1263 177 145 3020 486 445 149 1539 184 4069 1673 286 189 1217 1172 2834 200 114 2958
internal_count=47636 12003 35633 18976 16657 8541 3462 7131 11845 5714 2203 1259 7715 6845 8942 2827 2308 400 4537 7027 286 5150 3008 1072 1610 1848 3752 785 360 859 1131 5031 460 2706 289 4818 2174 284 885 104 3911 2565 193 2976 1263 177 145 3020 486 445 149 1539 184 4069 1673 286 189 1217 1172 2834 200 114 2958
is_linear=0
shrinkage=0.05


Tree=6
num_leaves=64
num_cat=0
split_feature=4 4 4 4 4 4 4 4 4 4 4 4 4 4 4 22 4 22 4 8 4 21 4 4 4 4 4 4 4 4 4 18 14 4 4 4 3 3 3 22 4 4 3 18 18 18 14 14 13 14 20 18 16 3 1 6 3 6 3 14 18 18 3
split_gain=9.98607e+07 2.07988e+07 1.65383e+07 3.03248e+06 2.6223e+06 2.42158e+06 2.33678e+06 948646 591709 536406 392323 383884 299101 290776 271869 243490 229059 103702 84579.1 79441 75641.5 74029.1 64177.7 61485.9 55756.8 47228.5 47058 44194.8 43670 43038.8 40030.5 39112.1 70791.9 39027.5 36543.7 36383.4 33833.4 33437.6 33151.6 40425.7 32177.5 30161.6 27423.7 28088 27024.5 26356.1 86303.8 27484.2 25790.5 24319.6 24188.7 23616.8 59544.6 35226.8 23452.4 22535.8 21944.9 21105.7 20973.9 20547.6 47126.3 40939.5 23900.5
threshold=221.50000000000003 319.50000000000006 153.50000000000003 111.50000000000001 265.50000000000006 386.50000000000006 185.50000000000003 55.500000000000007 134.50000000000003 439.50000000000006 289.50000000000006 240.50000000000003 169.50000000000003 351.50000000000006 203.50000000000003 1.5000000000000002 91.500000000000014 2.5000000000000004 122.50000000000001 74.500000000000014 413.50000000000006 1.5000000000000002 489.50000000000006 308.50000000000006 143.50000000000003 277.50000000000006 252.50000000000003 334.50000000000006 194.50000000000003 212.50000000000003 77.500000000000014 0.084358998231077162 299.43333333333334 101.50000000000001 163.50000000000003 366.50000000000006 1167.7206440860803 1185.2867388649927 1099.1729647822663 2.5000000000000004 176.50000000000003 230.50000000000003 1139.2054414802994 0.084358998231077162 0.084358998231077162 0.084358998231077162 166.38333333333335 194.6166666666667 31.601919510476488 144.1166666666667 1.0000000180025095e-35 0.084358998231077162 158.35000000000005 1291.0626147842991 0.0098448790586932022 122.50000000000001 975.2417105657355 111.50000000000001 1522.5016005237187 153.58333333333334 0.084358998231077162 0.084358998231077162 1197.26623447202
decision_type=2 2 2 2 2 2 2 2 2 2 2 2 2 2 2 2 2 2 2 2 2 2 2 2 2 2 2 2 2 2 2 2 2 2 2 2 2 2 2 2 2 2 2 2 2 2 2 2 2 2 2 2 2 2 2 2 2 2 2 2 2 2 2
left_child=2 4 3 7 11 13 12 19 18 20 25 41 34 27 28 21 30 -11 44 -1 -7 36 -19 31 -10 -6 -13 -3 38 42 58 -12 -33 -18 56 -15 -9 -23 39 -8 -14 -2 43 -16 -5 -42 -47 -48 -39 -46 -38 -20 53 -53 -55 -51 -4 -52 -17 61 -61 -26 -62
right_child=1 5 6 8 10 9 14 15 24 17 23 26 40 35 29 16 33 22 51 -21 -22 37 -24 -25 59 -27 -28 -29 -30 -31 -32 32 -34 -35 -36 -37 50 48 -40 -41 45 -43 -44 -45 49 46 47 -49 -50 55 57 52 -54 54 -56 -57 -58 -59 -60 60 62 -63 -64
leaf_value=-6.7356669035412011 1.3200458125927099 5.0117152252957311 -2.0908848174727495 -2.6135308501021726 2.8831105960853196 7.6355252756030785 -2.4230085138351689 -3.3406566798059565 -1.8143358857934566 7.5512484028935436 4.0246856981287893 2.0882653807474378 -0.6333367673342758 6.2095890727231229 0.30896064188422229 -4.4489991697480411 -3.3743687606744821 9.9111350332818375 -2.2311030652756627 -4.7112783310905337 8.5361594530144753 -2.6798347357843744 11.498617536659482 4.5479998141928002 -1.5195871167422945 3.3851298565636458 2.4954026232504551 5.643255112289566 0.29708876964688302 0.93701913664911318 -3.7569457764706629 2.1513380909619264 5.0032508634751842 -3.0093743682327254 -0.86879829214498483 6.8391060578119003 -3.1609334844130057 -1.9879468989113105 0.0090981958617620921 -0.25415778313464088 -0.29522298186800494 1.6397055598188222 0.62520900586507056 -1.4578168146071897 -2.4403460191393442 -1.694934627630633 -0.53408037199474434 0.66331056078543538 -0.65685986611363179 -1.1712218295203314 -2.162708113141091 -2.6737155929710088 -0.79778443496459384 -2.0722260502255083 -1.0815328860808822 -2.4487404744007759 -1.1406319185275056 -2.8912754581088116 -3.2737588584423065 -1.4930177087775549 -1.8239075380563738 -2.1532588839925677 -0.47919253671541812
leaf_weight=210 1547 527 62 2308 1053 737 31 190 2761 40 915 1459 2059 431 82 395 1260 328 2960 63 341 61 79 632 1634 844 1382 584 1875 1443 941 73 31 1749 1659 491 135 69 1957 70 2052 1411 1971 31 319 146 136 74 77 90 307 178 104 201 85 56 3030 147 42 1226 40 302 190
leaf_count=210 1547 527 62 2308 1053 737 31 190 2761 40 915 1459 2059 431 82 395 1260 328 2960 63 341 61 79 632 1634 844 1382 584 1875 1443 941 73 31 1749 1659 491 135 69 1957 70 2052 1411 1971 31 319 146 136 74 77 90 307 178 104 201 85 56 3030 147 42 1226 40 302 190
internal_value=0.00844528 3.76473 -1.38539 -2.43203 2.52629 7.01818 -0.249517 -3.39323 -1.99627 8.52427 3.59697 1.87121 -0.781941 5.88843 0.408377 -3.24714 -3.40671 9.98052 -2.33684 -6.2685 7.92042 -2.53716 10.2193 4.16055 -1.64751 3.10647 2.28632 5.34369 0.122538 0.727119 -3.94059 3.92025 3.00143 -3.16221 -1.05811 6.54483 -2.76049 -1.6967 -0.0364913 -0.919845 -0.488213 1.47253 0.58178 -0.175731 -2.54347 -0.364123 -0.761265 -0.112143 -1.28594 -2.19572 -2.57334 -2.17443 -1.87912 -2.12149 -1.77779 -1.66123 -1.15969 -2.39861 -4.33605 -1.51171 -1.36981 -1.61843 -0.713056
internal_weight=47683 12905 34778 18100 9347 3558 16678 5646 12454 1525 3548 5799 9218 2033 7460 5373 4387 447 6301 273 1078 986 407 1651 6153 1897 2841 1111 3933 3527 1378 1019 104 3009 4751 922 779 207 2058 101 4467 2958 2084 113 2773 2408 356 210 146 465 589 3528 568 464 286 146 3092 454 437 3392 1456 1936 230
internal_count=47683 12905 34778 18100 9347 3558 16678 5646 12454 1525 3548 5799 9218 2033 7460 5373 4387 447 6301 273 1078 986 407 1651 6153 1897 2841 1111 3933 3527 1378 1019 104 3009 4751 922 779 207 2058 101 4467 2958 2084 113 2773 2408 356 210 146 465 589 3528 568 464 286 146 3092 454 437 3392 1456 1936 230
is_linear=0
shrinkage=0.05


Tree=7
num_leaves=64
num_cat=0
split_feature=4 4 4 4 4 4 4 4 4 4 4 4 4 4 4 18 4 4 4 8 1 4 4 4 4 4 4 4 4 18 14 4 4 3 13 0 3 18 11 4 0 4 18 14 3 3 2 18 14 17 5 18 18 17 3 20 11 1 4 0 1 4 14
split_gain=9.01243e+07 1.87709e+07 1.49258e+07 2.73765e+06 2.36662e+06 2.18826e+06 2.10894e+06 876469 523091 492923 355079 346456 269939 245361 227041 218036 230849 90402.4 77739.5 71695.5 71498.8 64355.5 50320.5 49973.3 44653.5 42469.9 39412.2 38842.5 37722.6 37661.8 92710.7 36525.8 33307.5 32041.4 30181.7 29933.4 29919.3 31390.7 29268.6 29040.2 27532.7 27220.9 25815.5 44883.6 24863.9 24379.6 40933.6 23786.4 77889.2 24905.1 23591.1 22363.6 21314.2 53739 31792.1 21272.1 31656.6 21165.8 21060.4 20161.2 24890 19116 18544.2
threshold=221.50000000000003 319.50000000000006 153.50000000000003 113.50000000000001 265.50000000000006 384.50000000000006 185.50000000000003 55.500000000000007 427.50000000000006 134.50000000000003 284.50000000000006 240.50000000000003 169.50000000000003 203.50000000000003 345.50000000000006 0.084358998231077162 91.500000000000014 463.50000000000006 308.50000000000006 74.500000000000014 0.012189512059315103 122.50000000000001 143.50000000000003 404.50000000000006 101.50000000000001 252.50000000000003 194.50000000000003 212.50000000000003 361.50000000000006 0.084358998231077162 299.43333333333334 71.500000000000014 161.50000000000003 1167.7206440860803 31.601919510476488 0.084318724590463454 1099.1729647822663 0.020137789777488053 4.3915503282680026 176.50000000000003 0.060340941891075757 230.50000000000003 0.084358998231077162 269.2166666666667 1081.0432005362302 1485.703179863089 252.54924757400303 0.084358998231077162 166.38333333333335 195.35000000000002 113.50000000000001 0.084358998231077162 0.084358998231077162 158.31666666666669 1291.0626147842991 1.0000000180025095e-35 0.53452248382885292 0.0098448790586932022 334.50000000000006 0.056882863960019563 0.015910197967249153 294.50000000000006 153.58333333333334
decision_type=2 2 2 2 2 2 2 2 2 2 2 2 2 2 2 2 2 2 2 2 2 2 2 2 2 2 2 2 2 2 2 2 2 2 2 2 2 2 2 2 2 2 2 2 2 2 2 2 2 2 2 2 2 2 2 2 2 2 2 2 2 2 2
left_child=2 4 3 7 11 14 12 19 23 21 42 41 32 26 58 16 31 35 29 -1 33 51 -11 -7 -18 -13 36 44 -16 61 40 -9 -4 -17 -22 -10 37 -8 45 -14 -31 -2 -6 -44 -15 46 -19 -41 -49 -50 55 -5 -23 54 -54 56 -35 -56 -3 -53 -61 -12 -24
right_child=1 5 6 9 10 8 13 15 17 22 18 25 39 27 28 20 24 38 -20 -21 34 52 62 -25 -26 -27 -28 -29 -30 30 -32 -33 -34 50 -36 -37 -38 -39 -40 47 -42 -43 43 -45 -46 -47 -48 48 49 -51 -52 59 53 -55 57 -57 -58 -59 -60 60 -62 -63 -64
leaf_value=-6.3988833036876862 1.254043506585548 4.7611294784174927 -1.1273185935247734 -2.4663610647097816 2.9252344006380349 7.0521651375921159 -0.30086973806921868 -4.327821928103055 8.9085776440013529 -1.7236190788277854 3.5193809669376934 1.983852102352923 -0.60166992168220412 -0.73189825173970824 5.7629954788813125 -3.1089982960985303 -3.2057519126562348 9.8607616789797525 4.3205997434975227 -4.4757143172006755 -2.1613020317175904 -2.119547948760006 -1.5375129150473015 7.7438146674286772 -2.8264078953950609 2.370632475834507 0.28223433244148893 0.89016817497232792 6.3717830100247479 2.6076713775996776 4.9885820930068556 -3.6301733377021117 -0.86167801193306193 -1.9602208485037593 -0.78023505884058342 7.5431760727091035 0.0086432856266083664 -2.2299113551775616 10.503198561557504 -0.28046183183791068 0.78926004608472189 1.5577202724201789 1.7403506862302114 3.5838203134744067 0.57591018997347532 10.539801094748759 7.542303052544594 -1.6101878935547724 -0.48744311199890095 0.6718409435688586 -3.1289344643553099 -0.99462394595146186 -2.5400298405564232 -0.75789522866790116 -1.9686147608900844 -2.1101652297199944 -3.503826939432245 -1.0274562553579318 5.244037920402576 -2.310442274768489 -0.90855590645756035 3.9185836278989146 -1.3013189879174416
leaf_weight=210 1547 527 2567 2048 1409 570 71 224 275 2761 551 1459 2059 37 539 213 1261 47 632 63 74 2960 1936 482 2016 1382 1875 1443 482 68 37 1155 2184 59 85 47 1957 30 129 2052 30 1411 117 46 2047 33 32 146 141 69 96 40 178 104 201 432 76 85 395 332 35 658 1456
leaf_count=210 1547 527 2567 2048 1409 570 71 224 275 2761 551 1459 2059 37 539 213 1261 47 632 63 74 2960 1936 482 2016 1382 1875 1443 482 68 37 1155 2184 59 85 47 1957 30 129 2052 30 1411 117 46 2047 33 32 146 141 69 96 40 178 104 201 432 76 85 395 332 35 658 1456
internal_value=0.00802302 3.5765 -1.31612 -2.31043 2.39997 6.66727 -0.237041 -3.18761 8.02735 -1.87935 3.41712 1.77765 -0.742844 0.387958 5.53678 -3.05485 -3.20077 9.25741 3.86326 -5.95508 -2.39844 -2.20251 -1.56513 7.36906 -2.97238 2.172 0.116411 0.690763 6.0504 3.6482 2.85613 -3.7435 -1.00521 -2.57549 -1.423 8.70928 -0.0346668 -0.873852 9.98977 -0.463803 2.05101 1.3989 2.85632 2.26059 0.552691 9.39842 8.92164 -0.345917 -0.723202 -0.106535 -2.40409 -2.39909 -2.06571 -1.78516 -2.01541 -2.28137 -2.82921 -1.6889 4.96802 -2.06057 -2.17675 3.73665 -1.43613
internal_weight=47683 12905 34778 18100 9347 3558 16678 5964 1615 12136 3548 5799 9218 7460 1943 5691 4656 563 1976 273 1035 5983 6153 1052 3277 2841 3933 3527 1021 1344 135 1379 4751 876 159 322 2058 101 241 4467 98 2958 1572 163 2084 112 79 2408 356 210 663 2455 3528 568 464 567 135 286 922 407 367 1209 3392
internal_count=47683 12905 34778 18100 9347 3558 16678 5964 1615 12136 3548 5799 9218 7460 1943 5691 4656 563 1976 273 1035 5983 6153 1052 3277 2841 3933 3527 1021 1344 135 1379 4751 876 159 322 2058 101 241 4467 98 2958 1572 163 2084 112 79 2408 356 210 663 2455 3528 568 464 567 135 286 922 407 367 1209 3392
is_linear=0
shrinkage=0.05


Tree=8
num_leaves=64
num_cat=0
split_feature=4 4 4 4 4 4 4 4 4 4 4 4 4 4 18 4 4 19 4 4 8 21 4 4 4 4 4 3 4 4 4 18 14 18 1 3 4 5 4 20 14 18 3 18 0 4 4 20 3 18 18 16 18 14 3 1 2 21 14 3 18 3 18
split_gain=8.13372e+07 1.69408e+07 1.34743e+07 2.38057e+06 2.13588e+06 2.00785e+06 1.9774e+06 772356 505058 441823 320459 312676 272870 221439 198545 187992 178234 84435.3 75689.8 70159.9 64705.2 62185.3 54917.4 53894.4 52493.6 45549.5 38329.1 38123.8 35975.7 35174.5 35055.4 33989.8 83671.4 31122.9 53791.1 36395.7 29918.2 29788.9 29471.3 28727.1 28404.6 65649.3 44174.3 26759.5 24848.2 24566.8 24358.9 23592.4 23376.6 24838.4 23298.5 40665 21571.1 65459.7 31579.5 23122.3 20142 20016.8 19448.2 19008.1 18757.3 18469.1 18013.6
threshold=221.50000000000003 319.50000000000006 152.50000000000003 111.50000000000001 265.50000000000006 185.50000000000003 380.00000000000006 55.500000000000007 427.50000000000006 132.50000000000003 284.50000000000006 240.50000000000003 167.50000000000003 203.50000000000003 0.084358998231077162 87.500000000000014 342.50000000000006 217.15285490060185 463.50000000000006 308.50000000000006 74.500000000000014 1.5000000000000002 141.50000000000003 121.50000000000001 404.50000000000006 101.50000000000001 252.50000000000003 1000.0777265579596 175.50000000000003 194.50000000000003 212.50000000000003 0.084358998231077162 299.43333333333334 0.084358998231077162 0.018255089401027252 1291.0626147842991 503.00000000000006 116.50000000000001 359.50000000000006 1.0000000180025095e-35 158.48333333333338 0.084358998231077162 1454.7247468439095 0.084358998231077162 0.060340941891075757 230.50000000000003 65.500000000000014 1.0000000180025095e-35 1139.2054414802994 0.084358998231077162 0.084358998231077162 278.18333333333339 0.084358998231077162 194.6166666666667 1212.1044319343493 0.016572349769064753 243.020241616791 4.5000000000000009 182.71666666666667 1167.7206440860803 0.084358998231077162 1052.9824567456669 0.084358998231077162
decision_type=2 2 2 2 2 2 2 2 2 2 2 2 2 2 2 2 2 2 2 2 2 2 2 2 2 2 2 2 2 2 2 2 2 2 2 2 2 2 2 2 2 2 2 2 2 2 2 2 2 2 2 2 2 2 2 2 2 2 2 2 2 2 2
left_child=2 4 3 7 11 12 16 20 24 23 50 45 40 27 15 46 -3 -10 -19 31 -1 39 -11 60 -8 -17 -13 -7 -14 62 48 -12 44 -25 35 -35 -20 47 -18 -16 41 -4 -43 -42 -33 -2 -9 -23 49 -15 -6 -52 -30 54 -54 -56 -37 -24 -45 -41 -5 -32 -29
right_child=1 6 5 9 10 13 8 14 17 22 19 26 28 30 21 25 38 18 36 -21 -22 37 57 33 -26 -27 -28 29 52 -31 61 32 -34 34 -36 56 -38 -39 -40 59 43 42 -44 58 -46 -47 -48 -49 -50 -51 51 -53 53 -55 55 -57 -58 -59 -60 -61 -62 -63 -64
leaf_value=-6.0789393034435459 1.1913413378144551 4.6626394406935203 -1.0100749771261568 -2.3753691001353605 2.7789727209179516 -1.5817250670808736 6.6675731229193422 -4.3845165529705232 7.0379749657677824 -1.701565028139802 3.5498152152431022 1.8846594835937311 -0.61401486329404897 0.28146343260276607 -3.0044685905252528 -3.0854070576798458 5.3882016887397413 8.4590977631162154 9.432243999468314 4.1045698554738417 -4.2519285675079104 -2.2576410135397547 -1.416311402581653 -2.0723480718241514 7.3566239074058064 -2.7167194195176587 2.2521008617442786 0.039972407271747362 -0.2832781454104365 0.28224808388800954 -0.36158751076267615 2.4772878012236426 4.7391529676076534 -2.3734504408269959 -0.10781460386865281 -0.56754025431240307 10.972568833200555 -2.6726249145907026 5.9210275866664093 -2.8637290864572176 -0.94510420644704995 -2.1602834918223097 -1.0005289911176078 -0.7163313642455944 0.7497970293896894 1.479834260578742 -3.5812457562259539 -0.84207078371196986 0.56515303452885257 -1.3799715795824605 1.7270931897435604 3.6308914429611634 -2.0115161872198506 0.60043421056121593 -1.1300956134218723 -0.16385572575733509 -1.6624966472324705 -0.11939415931701661 0.097373420899769053 -2.1604205650170294 -2.0082102640536412 0.87216450755851127 -0.3964123072171748
leaf_weight=210 1547 826 2062 2073 1409 33 648 105 61 2762 1209 1459 2239 82 201 1602 535 279 185 632 63 39 3592 2689 482 1756 1382 1768 2287 1859 31 68 37 181 51 51 38 43 504 122 1894 229 128 239 30 1411 933 120 1971 31 127 36 62 80 160 101 238 30 106 452 418 1412 273
leaf_count=210 1547 826 2062 2073 1409 33 648 105 61 2762 1209 1459 2239 82 201 1602 535 279 185 632 63 39 3592 2689 482 1756 1382 1768 2287 1859 31 68 37 181 51 51 38 43 504 122 1894 229 128 239 30 1411 933 120 1971 31 127 36 62 80 160 101 238 30 106 452 418 1412 273
internal_value=0.00762187 3.39767 -1.25032 -2.21532 2.27997 -0.246593 6.3339 -3.06293 7.57106 -1.81932 3.24626 1.68877 -0.725267 0.36856 -2.93111 -3.0744 5.21085 8.79454 9.00799 3.6701 -5.65732 -2.28639 -1.53363 -2.13924 6.96149 -2.89261 2.0634 0.110591 -0.465953 0.12491 0.656225 3.46579 2.71332 -2.00382 -1.65012 -1.81748 9.69472 -1.50505 5.64667 -2.49004 -0.999669 -1.11846 -1.74446 -0.87133 1.94846 1.32896 -3.6625 -1.18929 0.525056 -0.174328 2.7135 2.14756 -0.342714 -0.68001 -0.997148 -0.756187 -1.46927 -1.40557 -0.466324 -2.3099 -2.31376 0.84566 -0.0183975
internal_weight=47683 12905 34778 17731 9347 17047 3558 5646 1693 12085 3548 5799 9587 7460 5373 4396 1865 563 502 1976 273 977 6384 5701 1130 3358 2841 3933 4929 3900 3527 1344 135 3210 521 470 223 202 1039 775 4658 2419 357 2239 98 2958 1038 159 2084 113 1572 163 2690 403 323 261 289 3622 345 574 2491 1443 2041
internal_count=47683 12905 34778 17731 9347 17047 3558 5646 1693 12085 3548 5799 9587 7460 5373 4396 1865 563 502 1976 273 977 6384 5701 1130 3358 2841 3933 4929 3900 3527 1344 135 3210 521 470 223 202 1039 775 4658 2419 357 2239 98 2958 1038 159 2084 113 1572 163 2690 403 323 261 289 3622 345 574 2491 1443 2041
is_linear=0
shrinkage=0.05


Tree=9
num_leaves=64
num_cat=0
split_feature=4 4 4 4 4 4 4 4 4 4 4 4 4 4 4 4 18 4 22 18 8 4 4 4 4 4 4 1 4 4 18 14 3 18 4 14 18 3 18 1 18 20 4 18 16 6 4 21 18 18 14 6 3 4 3 18 4 0 21 18 5 18 13
split_gain=7.32589e+07 1.48158e+07 1.26297e+07 2.13872e+06 2.04741e+06 1.88509e+06 1.76128e+06 675028 440024 367594 286967 262908 252061 247609 216408 162803 90948.9 77960 74052.5 70823.6 61119.8 51025.2 50964.6 45686 42951.7 39078.3 38277.2 38023.9 33358.8 33265.5 31763.2 33368.7 30838.4 68984.7 30547.5 29084.1 65306.9 39008.8 31824 28744.2 43250.1 28600.2 28254.2 26941.2 60346.7 33384.8 25556.9 25023.8 70941 38901.1 36886.7 33171.6 24814.7 23415.6 22612 30837.1 21310.7 21170.9 26378.1 21050.1 20449.4 19945.9 19750
threshold=223.50000000000003 318.50000000000006 150.50000000000003 185.50000000000003 110.50000000000001 384.50000000000006 266.50000000000006 55.500000000000007 443.50000000000006 132.50000000000003 165.50000000000003 242.50000000000003 291.50000000000006 201.50000000000003 345.50000000000006 89.500000000000014 0.084358998231077162 413.50000000000006 2.5000000000000004 0.084358998231077162 74.500000000000014 121.50000000000001 213.50000000000003 489.50000000000006 175.50000000000003 257.50000000000006 141.50000000000003 0.012453532763759203 361.50000000000006 308.50000000000006 0.084358998231077162 299.43333333333334 1113.5568148503455 0.084358998231077162 101.50000000000001 159.6166666666667 0.084358998231077162 1178.2859104783656 0.084358998231077162 0.038983034596744806 0.084358998231077162 1.0000000180025095e-35 274.50000000000006 0.084358998231077162 214.55000000000001 244.50000000000003 74.500000000000014 4.5000000000000009 0.084358998231077162 0.084358998231077162 166.38333333333335 186.50000000000003 1161.7426415434236 334.50000000000006 1139.2054414802994 0.084358998231077162 232.50000000000003 0.056882863960019563 4.5000000000000009 0.084358998231077162 92.500000000000014 0.084358998231077162 31.601919510476488
decision_type=2 2 2 2 2 2 2 2 2 2 2 2 2 2 2 2 2 2 2 2 2 2 2 2 2 2 2 2 2 2 2 2 2 2 2 2 2 2 2 2 2 2 2 2 2 2 2 2 2 2 2 2 2 2 2 2 2 2 2 2 2 2 2
left_child=2 6 4 10 7 14 11 20 17 21 35 56 39 32 53 19 34 -7 -10 46 -1 61 54 -20 -12 43 -11 -18 -16 30 -14 -32 33 -5 -17 36 -4 -38 -37 40 42 -21 -8 -13 45 -45 -9 49 -49 -34 51 -51 -27 59 55 -15 -2 58 -42 -3 -43 -6 -29
right_child=1 5 3 13 9 8 12 15 18 26 24 25 29 22 28 16 27 -19 23 41 -22 -23 -24 -25 -26 52 -28 62 -30 -31 31 -33 47 -35 -36 38 37 -39 -40 -41 57 60 -44 44 -46 -47 -48 48 -50 50 -52 -53 -54 -55 -56 -57 -58 -59 -60 -61 -62 -63 -64
leaf_value=-5.7891245621901293 1.1788360662772726 4.3165589070052244 -1.0170616768179768 -0.020603590769072377 -2.270206680921846 6.4971544766572356 2.5246995657514049 -3.8215066409794392 6.5712871835038476 -1.6211746617608811 -0.61605443983600605 1.9192715446918922 3.5129980131143181 0.3410880378314427 5.185927438949629 -2.9180963103384348 -2.2755594167773698 7.3508752376589941 8.6319729390498185 -3.3641825831213668 -4.0326008275839005 -1.9148424698120365 0.85305049756089257 10.027333950352025 -0.33586597846684663 1.1558975939657175 -1.3626976786941594 -1.8836412415160972 5.7570645688254327 3.8985423413681684 2.0125057524925953 3.989383653004964 0.11948858511116636 -2.1362106631994249 -2.6010677714914201 -0.95857488998684814 -2.7859084539754053 -1.4843072947022724 -0.43634603283871187 4.0091713859921416 1.5339713758037936 -2.0393362675031481 2.9399563352266949 1.3002750689704572 1.8553315732095923 -0.92414506899343962 -3.2957551964477858 0.2010984644208057 1.9161370880145956 -0.15588106345046651 -0.056612497649523391 -1.7593124317626161 2.2873122867648119 4.7195484241054109 0.53305857817866387 -1.247579861396835 1.4553217294486573 1.5063158160506713 3.4879853639847194 3.2975965487105507 -3.185173592925072 -1.9081035432591218 -0.54708361852054421
leaf_weight=208 1555 534 2221 168 2266 815 708 314 37 2793 2810 1585 780 112 537 1476 528 398 283 86 65 3194 1638 74 2665 51 2940 59 488 551 74 30 2491 50 1566 1804 70 324 348 42 31 176 972 31 168 37 876 478 69 55 238 78 974 389 2370 42 1263 108 39 56 50 457 52
leaf_count=208 1555 534 2221 168 2266 815 708 314 37 2793 2810 1585 780 112 537 1476 528 398 283 86 65 3194 1638 74 2665 51 2940 59 488 551 74 30 2491 50 1566 1804 70 324 348 42 31 176 972 31 168 37 876 478 69 55 238 78 974 389 2370 42 1263 108 39 56 50 457 52
internal_value=-0.00177818 3.2675 -1.17506 -0.251747 -2.1483 5.97307 2.18185 -2.94763 7.24881 -1.77395 -0.726629 1.64509 3.09344 0.372691 4.95005 -2.81999 -2.64098 6.77727 8.70053 -3.25868 -5.3709 -2.05041 0.63586 8.92121 -0.47967 1.98407 -1.48862 -2.09871 5.45784 3.59362 3.40356 2.58276 0.0707028 -0.505835 -2.75489 -1.01027 -1.1223 -1.71556 -0.874125 2.71567 2.68643 -2.58815 2.76496 1.84506 1.34666 0.0899288 -3.43448 0.107571 0.417438 0.0483482 -0.429309 -1.09624 2.23102 4.4184 0.49491 -0.092185 1.30275 1.94532 2.62264 4.21984 -2.29284 -2.20944 -1.25751
internal_weight=47747 12610 35137 18031 17106 3611 8999 5456 1607 11650 10242 5664 3335 7789 2004 5183 3681 1213 394 1502 273 5917 4162 357 5475 2846 5733 639 1025 1435 884 104 3627 218 3042 4767 2615 394 2152 1900 1858 312 1680 1821 236 68 1190 3409 547 2862 371 133 1025 979 2524 154 2818 178 70 590 226 2723 111
internal_count=47747 12610 35137 18031 17106 3611 8999 5456 1607 11650 10242 5664 3335 7789 2004 5183 3681 1213 394 1502 273 5917 4162 357 5475 2846 5733 639 1025 1435 884 104 3627 218 3042 4767 2615 394 2152 1900 1858 312 1680 1821 236 68 1190 3409 547 2862 371 133 1025 979 2524 154 2818 178 70 590 226 2723 111
is_linear=0
shrinkage=0.05


Tree=10
num_leaves=64
num_cat=0
split_feature=4 4 4 4 4 4 4 4 4 4 4 4 4 4 4 4 18 18 8 4 4 4 4 1 22 4 4 4 4 4 14 18 6 3 21 18 0 3 4 20 4 20 18 0 6 3 19 18 18 16 4 4 18 3 18 10 0 1 18 5 18 1 3
split_gain=6.61161e+07 1.33721e+07 1.14042e+07 2.03512e+06 1.99121e+06 1.77239e+06 1.28765e+06 634480 348279 335532 282614 262112 227972 191126 172713 171484 85599 63918.3 55160.6 49767.1 49716 42433.7 39819.3 38415.5 37501 37400.4 35312.6 34722.3 32136.9 31627.4 31306.1 132449 43706.2 32944 30250 91888 37254.6 32493.3 28334.8 27139.1 26861.6 25811.7 25327.8 171046 32079.3 25097 25018.2 24725.3 23893.6 44204.3 23275.3 23065.1 20912 20442.6 49306.2 20164.1 19712 18952.9 25835.3 18455.6 18452.2 42764.6 29895.7
threshold=223.50000000000003 330.50000000000006 152.50000000000003 273.50000000000006 113.50000000000001 188.50000000000003 394.50000000000006 55.500000000000007 246.50000000000003 132.50000000000003 451.00000000000006 169.50000000000003 301.50000000000006 359.50000000000006 89.500000000000014 205.50000000000003 0.084358998231077162 0.084358998231077162 74.500000000000014 257.50000000000006 143.50000000000003 423.50000000000006 101.50000000000001 0.012453532763759203 3.5000000000000004 234.50000000000003 161.50000000000003 181.50000000000003 121.50000000000001 286.50000000000006 207.48333333333338 0.084358998231077162 205.50000000000003 1366.5435044854441 2.5000000000000004 0.084358998231077162 0.057851931028546355 1255.6896659879242 489.50000000000006 1.0000000180025095e-35 375.50000000000006 1.0000000180025095e-35 0.084358998231077162 0.077447256049325411 304.50000000000006 1155.389255112276 215.82041240990617 0.084358998231077162 0.084358998231077162 214.55000000000001 342.50000000000006 74.500000000000014 0.084358998231077162 1109.3377039530885 0.084358998231077162 163.50000000000003 0.055703070716261051 0.038983034596744806 0.084358998231077162 92.500000000000014 0.084358998231077162 0.0088113552644326024 1286.9848960733241
decision_type=2 2 2 2 2 2 2 2 2 2 2 2 2 2 2 2 2 2 2 2 2 2 2 2 2 2 2 2 2 2 2 2 2 2 2 2 2 2 2 2 2 2 2 2 2 2 2 2 2 2 2 2 2 2 2 2 2 2 2 2 2 2 2
left_child=2 3 4 8 7 11 13 18 25 28 21 26 29 50 17 34 22 51 -1 48 -11 47 -16 -18 -12 -2 -4 53 -6 57 31 -17 -33 -34 35 -7 -37 -38 -26 -25 -15 -19 -14 44 -44 46 -21 -8 -10 -50 -3 -9 -32 54 -13 -39 -46 58 -5 -43 -30 -62 -63
right_child=1 6 5 12 9 15 10 14 19 20 24 27 42 40 16 30 23 41 -20 45 -22 -23 -24 39 38 -27 -28 -29 60 -31 52 32 33 -35 -36 36 37 55 -40 -41 -42 59 43 -45 56 -47 -48 -49 49 -51 -52 -53 -54 -55 -56 -57 -58 -59 -60 -61 61 62 -64
leaf_value=-5.499668385432317 1.1403527111118483 4.3487243597629073 -0.99336597259606596 2.6844668164698766 -2.0682851399512128 0.15821397833443962 6.568809472055702 -3.6304313234842511 1.8869812947136251 -1.5150748782829524 7.2145799302218254 -0.56111203738703175 3.7892188656655592 5.2928305532141637 -2.7721914985396356 0.68330502490103984 -2.1464912462462666 -3.1959734328957494 -3.8309707934581319 0.2826767162843184 -1.2359773773458258 7.2098657201193408 -2.4304326834097085 -2.4767414962091756 8.3430908264370149 1.4784291341229874 -0.72826077576431025 -0.19466922639640383 -1.8727043763698044 3.0599301961952579 0.76220407623000441 0.64412539379269473 -1.7588409318029883 -0.34517945554764834 0.29048130203251799 -0.32322801257434647 -2.9575535476207735 -0.052618441581726072 9.5187654865321836 -0.77515722128252196 5.8361318194953196 -1.9373694516041065 3.5222551870346068 6.4072884496053071 2.287690728157759 2.2495319057991892 2.2777114772796629 5.4679586467998371 0.0037091751098632811 1.7627726308166982 4.8363550080317204 -3.1309674584634228 1.3102939207328133 -0.42818398630761961 -2.1967362335750038 -1.7498484776133585 0.67111007444786308 3.8736217435201006 1.7671821542347179 -3.0259149057865145 -1.8744674789622942 -1.8093403943001278 -0.46234337810833914
leaf_weight=208 1817 451 2919 792 2175 1360 572 314 1159 3402 57 260 1172 389 1476 1612 609 86 65 33 3005 281 2017 31 218 1488 2205 1779 2664 869 1257 51 80 85 2270 114 32 30 67 96 548 176 30 30 44 1649 30 56 50 125 535 876 202 3003 56 42 33 30 85 50 348 63 119
leaf_count=208 1817 451 2919 792 2175 1360 572 314 1159 3402 57 260 1172 389 1476 1612 609 86 65 33 3005 281 2017 31 218 1488 2205 1779 2664 869 1257 51 80 85 2270 114 32 30 67 96 548 176 30 30 44 1649 30 56 50 125 535 876 202 3003 56 42 33 30 85 50 348 63 119
internal_value=-0.00168927 3.10412 -1.11631 2.1598 -2.00631 -0.204612 5.91152 -2.74735 1.64802 -1.62849 7.16013 -0.626737 3.21337 5.09924 -2.63517 0.400149 -2.47159 -3.09575 -5.10236 2.03371 -1.38417 6.69916 -2.57485 -1.98153 8.38533 1.29256 -0.879284 -0.372903 -1.92005 2.84437 0.665367 0.527511 -0.635172 -1.03059 0.173597 0.00545571 -0.947532 -1.63186 8.61948 -1.1905 5.61058 -2.45874 3.71402 3.07074 2.13526 2.21211 1.23269 6.47064 1.80476 1.26018 4.61331 -3.26276 0.838088 -0.468437 -0.850969 -1.04267 1.59487 2.63784 2.59556 -2.1782 -1.8191 -1.54966 -0.928612
internal_weight=47747 12610 35137 9436 17780 17357 3174 6004 6351 11776 1251 10222 3085 1923 5731 7135 4229 1502 273 3046 6407 909 3493 736 342 3305 5124 5098 5369 1776 3287 1828 216 165 3848 1578 218 104 285 127 937 312 1309 137 107 1712 63 628 1334 175 986 1190 1459 3319 316 72 77 907 877 226 3194 530 182
internal_count=47747 12610 35137 9436 17780 17357 3174 6004 6351 11776 1251 10222 3085 1923 5731 7135 4229 1502 273 3046 6407 909 3493 736 342 3305 5124 5098 5369 1776 3287 1828 216 165 3848 1578 218 104 285 127 937 312 1309 137 107 1712 63 628 1334 175 986 1190 1459 3319 316 72 77 907 877 226 3194 530 182
is_linear=0
shrinkage=0.05


Tree=11
num_leaves=64
num_cat=0
split_feature=4 4 4 4 4 4 4 4 4 4 4 4 4 4 4 4 18 18 8 4 4 4 1 4 4 3 22 4 16 18 0 4 4 3 18 14 18 14 4 1 3 4 4 4 18 0 0 20 11 3 18 14 18 3 4 18 14 18 3 1 17 18 18
split_gain=5.96789e+07 1.13605e+07 1.09968e+07 2.04504e+06 1.62482e+06 1.56504e+06 1.16211e+06 605360 324675 255059 239356 218270 205745 202414 172491 159121 87049.5 54413.5 49782.5 46257.3 45792.6 38726.4 36327.3 36284 35793.1 35048 33844.7 33678.5 30970.8 63379.7 31890.3 29405.1 28543.8 27806.4 64867.8 29270.1 25708.7 44544.9 25572.2 25225.6 26113.6 24896 24242.6 23088 22858.3 154369 24361.4 22365.3 26346.3 22318.8 44545.5 21655.4 82718.2 29504.8 21031.1 18284.8 24290.5 18205.9 30118 20062.2 18969.4 17520.4 17187.2
threshold=226.50000000000003 330.50000000000006 156.50000000000003 116.50000000000001 273.50000000000006 192.50000000000003 394.50000000000006 55.500000000000007 137.50000000000003 451.00000000000006 249.50000000000003 172.50000000000003 301.50000000000006 97.500000000000014 359.50000000000006 210.50000000000003 0.084358998231077162 0.084358998231077162 74.500000000000014 128.50000000000003 80.500000000000014 413.50000000000006 0.025486332217774355 146.50000000000003 181.50000000000003 1172.5525795587503 3.5000000000000004 239.50000000000003 157.77463768115948 0.084358998231077162 0.059768409944786709 263.50000000000006 286.50000000000006 1139.2054414802994 0.084358998231077162 183.35000000000002 0.084358998231077162 213.68333333333334 489.50000000000006 0.0091277003442764518 1445.901806718133 201.50000000000003 375.50000000000006 109.50000000000001 0.084358998231077162 0.077447256049325411 0.056467975641187655 1.0000000180025095e-35 0.97590007295564063 1109.3377039530885 0.084358998231077162 207.48333333333338 0.084358998231077162 1396.3310275534329 345.50000000000006 0.084358998231077162 280.45000000000005 0.084358998231077162 1424.1975068554946 0.012453532763759203 140.01666666666668 0.084358998231077162 0.084358998231077162
decision_type=2 2 2 2 2 2 2 2 2 2 2 2 2 2 2 2 2 2 2 2 2 2 2 2 2 2 2 2 2 2 2 2 2 2 2 2 2 2 2 2 2 2 2 2 2 2 2 2 2 2 2 2 2 2 2 2 2 2 2 2 2 2 2
left_child=2 4 3 7 10 11 14 18 19 21 27 28 32 16 54 33 20 43 -1 57 -9 61 -19 -10 49 -18 -11 -2 29 -4 -31 -12 -6 34 -7 -36 -30 -38 -28 40 -32 -35 -16 -15 -14 46 -46 48 -27 50 -13 52 -17 -54 -3 -34 -57 -5 60 -60 -59 -8 -26
right_child=1 6 5 8 12 15 9 13 23 26 31 24 44 17 42 51 25 22 -20 -21 -22 -23 -24 -25 62 47 38 -29 36 30 39 -33 55 41 35 -37 37 -39 -40 -41 -42 -43 -44 -45 45 -47 -48 -49 -50 -51 -52 -53 53 -55 -56 56 -58 58 59 -61 -62 -63 -64
leaf_value=-5.224684788630559 1.1989979108166684 4.1736417566443285 -0.7678484985191435 -1.8932468864181828 2.5059437772257063 0.2336848252534742 6.1378095009395386 -3.3005224260489143 -1.3335877058775405 6.8538508452867211 1.8469092427504756 -0.53672783559922022 3.5997579137619855 -2.4141876179927078 5.0281891725555177 0.77578416881643142 -2.9133361175204771 -1.890805571463718 -3.6394222538287822 -1.5659040451532122 -2.7825848243119893 6.6938058678838948 -0.1384174539196876 -1.0875067919877215 -0.089208961955106636 -1.6429871257198485 7.9259361612687416 1.5352145661412466 -0.69144394501802542 -0.065078017928383566 -2.614544625251205 2.1898376433591902 2.9872857575076188 0.20276206208983491 -2.379997421503067 -0.35117659335955981 -0.42514011092562054 1.4001403296315993 9.0428271194002523 -1.1523480959925332 -1.3272173993404097 0.45656712968300384 5.5443251474060284 -2.1451229883747995 2.6469012881629173 6.0869240633646653 1.108078195882398 -1.7594438425920629 -3.3614300957432501 -0.36503429621629735 -2.5209419343206623 0.91851091627989812 -1.1823005458513896 0.25583347906084625 4.6377804961424687 1.6553764863092391 3.3231839306214277 -2.1967317798459218 -1.3410891369076596 -0.091453319899737845 -1.4473364984518604 5.0547102544365856 -0.45808007135433437
leaf_weight=208 1872 542 1748 2791 907 239 418 600 2748 57 1595 132 1172 1935 389 1165 132 643 65 2796 1478 450 31 3293 2263 38 218 1237 2286 33 100 1028 774 1946 40 32 346 37 67 119 65 1919 548 1356 64 30 43 297 54 2311 36 1419 75 68 444 61 34 190 163 40 152 41 367
leaf_count=208 1872 542 1748 2791 907 239 418 600 2748 57 1595 132 1172 1935 389 1165 132 643 65 2796 1478 450 31 3293 2263 38 218 1237 2286 33 100 1028 774 1946 40 32 346 37 67 119 65 1919 548 1356 64 30 43 297 54 2311 36 1419 75 68 444 61 34 190 163 40 152 41 367
internal_value=-0.00160481 3.05088 -1.02528 -1.84826 2.1275 -0.091025 5.61594 -2.54025 -1.45961 6.80212 1.62955 -0.495817 3.0527 -2.4443 4.84428 0.486168 -2.78724 -2.2195 -4.84724 -1.71591 -2.93213 6.3642 -1.81021 -1.19945 -0.26917 -2.20934 7.96606 1.33277 -0.740417 -0.885811 -1.53628 1.98131 2.70215 0.292179 -0.162659 -1.4783 -0.627926 -0.248808 8.1885 -1.70723 -2.10742 0.328778 5.33005 -2.30332 3.52832 2.9172 2.0285 -1.97045 -2.65164 -0.405485 -0.961917 0.783234 0.636478 -0.498433 4.38265 2.90693 2.25228 -1.84163 -1.5773 -1.09486 -1.86367 6.04106 -0.140683
internal_weight=47747 11991 35756 19010 8817 16746 3174 6837 12173 1251 5732 9843 3085 6564 1923 6903 2599 3965 273 6132 2078 909 674 6041 5109 521 342 3109 4734 2065 317 2623 1776 4176 311 72 2669 383 285 284 165 3865 937 3291 1309 137 107 389 92 2479 168 2727 1308 143 986 869 95 3336 545 203 342 459 2630
internal_count=47747 11991 35756 19010 8817 16746 3174 6837 12173 1251 5732 9843 3085 6564 1923 6903 2599 3965 273 6132 2078 909 674 6041 5109 521 342 3109 4734 2065 317 2623 1776 4176 311 72 2669 383 285 284 165 3865 937 3291 1309 137 107 389 92 2479 168 2727 1308 143 986 869 95 3336 545 203 342 459 2630
is_linear=0
shrinkage=0.05


Tree=12
num_leaves=64
num_cat=0
split_feature=4 4 4 4 4 4 4 4 4 4 4 4 4 4 4 4 18 18 22 8 4 4 17 18 6 3 4 4 17 18 18 4 1 4 18 4 21 18 18 3 0 1 6 3 3 4 3 19 0 18 18 0 1 4 3 20 1 18 14 3 17 13 4
split_gain=5.40102e+07 1.12089e+07 8.93624e+06 1.81069e+06 1.43273e+06 1.31027e+06 1.09395e+06 550173 260956 239587 219782 218359 217094 180756 149107 119805 82245.7 65518.2 64640.6 47770.9 36545.7 36189.1 35119.5 132814 41355.8 34872.3 34162 33493.1 31626.7 58028.8 48507.7 31480.6 30264.3 29872.8 29345.4 28501.8 28087.3 66257 56067.9 45461.4 28169.8 27827.3 28715.9 26433.5 25160.2 25092.5 24549.2 56493.8 23264.7 51077.6 27013.4 22816.9 22280 22035.1 22004.1 23549 27085.1 21980.1 94725.4 45758.7 36275.8 24683.3 22683.8
threshold=221.50000000000003 319.50000000000006 156.50000000000003 117.50000000000001 265.50000000000006 394.50000000000006 185.50000000000003 55.500000000000007 137.50000000000003 355.00000000000006 451.00000000000006 291.50000000000006 242.50000000000003 95.500000000000014 201.50000000000003 168.50000000000003 0.084358998231077162 0.084358998231077162 1.5000000000000002 74.500000000000014 83.500000000000014 128.50000000000003 203.81666666666669 0.084358998231077162 201.50000000000003 1266.3716255798693 419.50000000000006 340.50000000000006 152.88333333333335 0.084358998231077162 0.084358998231077162 375.50000000000006 0.025486332217774355 104.50000000000001 0.084358998231077162 489.50000000000006 4.5000000000000009 0.084358998231077162 0.084358998231077162 1123.6523000974664 0.059286929634504805 0.018076033002466702 158.50000000000003 1187.6392508924366 1370.7892617594273 282.50000000000006 1155.389255112276 169.58703835623422 0.080333404649446813 0.084358998231077162 0.018117493715668901 0.056467975641187655 0.0088113552644326024 257.50000000000006 1222.4565547129703 1.0000000180025095e-35 0.018255089401027252 0.084358998231077162 193.78333333333339 1255.6896659879242 158.31666666666669 33.453428326705669 176.50000000000003
decision_type=2 2 2 2 2 2 2 2 2 2 2 2 2 2 2 2 2 2 2 2 2 2 2 2 2 2 2 2 2 2 2 2 2 2 2 2 2 2 2 2 2 2 2 2 2 2 2 2 2 2 2 2 2 2 2 2 2 2 2 2 2 2 2
left_child=2 4 3 7 12 9 15 19 21 27 26 45 -2 16 36 -4 20 35 32 -1 -9 -5 23 -16 -25 -18 -7 -3 30 -30 -10 -11 -15 -20 -24 -12 38 -38 -8 -40 -41 42 -42 -32 -26 -6 47 -14 49 -13 -50 -51 -27 -48 -31 -56 -57 62 59 -59 61 -61 -17
right_child=1 5 6 8 11 10 14 13 28 31 17 48 46 18 22 57 25 -19 33 -21 -22 -23 34 24 44 52 -28 -29 29 54 43 -33 -34 -35 -36 -37 37 -39 39 40 41 -43 -44 -45 -46 -47 53 -49 50 51 -52 -53 -54 -55 55 56 -58 58 -60 60 -62 -63 -64
leaf_value=-4.9562312970321152 1.0932909027473119 3.746918489595445 -0.74939581673542366 -1.7329009746432575 2.2087725928835096 5.8097649473056459 0.092995522286040813 -3.0718336816279361 -1.1608482874123849 4.7163652157577225 7.4726954009291564 3.137111955737133 -0.57652861381831932 -1.7759629397242631 0.52927865638628091 -0.446040418309535 -2.6486617885853936 5.2919334427515672 -2.4016204412272084 -3.3855337294321211 -2.6190093708334636 -1.4834117111849228 0.60478816667962665 0.54528432268845417 -1.5278646430143945 -1.9188154009106206 6.4407195588183956 4.2893476638607204 -1.1137474232090501 -1.1488146689932115 -2.333983400744251 5.2540429740481907 -0.29261080556445651 -2.1024066186126187 1.2128127040662644 8.5882679799397792 0.17428483582834198 1.7439187485772447 -1.9759311364342769 0.2463238570993064 0.0060722217415318351 -0.16220205547717903 -1.746872341942417 -1.4920861863557551 -0.44313577450811864 2.6006305651636681 1.6374718808176287 1.6209196090698244 3.2849874784888295 2.7529536289137764 4.560978196217464 1.498262148318996 -0.70839279638396369 1.9481237621554013 -1.2197626635432244 -0.54533627529939011 0.49256902918219564 -1.6690103060829227 0.6436452813632787 -0.83248706531661165 -0.23108157158979231 -2.1898195207781264 -0.20624225766965762
leaf_weight=209 3124 731 3688 3073 1489 570 2637 779 2907 549 242 1097 38 767 1964 1910 161 30 1264 63 1041 2758 1372 57 104 245 344 466 2162 88 117 540 36 2453 232 75 487 78 48 132 33 130 80 459 110 563 1660 127 205 74 52 71 45 870 52 132 120 145 120 131 236 45 2039
leaf_count=209 3124 731 3688 3073 1489 570 2637 779 2907 549 242 1097 38 767 1964 1910 161 30 1264 63 1041 2758 1372 57 104 245 344 466 2162 88 117 540 36 2453 232 75 487 78 48 132 33 130 80 459 110 563 1660 127 205 74 52 71 45 870 52 132 120 145 120 131 236 45 2039
internal_value=0.00604017 2.76615 -1.02114 -1.75357 1.85993 5.16006 -0.142343 -2.38744 -1.37633 4.44633 6.45396 2.6514 1.37695 -2.29912 0.297059 -0.536822 -2.66304 7.52527 -2.11627 -4.59243 -2.81283 -1.6149 0.514218 0.386104 -0.651519 -2.05859 6.04724 3.95809 -1.14591 -1.01226 -1.24391 4.98298 -1.70946 -2.20416 0.692732 7.73663 0.0670803 0.390978 0.00727568 -0.527105 -0.341656 -0.661052 -1.23495 -1.6631 -0.970294 2.31629 1.70576 1.11484 3.11014 3.02054 3.54316 2.13859 -1.73099 1.7443 -0.45255 -0.250999 -0.0510957 -0.367351 -0.630579 -0.905098 -0.636245 -1.17953 -0.322225
internal_weight=47626 12917 34709 18931 9370 3547 15778 7063 11868 2286 1261 3551 5819 6791 7464 8314 2271 347 4520 272 1820 5831 3839 2235 271 451 914 1197 6037 2554 3483 1089 803 3717 1604 317 3625 565 3060 423 375 243 113 576 214 2052 2695 165 1499 1242 257 145 290 2530 392 304 252 4626 677 557 412 176 3949
internal_count=47626 12917 34709 18931 9370 3547 15778 7063 11868 2286 1261 3551 5819 6791 7464 8314 2271 347 4520 272 1820 5831 3839 2235 271 451 914 1197 6037 2554 3483 1089 803 3717 1604 317 3625 565 3060 423 375 243 113 576 214 2052 2695 165 1499 1242 257 145 290 2530 392 304 252 4626 677 557 412 176 3949
is_linear=0
shrinkage=0.05


Tree=13
num_leaves=64
num_cat=0
split_feature=4 4 4 4 4 4 4 4 4 4 4 4 4 4 4 4 22 22 4 18 13 3 1 4 4 18 4 21 18 18 16 5 3 13 14 18 20 3 18 3 3 4 4 4 4 4 11 4 21 18 18 16 5 4 7 5 0 18 18 0 4 21 18
split_gain=4.87615e+07 9.19611e+06 8.96047e+06 1.69379e+06 1.27542e+06 1.19105e+06 994709 496531 254863 198998 189705 171970 164326 158629 149981 135132 80968.4 64245.7 53652.4 49664.6 43113.2 37988.1 37215.6 34082.4 32660.6 31104 30754.8 29651 71232.9 59965.4 37656.3 45501.1 28977.9 27362.2 27095.2 61502.3 27035.4 26207.4 55004.9 25426.6 25425.7 23795.2 23787.2 23463.3 22804.5 22193.8 21106.7 19921.6 19745.9 43290.1 20156.2 45478.7 23748.5 19693.7 19683.8 19575 18449.5 63479.2 32986.8 27828.7 17998 17849.4 59984.3
threshold=228.50000000000003 157.50000000000003 327.50000000000006 117.50000000000001 191.50000000000003 274.50000000000006 394.50000000000006 55.500000000000007 137.50000000000003 443.50000000000006 249.50000000000003 213.50000000000003 87.500000000000014 173.50000000000003 357.50000000000006 299.50000000000006 1.5000000000000002 2.5000000000000004 103.50000000000001 0.084358998231077162 9.3761446187726136 1000.0777265579596 0.010191972573781901 148.50000000000003 128.50000000000003 0.084358998231077162 489.50000000000006 4.5000000000000009 0.084358998231077162 0.084358998231077162 189.35000000000002 192.50000000000003 1378.612640361089 32.318002651561748 158.48333333333338 0.084358998231077162 1.0000000180025095e-35 1145.4789450325895 0.084358998231077162 1445.901806718133 1164.7991411779547 375.50000000000006 239.50000000000003 259.50000000000006 419.50000000000006 201.50000000000003 1.0000000180025095e-35 340.50000000000006 4.5000000000000009 0.084358998231077162 0.084358998231077162 165.55000000000004 173.50000000000003 65.500000000000014 404.50000000000006 208.50000000000003 0.078575181613143405 0.084358998231077162 0.018117493715668901 0.056467975641187655 284.50000000000006 4.5000000000000009 0.084358998231077162
decision_type=2 2 2 2 2 2 2 2 2 2 2 2 2 2 2 2 2 2 2 2 2 2 2 2 2 2 2 2 2 2 2 2 2 2 2 2 2 2 2 2 2 2 2 2 2 2 2 2 2 2 2 2 2 2 2 2 2 2 2 2 2 2 2
left_child=1 3 5 7 13 10 14 20 24 25 42 21 19 34 47 60 22 -11 -18 46 -1 -6 -14 -10 -5 44 -19 28 45 -29 31 -30 -33 -21 35 -3 -24 38 -15 -37 -38 -16 -2 -12 -8 -23 -9 -4 50 -50 -39 52 -52 -48 -27 -31 57 -17 -58 -59 -7 62 -13
right_child=2 4 6 8 11 15 9 12 23 17 43 61 16 37 41 56 18 26 -20 33 -22 27 36 -25 -26 54 -28 29 30 55 -32 32 -34 -35 -36 39 40 48 -40 -41 -42 -43 -44 -45 -46 -47 53 -49 49 -51 51 -53 -54 -55 -56 -57 58 59 -60 -61 -62 -63 -64
leaf_value=-4.7084194073836771 1.1006264259872593 -0.66355023217214915 3.6522456018736977 -1.6462559448735137 -1.3027398153355247 2.2513349724498615 5.6076156414103231 -2.4607782335298971 -1.1833540027329448 5.0699440118428827 1.6417160576898393 0.79337205868481231 -1.8183758870710669 -0.33594058181977637 4.5072382120473895 3.1688618601843253 -2.3607442507254515 7.0217272550802194 -2.0092786538569349 -2.51503021391532 -3.216256977262951 0.17156112995044376 -2.0788334076221173 -0.95140695502476158 -1.4092411202981669 5.7040255129337316 8.1588545684814449 0.36708473896108024 0.56622126802565564 1.9182731355939593 0.30689986386385404 -1.4919794832060977 -0.45026052477833345 -1.4957065846868183 -0.53520157304557259 -1.8248040939596568 -1.8764593461342156 -0.17502886374776594 -1.844243502777976 -0.89222509038150322 -0.43359678177408467 4.9913409413231751 1.3939836552685447 1.9389402626069279 6.1792948104498038 0.42864224762009795 -3.706054450244439 4.1040062077009862 -0.065895762441241151 1.5410777699351312 -0.038670695497065172 -0.1016060624669478 -1.2732319313013241 -2.8868125264586393 4.0892293965362985 0.70950460414279182 3.2337796679714277 2.6253248335633961 4.6518905982971193 1.114613505590845 2.5946280917720776 0.95892598622265357 -0.16476153027366947
leaf_weight=209 1592 1743 448 3073 38 681 522 271 3447 37 1149 1396 766 330 479 970 1843 287 2643 154 63 1631 52 2930 2758 32 75 820 63 91 152 123 146 115 2648 176 40 3340 74 125 129 540 1221 1573 262 1730 82 536 259 50 49 309 190 696 46 53 228 70 50 54 869 913 185
leaf_count=209 1592 1743 448 3073 38 681 522 271 3447 37 1149 1396 766 330 479 970 1843 287 2643 154 63 1631 52 2930 2758 32 75 820 63 91 152 123 146 115 2648 176 40 3340 74 125 129 540 1221 1573 262 1730 82 536 259 50 49 309 190 696 46 53 228 70 50 54 869 913 185
internal_value=0.00573816 -0.908357 2.80589 -1.65179 -0.0470693 1.94704 5.03118 -2.26806 -1.29524 6.13126 1.51591 0.445535 -2.18416 -0.436202 4.33861 2.7637 -2.06346 7.05448 -2.15367 -2.68536 -4.36281 0.271943 -1.65346 -1.07678 -1.53415 5.70393 7.25732 0.284386 0.22222 0.53234 -0.344898 -0.643312 -0.926586 -2.07926 -0.640766 -0.777525 -1.08186 -0.227592 -0.612214 -1.43752 -0.775103 4.76378 1.22796 1.81348 5.79866 0.303888 -2.84079 3.89833 -0.190568 0.194132 -0.221142 -0.502199 -1.02012 -2.97316 4.75171 1.47338 3.12511 3.03269 3.48884 1.96743 2.4438 0.782905 0.681256
internal_weight=47626 35905 11721 19271 16634 8457 3264 7063 12208 1261 5535 7341 6791 9293 2003 2922 5473 399 4486 1318 272 4847 987 6377 5831 862 362 4809 3845 964 484 332 269 269 4692 2044 221 4601 404 301 169 1019 2813 2722 784 3361 1049 984 4197 309 3888 548 239 778 78 144 1372 1094 278 124 1550 2494 1581
internal_count=47626 35905 11721 19271 16634 8457 3264 7063 12208 1261 5535 7341 6791 9293 2003 2922 5473 399 4486 1318 272 4847 987 6377 5831 862 362 4809 3845 964 484 332 269 269 4692 2044 221 4601 404 301 169 1019 2813 2722 784 3361 1049 984 4197 309 3888 548 239 778 78 144 1372 1094 278 124 1550 2494 1581
is_linear=0
shrinkage=0.05


Tree=14
num_leaves=64
num_cat=0
split_feature=4 4 4 4 4 4 4 4 4 4 4 4 4 4 4 4 18 18 22 8 4 3 20 2 4 4 4 4 21 14 18 18 6 14 4 3 18 3 4 4 4 3 21 3 3 4 4 3 2 4 4 3 20 3 3 14 18 16 10 0 21 4 11
split_gain=4.40073e+07 8.29975e+06 8.08682e+06 1.58894e+06 1.08665e+06 1.07493e+06 897724 448119 250023 179945 171209 155300 148752 135358 125867 121956 67059.1 53611.1 52661.8 38909.7 36399.3 34007.4 32696.9 31523.6 29914.1 29476.2 27075.9 25003.1 24671.3 24228.6 80400 42868.8 31142.9 29399.8 24023.8 23652.2 49641.9 22531.2 21785.6 21467.9 21005.4 20900.2 20744.8 38562.7 20347 19345.7 19041.2 18494 20406.4 18063.8 17979.3 16770.1 16687.4 18460.4 16494.6 16486.8 16411.4 29868.2 21885 22911.6 16244.2 16243.2 16164.6
threshold=228.50000000000003 158.50000000000003 327.50000000000006 117.50000000000001 191.50000000000003 274.50000000000006 394.50000000000006 55.500000000000007 137.50000000000003 451.00000000000006 249.50000000000003 212.50000000000003 95.500000000000014 357.50000000000006 173.50000000000003 299.50000000000006 0.084358998231077162 0.084358998231077162 1.5000000000000002 74.500000000000014 148.50000000000003 1000.0777265579596 1.0000000180025095e-35 276.73002923031351 83.500000000000014 128.50000000000003 413.50000000000006 108.50000000000001 1.5000000000000002 207.48333333333338 0.084358998231077162 0.084358998231077162 191.50000000000003 170.65000000000001 503.00000000000006 1145.4789450325895 0.084358998231077162 1090.6576923804662 380.00000000000006 239.50000000000003 259.50000000000006 1257.7504633891222 4.5000000000000009 1363.2513936750245 960.7620140922694 202.50000000000003 181.50000000000003 1131.948087526305 225.99886502111113 316.50000000000006 340.50000000000006 1382.6201528864556 1.0000000180025095e-35 1164.7991411779547 1432.4878649969917 161.85000000000005 0.084358998231077162 135.35000000000005 143.92857142857147 0.059868144139659706 2.5000000000000004 284.50000000000006 1.0000000180025095e-35
decision_type=2 2 2 2 2 2 2 2 2 2 2 2 2 2 2 2 2 2 2 2 2 2 2 2 2 2 2 2 2 2 2 2 2 2 2 2 2 2 2 2 2 2 2 2 2 2 2 2 2 2 2 2 2 2 2 2 2 2 2 2 2 2 2
left_child=1 3 5 7 14 10 13 19 25 23 39 21 16 50 42 61 24 34 28 -1 -10 -6 62 26 54 56 -8 -20 -14 30 45 -31 -32 51 -11 36 -16 -12 -15 -2 -39 -24 44 -44 -3 -23 -37 48 -13 -17 -4 -34 -30 -54 -9 -38 -5 -58 59 -59 -55 -7 -18
right_child=2 4 6 8 11 15 9 12 20 17 37 47 18 38 35 49 22 -19 27 -21 -22 29 41 -25 -26 -27 -28 -29 52 31 32 -33 33 -35 -36 46 55 40 -40 -41 -42 -43 43 -45 -46 -47 -48 -49 -50 -51 -52 -53 53 60 -56 -57 57 58 -60 -61 -62 -63 -64
leaf_value=-4.472998798863169 1.0455951229879765 -1.741701186746359 3.4696333349154367 -1.6148793987533114 -1.2376028419521294 2.1387682596754924 5.2311572367417902 -2.8738205246684032 -1.1241862991173064 6.8270344078540806 0.69200826562367956 0.580253326428401 -1.7084176806777212 4.3268609833798726 -0.31914355240536463 2.8349157037226029 -1.8211010264853638 4.7738395865758259 -2.1106588233369252 -3.0554441774057022 -0.89196977524669396 0.17058806804281487 -2.1787049010396005 4.0658060905260918 -2.3649909292729743 -1.3387790586570942 5.787735387142253 -1.8508487133604246 -1.8694003881192676 0.32750819782083457 0.31407026979658337 1.1297822397286266 -2.0189990455249571 -0.37165588114843812 8.1826623658876159 -0.29487074049360951 -2.5839056715820776 1.578403245396653 4.7945408744776223 1.3242844717056901 1.8624585064682257 -1.3191485091234765 -0.43157451914728812 1.2106094277182291 -0.60841463604704327 0.4308238404030304 -0.081399557076001716 0.76083866767361852 -0.8357510453776309 3.2145998408971743 3.8988059292088693 -0.72885109881560017 -1.7492489282677814 -0.86163463102446658 -2.2407565327941397 -1.0824738973524513 -1.6821374995824625 0.41196981207890948 -1.5410661472515628 -0.93125009306506346 0.46548219650022449 2.46489668968632 -2.9872922554994243
leaf_weight=209 1592 40 448 2573 38 681 423 657 3447 280 52 77 590 586 330 888 48 30 1968 63 3306 1635 104 39 1041 2758 452 1749 51 1175 99 194 53 215 37 1959 33 1124 433 1221 1546 221 212 43 4021 1268 2238 2501 38 484 536 48 41 90 122 41 254 44 88 114 31 869 78
leaf_count=209 1592 40 448 2573 38 681 423 657 3447 280 52 77 590 586 330 888 48 30 1968 63 3306 1635 104 39 1041 2758 452 1749 51 1175 99 194 53 215 37 1959 33 1124 433 1221 1546 221 212 43 4021 1268 2238 2501 38 484 536 48 41 90 122 41 254 44 88 114 31 869 78
internal_value=0.00545126 -0.862939 2.6656 -1.55447 -0.0272599 1.84968 4.77962 -2.15466 -1.2176 5.8247 1.44011 0.423259 -2.07496 4.12168 -0.398153 2.62552 -2.40509 6.79407 -1.90908 -4.14467 -1.0105 0.25214 -1.85929 5.45668 -2.54035 -1.45744 5.51867 -1.98841 -1.5419 0.264218 0.191197 0.441198 -0.459771 -0.702208 6.98526 -0.216212 -0.581603 1.7228 4.52559 1.16656 1.74288 -1.59421 -0.592109 -0.154657 -0.619577 0.284256 -0.18104 0.732331 0.112356 2.96886 3.70341 -1.40586 -1.08064 -0.832323 -2.77468 -1.75203 -1.56394 -1.30183 -0.909145 -0.557189 -0.521629 2.32161 -2.54303
internal_weight=47626 35905 11721 19647 16258 8457 3264 7063 12584 1261 5535 7341 6791 2003 8917 2922 2271 347 4520 272 6753 4725 451 914 1820 5831 875 3717 803 4687 3318 1369 415 316 317 4601 404 2722 1019 2813 2670 325 4316 255 4061 2903 4197 2616 115 1372 984 101 213 162 779 74 3073 500 246 158 121 1550 126
internal_count=47626 35905 11721 19647 16258 8457 3264 7063 12584 1261 5535 7341 6791 2003 8917 2922 2271 347 4520 272 6753 4725 451 914 1820 5831 875 3717 803 4687 3318 1369 415 316 317 4601 404 2722 1019 2813 2670 325 4316 255 4061 2903 4197 2616 115 1372 984 101 213 162 779 74 3073 500 246 158 121 1550 126
is_linear=0
shrinkage=0.05


Tree=15
num_leaves=64
num_cat=0
split_feature=5 5 5 5 5 5 5 10 14 14 18 10 16 5 0 18 1 18 18 18 3 3 20 19 5 10 17 5 18 17 21 18 5 3 3 3 5 19 1 5 5 3 5 0 3 3 3 18 0 14 3 5 3 20 16 1 22 6 11 14 7 11 18
split_gain=3.73666e+07 6.89464e+06 6.52467e+06 1.14779e+06 1.01266e+06 878670 589095 447461 236306 213214 189727 173531 165441 124897 121592 123007 121026 117756 103406 99350 93870.7 88146.6 89228.1 84870.4 88399.7 83398.3 76581.8 70544.7 56923.9 134604 53711 80986.3 51718 50027 49708.4 46454.7 46103.3 45378.9 43547 42738.9 42299.8 40952.4 40630.5 40625.8 39154.2 38745.2 38331.5 38161.2 35959 35816.5 34062.7 33687 33290.1 33200 31682.5 31124.9 33346.5 29987.2 29235.9 27978.9 27841.9 57013 27782.8
threshold=230.50000000000003 334.50000000000006 161.50000000000003 120.50000000000001 282.50000000000006 195.50000000000003 404.50000000000006 8.2142857142857171 156.35000000000005 208.75000000000003 0.084358998231077162 257.07142857142867 179.88333333333335 101.50000000000001 0.078575181613143405 0.084358998231077162 0.028246210775740653 0.084358998231077162 0.084358998231077162 0.084358998231077162 1247.4216332212866 1187.6392508924366 1.0000000180025095e-35 217.46761988806085 443.50000000000006 136.07142857142858 141.51666666666668 306.50000000000006 0.084358998231077162 213.6166666666667 4.5000000000000009 0.084358998231077162 375.50000000000006 1380.6374353332872 1420.201225662797 1230.8316826998278 246.50000000000003 193.39850786740368 0.010347730752275502 218.50000000000003 139.50000000000003 1420.201225662797 178.50000000000003 0.051967014566615059 1283.5181777726086 1039.3850605134517 1270.0494719720543 0.084358998231077162 0.081681617214450664 188.01666666666668 1274.1953420357768 216.50000000000003 1191.9986210602085 1.0000000180025095e-35 249.48333333333338 0.010191972573781901 1.5000000000000002 255.50000000000003 5.3452248382464544 182.71666666666667 101.50000000000001 21.915421836819061 0.084358998231077162
decision_type=2 2 2 2 2 2 2 2 2 2 2 2 2 2 2 2 2 2 2 2 2 2 2 2 2 2 2 2 2 2 2 2 2 2 2 2 2 2 2 2 2 2 2 2 2 2 2 2 2 2 2 2 2 2 2 2 2 2 2 2 2 2 2
left_child=2 4 3 7 11 12 16 -1 25 10 39 28 18 21 15 27 20 -16 42 40 -3 -9 60 44 -25 52 53 -6 36 -30 -14 -32 62 49 -21 -17 -2 41 -24 45 -10 -22 -4 -15 -8 -7 -28 51 -13 -12 -26 -11 -5 -20 -49 -45 -57 -31 -56 -36 61 -23 -18
right_child=1 6 5 8 14 9 23 13 19 47 33 48 30 43 17 35 32 -19 26 34 37 22 38 24 50 -27 46 -29 29 57 31 -33 -34 -35 59 -37 -38 -39 -40 -41 -42 -43 -44 55 -46 -47 -48 54 -50 -51 -52 -53 -54 -55 58 56 -58 -59 -60 -61 -62 -63 -64
leaf_value=-4.2487380088643825 1.0759394225998815 1.2923600211739541 -0.53605705381098823 -1.6415343676458176 2.2652941037498664 -1.5600161317984265 2.7763704403241478 -2.3511034478958215 -1.1292080267913454 0.50005424300870505 -1.5953467169662732 1.7234072189280554 -0.16809565028500287 -0.85220787933451592 3.0366432647534016 -0.11577576297394775 3.9011001334841562 5.6679302438776551 -0.43800175102318034 -0.54370263001502872 1.0846844720840456 -2.0606662331154646 -1.6327638116970169 5.2892384203997524 4.9598725920631779 -1.0677055892349943 -1.3087624650790497 2.8769923429184199 -0.70259994041461216 1.4340046721116435 0.1155924101238788 1.6769970838647141 4.6014788911321398 -0.19970798048202465 0.08735816729798293 1.6672399947828638 1.4613474676614358 3.8374019224840894 -0.76096624255728207 0.65946826702708172 -0.74867011955164731 3.3535974149986849 -0.23778678729036842 -1.7144635630944904 4.8046776771545412 0.24665968085014789 -0.48369666685720658 0.99932859678992958 3.386897324070786 -0.33985422406435373 6.4751868425483581 0.87574343091976226 -1.3039366622723079 -2.1512512316661225 3.3649129295349121 -0.7485390656822446 -1.5208475793106584 0.28422064036130906 1.340696542235938 1.357542290591768 -2.4716863729983949 -0.16060169413685799 4.9540076756822895
leaf_weight=188 1660 48 2781 937 1040 30 30 1205 1042 1206 180 2089 2548 173 446 47 681 47 34 364 30 658 910 550 42 4394 207 862 130 267 660 95 674 239 192 164 1457 399 170 720 2441 59 1937 3106 115 2743 440 283 33 83 317 1181 3309 168 30 165 914 72 44 56 395 42 69
leaf_count=188 1660 48 2781 937 1040 30 30 1205 1042 1206 180 2089 2548 173 446 47 681 47 34 364 30 658 910 550 42 4394 207 862 130 267 660 95 674 239 192 164 1457 399 170 720 2441 59 1937 3106 115 2743 440 283 33 83 317 1181 3309 168 30 165 914 72 44 56 395 42 69
internal_value=-0.000318456 2.50645 -0.783244 -1.36613 1.76375 -0.0116947 4.55517 -1.83852 -1.07213 0.418693 0.185608 1.39089 -0.338682 -1.77996 2.58043 2.41546 4.04257 3.2875 -0.505014 -0.75928 3.40216 -2.00806 -1.818 5.50841 5.6876 -1.22041 -1.01301 2.54252 1.17882 0.665256 -0.0583415 0.312061 4.28362 -0.723308 -0.171753 1.27008 1.25609 3.60968 -1.49554 0.316234 -0.862515 2.5888 -0.413601 -1.60306 4.38503 0.227114 -0.747667 0.758042 1.74928 -1.19913 6.29791 0.685931 -1.37844 -1.86288 1.24019 -1.63409 -1.40275 1.1898 2.16132 0.374174 -2.13605 -1.94666 3.99797
internal_weight=47598 11328 36270 20661 8314 15609 3014 7926 12735 6739 3995 5708 8870 7738 2606 2113 1960 493 5567 4095 536 3380 2175 1054 909 8640 849 1902 3586 469 3303 755 1424 502 612 211 3117 488 1080 3493 3483 89 4718 4358 145 2773 647 2744 2122 263 359 2387 4246 202 357 4185 1079 339 74 248 1095 700 750
internal_count=47598 11328 36270 20661 8314 15609 3014 7926 12735 6739 3995 5708 8870 7738 2606 2113 1960 493 5567 4095 536 3380 2175 1054 909 8640 849 1902 3586 469 3303 755 1424 502 612 211 3117 488 1080 3493 3483 89 4718 4358 145 2773 647 2744 2122 263 359 2387 4246 202 357 4185 1079 339 74 248 1095 700 750
is_linear=0
shrinkage=0.05


Tree=16
num_leaves=64
num_cat=0
split_feature=4 4 4 4 4 4 4 4 4 4 4 4 4 4 4 22 9 4 19 4 4 20 1 11 1 18 21 18 4 4 6 0 18 18 21 18 0 18 21 14 5 18 21 14 6 0 18 18 10 4 11 18 14 9 6 20 18 11 14 8 15 4 9
split_gain=3.59917e+07 7.54491e+06 5.98255e+06 1.05876e+06 1.03552e+06 902578 877000 315167 221657 206813 125736 123948 119456 111263 103775 67537.1 62877.6 61857 52564.4 36086 32199.7 29485.5 33567.4 32934.1 28811.1 48702.7 41668.5 28764.7 28549.7 25253.5 24245.9 19387.1 41895.1 21424.4 19368.5 89215.3 49747.2 19243.1 79804.2 30570.6 37293.1 19220.7 62358.4 26906.2 22778.8 18875.2 50888.9 27815.3 18758.7 17925.6 17919.4 17685.1 54391.7 23448.3 23319.5 17494.2 17329.2 37727.3 17236.8 17030.4 15766 15656.6 15516.1
threshold=220.50000000000003 316.50000000000006 151.50000000000003 110.50000000000001 380.00000000000006 183.50000000000003 263.50000000000006 65.500000000000014 427.50000000000006 132.50000000000003 242.50000000000003 289.50000000000006 196.50000000000003 165.50000000000003 342.50000000000006 1.5000000000000002 65.500000000000014 97.500000000000014 217.15285490060185 503.00000000000006 408.50000000000006 1.0000000180025095e-35 0.010347730752275502 1.0000000180025095e-35 0.010191972573781901 0.084358998231077162 2.5000000000000004 0.084358998231077162 207.50000000000003 123.50000000000001 169.50000000000003 0.056882863960019563 0.084358998231077162 0.084358998231077162 4.5000000000000009 0.084358998231077162 0.057851931028546355 0.084358998231077162 4.5000000000000009 170.65000000000001 184.50000000000003 0.084358998231077162 4.5000000000000009 276.11666666666673 244.50000000000003 0.080333404649446813 0.084358998231077162 0.018117493715668901 121.64285714285715 451.00000000000006 1.0000000180025095e-35 0.084358998231077162 262.98333333333341 289.50000000000006 252.50000000000003 1.0000000180025095e-35 0.084358998231077162 1.0000000180025095e-35 254.05000000000001 190.50000000000003 28.97795436325514 274.50000000000006 145.50000000000003
decision_type=2 2 2 2 2 2 2 2 2 2 2 2 2 2 2 2 2 2 2 2 2 2 2 2 2 2 2 2 2 2 2 2 2 2 2 2 2 2 2 2 2 2 2 2 2 2 2 2 2 2 2 2 2 2 2 2 2 2 2 2 2 2 2
left_child=2 6 3 7 14 13 10 16 20 29 34 51 37 -4 -3 21 -1 50 -10 49 -6 23 48 -9 31 -26 -27 -18 -14 -5 55 33 -33 -11 35 -2 59 -7 39 40 -39 -12 44 -44 -43 46 -13 -47 -23 -20 -17 61 54 -54 -53 -28 -36 -58 -48 -37 -42 -8 -15
right_child=1 4 5 9 8 12 11 15 18 24 41 45 28 62 -16 17 27 -19 19 -21 -22 22 -24 -25 25 26 30 -29 -30 -31 -32 32 -34 -35 56 36 -38 38 -40 -41 60 42 43 -45 -46 47 58 -49 -50 -51 -52 52 53 -55 -56 -57 57 -59 -60 -61 -62 -63 -64
leaf_value=-4.0393424173003263 0.89625039266772577 3.0202853886783125 -0.69581014067671609 -1.5380711195355232 4.4602453539140763 0.014163287792445911 1.7618991777009798 -1.3082426172527639 4.5200291156768797 -0.98743819227373164 1.4118658765646639 2.4803610411753141 0.25358975780234028 -0.48671642099685281 3.7328205895610154 -1.9995295379848441 -3.0955956197098686 -1.8717231922309219 5.5205119495696211 7.4813245333158056 5.0392012059003459 -1.404905762490217 -0.68033924485955932 -2.5124217336540982 -0.99964001004415659 -0.85172610478436406 -0.43044845854363789 -1.5886471626162528 0.49702868226549723 -1.3302137460932562 -0.95792266313846308 -1.0937001579266956 -1.6077988600557518 -0.12459316910749459 0.94546634320970091 -0.44306095613015667 -1.2593488862958591 0.022366661610810655 1.4479520599797089 -0.21953591460976557 -0.77548868909026636 0.96657572659579205 1.2248168067688623 2.8098092316649854 -0.66889964232842125 2.5833478845132367 0.63227993493730372 3.9454861133656602 -2.0534459233864562 6.1512677338411805 -2.3481394336316863 2.1167882359796955 1.6359825978384297 3.4669649932119584 0.57977263580869176 0.78743865934156243 2.7946691600287834 1.0855873627882255 1.8443210645155474 0.88991167961674589 -2.0924263647157852 2.0476729732904002 -0.29233158691271238
leaf_weight=206 1367 1020 4448 3293 775 2597 1024 91 66 540 2159 1079 2605 1464 1024 492 152 2133 188 39 348 404 126 151 2178 237 41 40 2240 2627 39 2342 477 83 1508 37 76 46 53 194 33 33 164 32 60 185 44 47 154 281 1470 31 34 36 121 105 41 152 88 68 73 901 3436
leaf_count=206 1367 1020 4448 3293 775 2597 1024 91 66 540 2159 1079 2605 1464 1024 492 152 2133 188 39 348 404 126 151 2178 237 41 40 2240 2627 39 2342 477 83 1508 37 76 46 53 194 33 33 164 32 60 185 44 47 154 281 1470 31 34 36 121 105 41 152 88 68 73 901 3436
internal_value=-0.000302532 2.23939 -0.844348 -1.49846 4.13523 -0.182931 1.4757 -2.07825 5.0482 -1.2358 1.09 2.08778 0.212673 -0.514759 3.37725 -1.9709 -3.43262 -2.0581 5.84748 6.01995 4.63965 -1.58527 -1.41745 -2.05961 -1.03001 -0.904385 -0.412762 -2.78165 0.366139 -1.44583 0.149588 -1.12491 -1.18069 -0.872485 0.8861 0.75813 -0.285026 -0.035506 -0.358792 -0.635547 -1.16651 1.36061 0.977671 1.48359 -0.0885697 2.44615 2.36699 2.8593 -1.58389 5.89843 -2.26072 1.84692 1.42436 2.57763 0.893243 0.445429 1.00256 1.44866 1.44031 0.420198 -1.68244 1.89566 -0.350409
internal_weight=47598 13028 34570 17381 3741 17189 9287 5419 1697 11962 5697 3590 7841 9348 2044 5021 398 4095 574 508 1123 926 684 242 6042 2600 422 192 4845 5920 185 3442 2819 623 3249 1548 181 2996 399 346 152 2448 289 196 93 1443 1211 232 558 469 1962 2147 222 70 152 146 1701 193 132 105 106 1925 4900
internal_count=47598 13028 34570 17381 3741 17189 9287 5419 1697 11962 5697 3590 7841 9348 2044 5021 398 4095 574 508 1123 926 684 242 6042 2600 422 192 4845 5920 185 3442 2819 623 3249 1548 181 2996 399 346 152 2448 289 196 93 1443 1211 232 558 469 1962 2147 222 70 152 146 1701 193 132 105 106 1925 4900
is_linear=0
shrinkage=0.05


Tree=17
num_leaves=64
num_cat=0
split_feature=4 4 4 4 4 4 4 4 4 4 4 4 4 4 4 18 4 9 4 3 15 18 18 17 3 19 3 0 4 14 18 3 0 18 14 3 18 0 3 1 9 20 17 18 21 6 18 8 13 0 12 18 3 4 4 1 18 3 1 3 4 1 4
split_gain=3.24905e+07 6.15697e+06 6.04063e+06 1.02675e+06 944016 911048 628344 284438 217745 152446 143111 115664 109275 95096.4 88293 61015.5 57661.7 56747 28898.3 27156 29958.2 25960.1 25342.8 88808.5 42342.9 24423 23985.4 23392.3 22791.2 21956.5 58076.5 29265 23674.8 22018.6 34472.5 21881 21086.3 108625 37126.2 20949.7 20915.8 20468.3 19898.8 73774.1 38303.1 31230.6 18190.9 47561.5 34450.4 17293.7 34644.9 30669.2 19516.6 16499.9 16438.7 16393.4 38477.2 30033.7 25869.8 16179.4 15656.8 15388.1 15312.6
threshold=226.50000000000003 332.50000000000006 153.50000000000003 110.50000000000001 192.50000000000003 269.50000000000006 404.50000000000006 65.500000000000014 132.50000000000003 172.50000000000003 299.50000000000006 366.50000000000006 249.50000000000003 457.50000000000006 211.50000000000003 0.084358998231077162 91.500000000000014 65.500000000000014 143.50000000000003 1190.0055834150562 39.057796793535729 0.084358998231077162 0.084358998231077162 191.1166666666667 1214.4388735431946 214.75084030173329 1283.5181777726086 0.060302462038778211 123.50000000000001 158.48333333333338 0.084358998231077162 1113.5568148503455 0.059785669264702503 0.084358998231077162 226.6166666666667 986.5054662512963 0.020323992179499054 0.078575181613143405 1233.2427417869794 0.024814275980534654 145.50000000000003 3.5000000000000004 226.48333333333338 0.084358998231077162 4.5000000000000009 227.50000000000003 0.084358998231077162 299.50000000000006 33.93068240627057 0.082196010178302373 344.9285714285715 0.084358998231077162 1308.8973997785927 182.50000000000003 316.50000000000006 0.010191972573781901 0.084358998231077162 1251.6395194133236 0.018487101783202353 1479.0966663670622 286.50000000000006 0.024317307322791904 427.50000000000006
decision_type=2 2 2 2 2 2 2 2 2 2 2 2 2 2 2 2 2 2 2 2 2 2 2 2 2 2 2 2 2 2 2 2 2 2 2 2 2 2 2 2 2 2 2 2 2 2 2 2 2 2 2 2 2 2 2 2 2 2 2 2 2 2 2
left_child=2 5 3 7 9 12 11 17 28 29 49 -3 42 62 35 16 -9 -1 55 -17 -21 -19 53 24 -24 27 -15 -13 -5 30 -4 -32 -33 -31 59 -6 54 38 -38 -40 -26 -25 43 -2 45 -45 -14 48 -48 51 -51 60 -53 -11 -12 -10 -57 -58 -59 -35 -7 -61 -8
right_child=1 6 4 8 14 10 13 15 18 22 36 25 46 26 -16 19 -18 21 -20 20 -22 -23 23 41 40 -27 -28 -29 -30 33 31 32 -34 34 -36 -37 37 -39 39 -41 -42 -43 -44 44 -46 -47 47 -49 -50 50 -52 52 -54 -55 -56 56 57 58 -60 61 -62 -63 -64
leaf_value=-3.8373751853276228 0.97868475800197852 3.3053150870906771 -0.57833417144937449 -1.4611675556930677 -1.100758679451481 1.8514969408539039 4.7023130695849531 -2.2350706573916539 -1.1505304507042824 -0.23592248966783097 2.4847347534572881 2.1787483930587768 1.4889248277430054 4.6892611833179698 0.59348647956395417 -1.9423628359357599 -1.8294423302954206 -2.9408158228585597 -0.85414037566315815 -1.4675569081283095 -0.48165576973657931 -1.5092147949337962 -1.6633522563165539 0.28178884456083725 -1.0145156191894784 4.1547325817644944 6.1027198127470914 3.8002805927465126 -1.2637030552791204 -0.5364487220066988 -2.3983896816770236 -0.011260822754767207 -1.242480509498362 -0.45354118065331311 1.4808001716931662 0.23242660681923916 -0.032493870146572588 4.6487726988214435 2.3090863204146008 0.78576658541156408 -0.29788643849123869 1.7237322974205018 1.098419142882981 0.73214436339007483 1.2032066685812814 -0.9899159434802679 1.1609525603914499 2.692634608294513 -0.23097059792942473 3.9200335860252382 1.7777187119359557 0.63749116348548673 1.6866290406308186 -0.040676717724485362 2.8347535550657685 -1.0446472528655277 -1.2162755734884918 -0.49489156471390744 0.80237409513105051 -0.18567878422118836 2.1669739001696229 1.0847212804330362 5.16514826051786
